<neuralNetwork>
    <neuron name = "0" type = "sensor" linkName = "0TopSensor" />
    <neuron name = "1" type = "sensor" linkName = "0BottomSensor" />
    <neuron name = "2" type = "sensor" linkName = "0URBottomLeg" />
    <neuron name = "3" type = "sensor" linkName = "0ULBottomLeg" />
    <neuron name = "4" type = "sensor" linkName = "0BRBottomLeg" />
    <neuron name = "5" type = "sensor" linkName = "0BLBottomLeg" />
    <neuron name = "6" type = "sensor" linkName = "1TopSensor" />
    <neuron name = "7" type = "sensor" linkName = "1BottomSensor" />
    <neuron name = "8" type = "sensor" linkName = "1URBottomLeg" />
    <neuron name = "9" type = "sensor" linkName = "1ULBottomLeg" />
    <neuron name = "10" type = "sensor" linkName = "1BRBottomLeg" />
    <neuron name = "11" type = "sensor" linkName = "1BLBottomLeg" />
    <neuron name = "12" type = "sensor" linkName = "2TopSensor" />
    <neuron name = "13" type = "sensor" linkName = "2BottomSensor" />
    <neuron name = "14" type = "sensor" linkName = "2URBottomLeg" />
    <neuron name = "15" type = "sensor" linkName = "2ULBottomLeg" />
    <neuron name = "16" type = "sensor" linkName = "2BRBottomLeg" />
    <neuron name = "17" type = "sensor" linkName = "2BLBottomLeg" />
    <neuron name = "18" type = "hidden" />
    <neuron name = "19" type = "hidden" />
    <neuron name = "20" type = "hidden" />
    <neuron name = "21" type = "hidden" />
    <neuron name = "22" type = "hidden" />
    <neuron name = "23" type = "hidden" />
    <neuron name = "24" type = "hidden" />
    <neuron name = "25" type = "hidden" />
    <neuron name = "26" type = "hidden" />
    <neuron name = "27" type = "hidden" />
    <neuron name = "28" type = "motor"  jointName = "0Torso_0URRotate" />
    <neuron name = "29" type = "motor"  jointName = "0URRotate_0URTopLeg" />
    <neuron name = "30" type = "motor"  jointName = "0URTopLeg_0URBottomLeg" />
    <neuron name = "31" type = "motor"  jointName = "0Torso_0ULRotate" />
    <neuron name = "32" type = "motor"  jointName = "0ULRotate_0ULTopLeg" />
    <neuron name = "33" type = "motor"  jointName = "0ULTopLeg_0ULBottomLeg" />
    <neuron name = "34" type = "motor"  jointName = "0Torso_0BRRotate" />
    <neuron name = "35" type = "motor"  jointName = "0BRRotate_0BRTopLeg" />
    <neuron name = "36" type = "motor"  jointName = "0BRTopLeg_0BRBottomLeg" />
    <neuron name = "37" type = "motor"  jointName = "0Torso_0BLRotate" />
    <neuron name = "38" type = "motor"  jointName = "0BLRotate_0BLTopLeg" />
    <neuron name = "39" type = "motor"  jointName = "0BLTopLeg_0BLBottomLeg" />
    <neuron name = "40" type = "motor"  jointName = "1Torso_1URRotate" />
    <neuron name = "41" type = "motor"  jointName = "1URRotate_1URTopLeg" />
    <neuron name = "42" type = "motor"  jointName = "1URTopLeg_1URBottomLeg" />
    <neuron name = "43" type = "motor"  jointName = "1Torso_1ULRotate" />
    <neuron name = "44" type = "motor"  jointName = "1ULRotate_1ULTopLeg" />
    <neuron name = "45" type = "motor"  jointName = "1ULTopLeg_1ULBottomLeg" />
    <neuron name = "46" type = "motor"  jointName = "1Torso_1BRRotate" />
    <neuron name = "47" type = "motor"  jointName = "1BRRotate_1BRTopLeg" />
    <neuron name = "48" type = "motor"  jointName = "1BRTopLeg_1BRBottomLeg" />
    <neuron name = "49" type = "motor"  jointName = "1Torso_1BLRotate" />
    <neuron name = "50" type = "motor"  jointName = "1BLRotate_1BLTopLeg" />
    <neuron name = "51" type = "motor"  jointName = "1BLTopLeg_1BLBottomLeg" />
    <neuron name = "52" type = "motor"  jointName = "2Torso_2URRotate" />
    <neuron name = "53" type = "motor"  jointName = "2URRotate_2URTopLeg" />
    <neuron name = "54" type = "motor"  jointName = "2URTopLeg_2URBottomLeg" />
    <neuron name = "55" type = "motor"  jointName = "2Torso_2ULRotate" />
    <neuron name = "56" type = "motor"  jointName = "2ULRotate_2ULTopLeg" />
    <neuron name = "57" type = "motor"  jointName = "2ULTopLeg_2ULBottomLeg" />
    <neuron name = "58" type = "motor"  jointName = "2Torso_2BRRotate" />
    <neuron name = "59" type = "motor"  jointName = "2BRRotate_2BRTopLeg" />
    <neuron name = "60" type = "motor"  jointName = "2BRTopLeg_2BRBottomLeg" />
    <neuron name = "61" type = "motor"  jointName = "2Torso_2BLRotate" />
    <neuron name = "62" type = "motor"  jointName = "2BLRotate_2BLTopLeg" />
    <neuron name = "63" type = "motor"  jointName = "2BLTopLeg_2BLBottomLeg" />
    <synapse sourceNeuronName = "0" targetNeuronName = "18" weight = "0.01385202757270873" />
    <synapse sourceNeuronName = "0" targetNeuronName = "19" weight = "0.06760492671473822" />
    <synapse sourceNeuronName = "0" targetNeuronName = "20" weight = "-0.027348910062267046" />
    <synapse sourceNeuronName = "0" targetNeuronName = "21" weight = "-0.24533709462849387" />
    <synapse sourceNeuronName = "0" targetNeuronName = "22" weight = "-0.011569727643763399" />
    <synapse sourceNeuronName = "0" targetNeuronName = "23" weight = "0.7185519429770268" />
    <synapse sourceNeuronName = "0" targetNeuronName = "24" weight = "-0.010295579988444749" />
    <synapse sourceNeuronName = "0" targetNeuronName = "25" weight = "-0.01371196009707782" />
    <synapse sourceNeuronName = "0" targetNeuronName = "26" weight = "-0.8213597017378684" />
    <synapse sourceNeuronName = "0" targetNeuronName = "27" weight = "-0.11937655950308321" />
    <synapse sourceNeuronName = "1" targetNeuronName = "18" weight = "0.21410015202776103" />
    <synapse sourceNeuronName = "1" targetNeuronName = "19" weight = "0.4192852497633083" />
    <synapse sourceNeuronName = "1" targetNeuronName = "20" weight = "0.03263276741743465" />
    <synapse sourceNeuronName = "1" targetNeuronName = "21" weight = "-0.3571404146920618" />
    <synapse sourceNeuronName = "1" targetNeuronName = "22" weight = "-0.003657876352465607" />
    <synapse sourceNeuronName = "1" targetNeuronName = "23" weight = "0.8780044597233636" />
    <synapse sourceNeuronName = "1" targetNeuronName = "24" weight = "0.3459451681478534" />
    <synapse sourceNeuronName = "1" targetNeuronName = "25" weight = "0.18938284408022754" />
    <synapse sourceNeuronName = "1" targetNeuronName = "26" weight = "0.5164489958287375" />
    <synapse sourceNeuronName = "1" targetNeuronName = "27" weight = "-0.44723951512155846" />
    <synapse sourceNeuronName = "2" targetNeuronName = "18" weight = "-0.1689730837058821" />
    <synapse sourceNeuronName = "2" targetNeuronName = "19" weight = "-0.24272242327658305" />
    <synapse sourceNeuronName = "2" targetNeuronName = "20" weight = "0.27030321043385486" />
    <synapse sourceNeuronName = "2" targetNeuronName = "21" weight = "0.24383420971167374" />
    <synapse sourceNeuronName = "2" targetNeuronName = "22" weight = "0.013553344201853963" />
    <synapse sourceNeuronName = "2" targetNeuronName = "23" weight = "0.056332359517520095" />
    <synapse sourceNeuronName = "2" targetNeuronName = "24" weight = "-0.06410602060502969" />
    <synapse sourceNeuronName = "2" targetNeuronName = "25" weight = "-0.3610279823287284" />
    <synapse sourceNeuronName = "2" targetNeuronName = "26" weight = "-0.4461306270915405" />
    <synapse sourceNeuronName = "2" targetNeuronName = "27" weight = "-0.380666471873893" />
    <synapse sourceNeuronName = "3" targetNeuronName = "18" weight = "-0.2120205154512347" />
    <synapse sourceNeuronName = "3" targetNeuronName = "19" weight = "-0.8040116098632236" />
    <synapse sourceNeuronName = "3" targetNeuronName = "20" weight = "0.29786711249952325" />
    <synapse sourceNeuronName = "3" targetNeuronName = "21" weight = "0.20597309366874245" />
    <synapse sourceNeuronName = "3" targetNeuronName = "22" weight = "0.4067075867877318" />
    <synapse sourceNeuronName = "3" targetNeuronName = "23" weight = "-0.06406101019197842" />
    <synapse sourceNeuronName = "3" targetNeuronName = "24" weight = "-0.6586668622571504" />
    <synapse sourceNeuronName = "3" targetNeuronName = "25" weight = "-0.4837128395256927" />
    <synapse sourceNeuronName = "3" targetNeuronName = "26" weight = "0.27609931307730806" />
    <synapse sourceNeuronName = "3" targetNeuronName = "27" weight = "0.02487210875390064" />
    <synapse sourceNeuronName = "4" targetNeuronName = "18" weight = "-0.5098236125040205" />
    <synapse sourceNeuronName = "4" targetNeuronName = "19" weight = "-0.6372445992655902" />
    <synapse sourceNeuronName = "4" targetNeuronName = "20" weight = "0.10265460001890406" />
    <synapse sourceNeuronName = "4" targetNeuronName = "21" weight = "-0.4293338067579696" />
    <synapse sourceNeuronName = "4" targetNeuronName = "22" weight = "-0.4726209942533831" />
    <synapse sourceNeuronName = "4" targetNeuronName = "23" weight = "0.05523044158901867" />
    <synapse sourceNeuronName = "4" targetNeuronName = "24" weight = "0.27204689130910614" />
    <synapse sourceNeuronName = "4" targetNeuronName = "25" weight = "0.39249012913113024" />
    <synapse sourceNeuronName = "4" targetNeuronName = "26" weight = "0.4811546860324709" />
    <synapse sourceNeuronName = "4" targetNeuronName = "27" weight = "0.2919494469832048" />
    <synapse sourceNeuronName = "5" targetNeuronName = "18" weight = "-0.48579433697376634" />
    <synapse sourceNeuronName = "5" targetNeuronName = "19" weight = "-0.03770878068834354" />
    <synapse sourceNeuronName = "5" targetNeuronName = "20" weight = "0.449903966623001" />
    <synapse sourceNeuronName = "5" targetNeuronName = "21" weight = "0.13414815448632708" />
    <synapse sourceNeuronName = "5" targetNeuronName = "22" weight = "-0.39771531340953314" />
    <synapse sourceNeuronName = "5" targetNeuronName = "23" weight = "-0.26176145293776976" />
    <synapse sourceNeuronName = "5" targetNeuronName = "24" weight = "0.10581872864576426" />
    <synapse sourceNeuronName = "5" targetNeuronName = "25" weight = "0.7081811742515904" />
    <synapse sourceNeuronName = "5" targetNeuronName = "26" weight = "0.18582252442221917" />
    <synapse sourceNeuronName = "5" targetNeuronName = "27" weight = "0.4680317802198537" />
    <synapse sourceNeuronName = "6" targetNeuronName = "18" weight = "0.7722269118690829" />
    <synapse sourceNeuronName = "6" targetNeuronName = "19" weight = "0.34402235342925774" />
    <synapse sourceNeuronName = "6" targetNeuronName = "20" weight = "-0.37958958895945016" />
    <synapse sourceNeuronName = "6" targetNeuronName = "21" weight = "0.28368706086413187" />
    <synapse sourceNeuronName = "6" targetNeuronName = "22" weight = "-0.2710352491104199" />
    <synapse sourceNeuronName = "6" targetNeuronName = "23" weight = "-0.10398963707450537" />
    <synapse sourceNeuronName = "6" targetNeuronName = "24" weight = "0.25218876132794965" />
    <synapse sourceNeuronName = "6" targetNeuronName = "25" weight = "-0.05750956943124419" />
    <synapse sourceNeuronName = "6" targetNeuronName = "26" weight = "-0.07797301318702504" />
    <synapse sourceNeuronName = "6" targetNeuronName = "27" weight = "-0.31658531395620637" />
    <synapse sourceNeuronName = "7" targetNeuronName = "18" weight = "0.22643194437856834" />
    <synapse sourceNeuronName = "7" targetNeuronName = "19" weight = "0.34481427032655865" />
    <synapse sourceNeuronName = "7" targetNeuronName = "20" weight = "0.026732740136296514" />
    <synapse sourceNeuronName = "7" targetNeuronName = "21" weight = "-0.1029085781887499" />
    <synapse sourceNeuronName = "7" targetNeuronName = "22" weight = "-0.3805703807018297" />
    <synapse sourceNeuronName = "7" targetNeuronName = "23" weight = "-0.1307230959727998" />
    <synapse sourceNeuronName = "7" targetNeuronName = "24" weight = "0.45776659048525664" />
    <synapse sourceNeuronName = "7" targetNeuronName = "25" weight = "0.0671373834485675" />
    <synapse sourceNeuronName = "7" targetNeuronName = "26" weight = "-0.3713526360859858" />
    <synapse sourceNeuronName = "7" targetNeuronName = "27" weight = "-0.37532919568524015" />
    <synapse sourceNeuronName = "8" targetNeuronName = "18" weight = "-0.0650946467666057" />
    <synapse sourceNeuronName = "8" targetNeuronName = "19" weight = "-0.16020998861073735" />
    <synapse sourceNeuronName = "8" targetNeuronName = "20" weight = "0.025303905150572112" />
    <synapse sourceNeuronName = "8" targetNeuronName = "21" weight = "0.2313458619811941" />
    <synapse sourceNeuronName = "8" targetNeuronName = "22" weight = "0.24435427241381202" />
    <synapse sourceNeuronName = "8" targetNeuronName = "23" weight = "0.18109070202225835" />
    <synapse sourceNeuronName = "8" targetNeuronName = "24" weight = "0.12018300285708436" />
    <synapse sourceNeuronName = "8" targetNeuronName = "25" weight = "-0.13819970765641565" />
    <synapse sourceNeuronName = "8" targetNeuronName = "26" weight = "-0.5853812317791021" />
    <synapse sourceNeuronName = "8" targetNeuronName = "27" weight = "0.014505320335627427" />
    <synapse sourceNeuronName = "9" targetNeuronName = "18" weight = "-0.46673630112296893" />
    <synapse sourceNeuronName = "9" targetNeuronName = "19" weight = "0.09641363527314568" />
    <synapse sourceNeuronName = "9" targetNeuronName = "20" weight = "-0.07666563171300668" />
    <synapse sourceNeuronName = "9" targetNeuronName = "21" weight = "-0.7479370719707235" />
    <synapse sourceNeuronName = "9" targetNeuronName = "22" weight = "-0.038830576816074616" />
    <synapse sourceNeuronName = "9" targetNeuronName = "23" weight = "-0.2047989208284147" />
    <synapse sourceNeuronName = "9" targetNeuronName = "24" weight = "0.4957794303590065" />
    <synapse sourceNeuronName = "9" targetNeuronName = "25" weight = "0.35645471811998297" />
    <synapse sourceNeuronName = "9" targetNeuronName = "26" weight = "-0.1389501657438819" />
    <synapse sourceNeuronName = "9" targetNeuronName = "27" weight = "-0.462039076862221" />
    <synapse sourceNeuronName = "10" targetNeuronName = "18" weight = "0.2741356816305275" />
    <synapse sourceNeuronName = "10" targetNeuronName = "19" weight = "0.1497479818009183" />
    <synapse sourceNeuronName = "10" targetNeuronName = "20" weight = "-0.4002135972456109" />
    <synapse sourceNeuronName = "10" targetNeuronName = "21" weight = "-0.07980011926729162" />
    <synapse sourceNeuronName = "10" targetNeuronName = "22" weight = "-0.33599527651484423" />
    <synapse sourceNeuronName = "10" targetNeuronName = "23" weight = "0.1674581247479534" />
    <synapse sourceNeuronName = "10" targetNeuronName = "24" weight = "-0.3253691618368815" />
    <synapse sourceNeuronName = "10" targetNeuronName = "25" weight = "0.512526497022034" />
    <synapse sourceNeuronName = "10" targetNeuronName = "26" weight = "0.3568658106650603" />
    <synapse sourceNeuronName = "10" targetNeuronName = "27" weight = "-0.0332337890435919" />
    <synapse sourceNeuronName = "11" targetNeuronName = "18" weight = "0.04238683147574103" />
    <synapse sourceNeuronName = "11" targetNeuronName = "19" weight = "-0.6382049232075344" />
    <synapse sourceNeuronName = "11" targetNeuronName = "20" weight = "-0.2921249734628196" />
    <synapse sourceNeuronName = "11" targetNeuronName = "21" weight = "0.09029916735370205" />
    <synapse sourceNeuronName = "11" targetNeuronName = "22" weight = "-0.041409976396198034" />
    <synapse sourceNeuronName = "11" targetNeuronName = "23" weight = "0.40396870768884613" />
    <synapse sourceNeuronName = "11" targetNeuronName = "24" weight = "0.18548740472935457" />
    <synapse sourceNeuronName = "11" targetNeuronName = "25" weight = "-0.017111759969055305" />
    <synapse sourceNeuronName = "11" targetNeuronName = "26" weight = "0.6206198008240827" />
    <synapse sourceNeuronName = "11" targetNeuronName = "27" weight = "-0.02890150063837048" />
    <synapse sourceNeuronName = "12" targetNeuronName = "18" weight = "0.3111772598661258" />
    <synapse sourceNeuronName = "12" targetNeuronName = "19" weight = "-0.8422276115427715" />
    <synapse sourceNeuronName = "12" targetNeuronName = "20" weight = "-0.4313517035837795" />
    <synapse sourceNeuronName = "12" targetNeuronName = "21" weight = "0.16271639143533995" />
    <synapse sourceNeuronName = "12" targetNeuronName = "22" weight = "-0.3100188997751468" />
    <synapse sourceNeuronName = "12" targetNeuronName = "23" weight = "0.20183027395362785" />
    <synapse sourceNeuronName = "12" targetNeuronName = "24" weight = "-0.27589093613407656" />
    <synapse sourceNeuronName = "12" targetNeuronName = "25" weight = "-0.28337531221902196" />
    <synapse sourceNeuronName = "12" targetNeuronName = "26" weight = "-0.1321638544156673" />
    <synapse sourceNeuronName = "12" targetNeuronName = "27" weight = "0.2154178261528601" />
    <synapse sourceNeuronName = "13" targetNeuronName = "18" weight = "-0.04697237181817491" />
    <synapse sourceNeuronName = "13" targetNeuronName = "19" weight = "0.14347021920611253" />
    <synapse sourceNeuronName = "13" targetNeuronName = "20" weight = "0.2565134601465665" />
    <synapse sourceNeuronName = "13" targetNeuronName = "21" weight = "0.20640036315952875" />
    <synapse sourceNeuronName = "13" targetNeuronName = "22" weight = "0.014063344706218457" />
    <synapse sourceNeuronName = "13" targetNeuronName = "23" weight = "0.7131247098219898" />
    <synapse sourceNeuronName = "13" targetNeuronName = "24" weight = "-0.46891797143081876" />
    <synapse sourceNeuronName = "13" targetNeuronName = "25" weight = "0.18027374034855176" />
    <synapse sourceNeuronName = "13" targetNeuronName = "26" weight = "-0.10004212014222244" />
    <synapse sourceNeuronName = "13" targetNeuronName = "27" weight = "0.31774112967867374" />
    <synapse sourceNeuronName = "14" targetNeuronName = "18" weight = "-0.18412035671110422" />
    <synapse sourceNeuronName = "14" targetNeuronName = "19" weight = "0.1666585097226728" />
    <synapse sourceNeuronName = "14" targetNeuronName = "20" weight = "0.3853076176073263" />
    <synapse sourceNeuronName = "14" targetNeuronName = "21" weight = "-0.11597444430091827" />
    <synapse sourceNeuronName = "14" targetNeuronName = "22" weight = "-0.19734722549176054" />
    <synapse sourceNeuronName = "14" targetNeuronName = "23" weight = "-0.0074626135751627" />
    <synapse sourceNeuronName = "14" targetNeuronName = "24" weight = "0.04103080504182537" />
    <synapse sourceNeuronName = "14" targetNeuronName = "25" weight = "-0.28038120459892313" />
    <synapse sourceNeuronName = "14" targetNeuronName = "26" weight = "-0.3169824005865334" />
    <synapse sourceNeuronName = "14" targetNeuronName = "27" weight = "0.04595968353621264" />
    <synapse sourceNeuronName = "15" targetNeuronName = "18" weight = "-0.03811497817565472" />
    <synapse sourceNeuronName = "15" targetNeuronName = "19" weight = "0.011598320608600766" />
    <synapse sourceNeuronName = "15" targetNeuronName = "20" weight = "-0.46537314846937317" />
    <synapse sourceNeuronName = "15" targetNeuronName = "21" weight = "0.36089585592662343" />
    <synapse sourceNeuronName = "15" targetNeuronName = "22" weight = "0.22495919286651325" />
    <synapse sourceNeuronName = "15" targetNeuronName = "23" weight = "0.19956825277373416" />
    <synapse sourceNeuronName = "15" targetNeuronName = "24" weight = "0.14074626674029145" />
    <synapse sourceNeuronName = "15" targetNeuronName = "25" weight = "-0.07054099130997904" />
    <synapse sourceNeuronName = "15" targetNeuronName = "26" weight = "0.08118160416373228" />
    <synapse sourceNeuronName = "15" targetNeuronName = "27" weight = "-0.08496606059698647" />
    <synapse sourceNeuronName = "16" targetNeuronName = "18" weight = "-0.1890224052719255" />
    <synapse sourceNeuronName = "16" targetNeuronName = "19" weight = "0.1189733196884317" />
    <synapse sourceNeuronName = "16" targetNeuronName = "20" weight = "-0.14292867103054738" />
    <synapse sourceNeuronName = "16" targetNeuronName = "21" weight = "0.4676291020332468" />
    <synapse sourceNeuronName = "16" targetNeuronName = "22" weight = "0.1332176068077605" />
    <synapse sourceNeuronName = "16" targetNeuronName = "23" weight = "0.06503067194893399" />
    <synapse sourceNeuronName = "16" targetNeuronName = "24" weight = "0.15508806846143106" />
    <synapse sourceNeuronName = "16" targetNeuronName = "25" weight = "0.4381399015710093" />
    <synapse sourceNeuronName = "16" targetNeuronName = "26" weight = "-0.08876409393956958" />
    <synapse sourceNeuronName = "16" targetNeuronName = "27" weight = "0.2922687305368481" />
    <synapse sourceNeuronName = "17" targetNeuronName = "18" weight = "-0.2125781470995175" />
    <synapse sourceNeuronName = "17" targetNeuronName = "19" weight = "0.348156382563869" />
    <synapse sourceNeuronName = "17" targetNeuronName = "20" weight = "0.23111947113975168" />
    <synapse sourceNeuronName = "17" targetNeuronName = "21" weight = "0.31078000154447993" />
    <synapse sourceNeuronName = "17" targetNeuronName = "22" weight = "-0.26640877602716184" />
    <synapse sourceNeuronName = "17" targetNeuronName = "23" weight = "0.23273642542213357" />
    <synapse sourceNeuronName = "17" targetNeuronName = "24" weight = "0.027850051817802413" />
    <synapse sourceNeuronName = "17" targetNeuronName = "25" weight = "0.3331899290119634" />
    <synapse sourceNeuronName = "17" targetNeuronName = "26" weight = "-0.034734099767328976" />
    <synapse sourceNeuronName = "17" targetNeuronName = "27" weight = "0.08870499652185082" />
    <synapse sourceNeuronName = "18" targetNeuronName = "28" weight = "0.5161954074058611" />
    <synapse sourceNeuronName = "18" targetNeuronName = "29" weight = "0.15122145890923244" />
    <synapse sourceNeuronName = "18" targetNeuronName = "30" weight = "0.5400985868448481" />
    <synapse sourceNeuronName = "18" targetNeuronName = "31" weight = "-0.44696798873585625" />
    <synapse sourceNeuronName = "18" targetNeuronName = "32" weight = "-0.4330586713165519" />
    <synapse sourceNeuronName = "18" targetNeuronName = "33" weight = "0.4158727284740325" />
    <synapse sourceNeuronName = "18" targetNeuronName = "34" weight = "-0.153977149253566" />
    <synapse sourceNeuronName = "18" targetNeuronName = "35" weight = "-0.5627145358956851" />
    <synapse sourceNeuronName = "18" targetNeuronName = "36" weight = "-0.5717925843231004" />
    <synapse sourceNeuronName = "18" targetNeuronName = "37" weight = "-0.2267348033504737" />
    <synapse sourceNeuronName = "18" targetNeuronName = "38" weight = "-0.12908131749053187" />
    <synapse sourceNeuronName = "18" targetNeuronName = "39" weight = "0.2814846145413992" />
    <synapse sourceNeuronName = "18" targetNeuronName = "40" weight = "0.35843057455657196" />
    <synapse sourceNeuronName = "18" targetNeuronName = "41" weight = "0.36893418013777063" />
    <synapse sourceNeuronName = "18" targetNeuronName = "42" weight = "0.007144981972277939" />
    <synapse sourceNeuronName = "18" targetNeuronName = "43" weight = "0.19728133200935694" />
    <synapse sourceNeuronName = "18" targetNeuronName = "44" weight = "-0.12306580512838275" />
    <synapse sourceNeuronName = "18" targetNeuronName = "45" weight = "0.09625837584194954" />
    <synapse sourceNeuronName = "18" targetNeuronName = "46" weight = "0.2979168386545682" />
    <synapse sourceNeuronName = "18" targetNeuronName = "47" weight = "-0.594283481200552" />
    <synapse sourceNeuronName = "18" targetNeuronName = "48" weight = "-0.8582371553467101" />
    <synapse sourceNeuronName = "18" targetNeuronName = "49" weight = "-0.7334963735326259" />
    <synapse sourceNeuronName = "18" targetNeuronName = "50" weight = "-0.22580727065152517" />
    <synapse sourceNeuronName = "18" targetNeuronName = "51" weight = "-0.29896326543855734" />
    <synapse sourceNeuronName = "18" targetNeuronName = "52" weight = "0.13702242708005874" />
    <synapse sourceNeuronName = "18" targetNeuronName = "53" weight = "0.18651457884707803" />
    <synapse sourceNeuronName = "18" targetNeuronName = "54" weight = "0.9267072006391652" />
    <synapse sourceNeuronName = "18" targetNeuronName = "55" weight = "0.20714891995438267" />
    <synapse sourceNeuronName = "18" targetNeuronName = "56" weight = "-0.21978439082092396" />
    <synapse sourceNeuronName = "18" targetNeuronName = "57" weight = "0.26523752870760475" />
    <synapse sourceNeuronName = "18" targetNeuronName = "58" weight = "-0.10588135414215721" />
    <synapse sourceNeuronName = "18" targetNeuronName = "59" weight = "-0.06735390327587501" />
    <synapse sourceNeuronName = "18" targetNeuronName = "60" weight = "-0.20448445991003278" />
    <synapse sourceNeuronName = "18" targetNeuronName = "61" weight = "-0.35993365575076225" />
    <synapse sourceNeuronName = "18" targetNeuronName = "62" weight = "0.16856620388624965" />
    <synapse sourceNeuronName = "18" targetNeuronName = "63" weight = "-0.002614946871710451" />
    <synapse sourceNeuronName = "19" targetNeuronName = "28" weight = "0.04870997161500557" />
    <synapse sourceNeuronName = "19" targetNeuronName = "29" weight = "-0.19128951789671236" />
    <synapse sourceNeuronName = "19" targetNeuronName = "30" weight = "0.3392805882557389" />
    <synapse sourceNeuronName = "19" targetNeuronName = "31" weight = "-0.09615084601891657" />
    <synapse sourceNeuronName = "19" targetNeuronName = "32" weight = "-0.11807639168334666" />
    <synapse sourceNeuronName = "19" targetNeuronName = "33" weight = "0.18858560533661362" />
    <synapse sourceNeuronName = "19" targetNeuronName = "34" weight = "-0.07000123610470509" />
    <synapse sourceNeuronName = "19" targetNeuronName = "35" weight = "-0.3123611510203937" />
    <synapse sourceNeuronName = "19" targetNeuronName = "36" weight = "0.39027054508731607" />
    <synapse sourceNeuronName = "19" targetNeuronName = "37" weight = "0.10951820983891253" />
    <synapse sourceNeuronName = "19" targetNeuronName = "38" weight = "-0.11731455864433679" />
    <synapse sourceNeuronName = "19" targetNeuronName = "39" weight = "0.40390453768407875" />
    <synapse sourceNeuronName = "19" targetNeuronName = "40" weight = "0.08849241833621399" />
    <synapse sourceNeuronName = "19" targetNeuronName = "41" weight = "0.2503750275123594" />
    <synapse sourceNeuronName = "19" targetNeuronName = "42" weight = "0.005709399121637154" />
    <synapse sourceNeuronName = "19" targetNeuronName = "43" weight = "0.21882418273655382" />
    <synapse sourceNeuronName = "19" targetNeuronName = "44" weight = "-0.1099120312133532" />
    <synapse sourceNeuronName = "19" targetNeuronName = "45" weight = "-0.5072876838960998" />
    <synapse sourceNeuronName = "19" targetNeuronName = "46" weight = "0.4453656440078651" />
    <synapse sourceNeuronName = "19" targetNeuronName = "47" weight = "-0.0944500816692882" />
    <synapse sourceNeuronName = "19" targetNeuronName = "48" weight = "0.20437604386306557" />
    <synapse sourceNeuronName = "19" targetNeuronName = "49" weight = "-0.21584106644574932" />
    <synapse sourceNeuronName = "19" targetNeuronName = "50" weight = "0.19673029651251595" />
    <synapse sourceNeuronName = "19" targetNeuronName = "51" weight = "0.7317756261126208" />
    <synapse sourceNeuronName = "19" targetNeuronName = "52" weight = "-0.08167365096245718" />
    <synapse sourceNeuronName = "19" targetNeuronName = "53" weight = "1.0175458944407292" />
    <synapse sourceNeuronName = "19" targetNeuronName = "54" weight = "-0.11541217886516254" />
    <synapse sourceNeuronName = "19" targetNeuronName = "55" weight = "0.26815903047944756" />
    <synapse sourceNeuronName = "19" targetNeuronName = "56" weight = "0.06713314539167814" />
    <synapse sourceNeuronName = "19" targetNeuronName = "57" weight = "-0.07351161965873151" />
    <synapse sourceNeuronName = "19" targetNeuronName = "58" weight = "-0.031263980201168565" />
    <synapse sourceNeuronName = "19" targetNeuronName = "59" weight = "-0.15207385587580352" />
    <synapse sourceNeuronName = "19" targetNeuronName = "60" weight = "0.4083874565543417" />
    <synapse sourceNeuronName = "19" targetNeuronName = "61" weight = "0.10112749087952033" />
    <synapse sourceNeuronName = "19" targetNeuronName = "62" weight = "-0.00880678743157883" />
    <synapse sourceNeuronName = "19" targetNeuronName = "63" weight = "-0.04069966478347423" />
    <synapse sourceNeuronName = "20" targetNeuronName = "28" weight = "0.31158318011316843" />
    <synapse sourceNeuronName = "20" targetNeuronName = "29" weight = "0.38438481985095835" />
    <synapse sourceNeuronName = "20" targetNeuronName = "30" weight = "0.13123096520418415" />
    <synapse sourceNeuronName = "20" targetNeuronName = "31" weight = "-0.13760432937230097" />
    <synapse sourceNeuronName = "20" targetNeuronName = "32" weight = "-0.37023805513355645" />
    <synapse sourceNeuronName = "20" targetNeuronName = "33" weight = "0.05077304537275821" />
    <synapse sourceNeuronName = "20" targetNeuronName = "34" weight = "0.07002215468602839" />
    <synapse sourceNeuronName = "20" targetNeuronName = "35" weight = "0.22349510361299865" />
    <synapse sourceNeuronName = "20" targetNeuronName = "36" weight = "0.33695511253746574" />
    <synapse sourceNeuronName = "20" targetNeuronName = "37" weight = "0.5328141401205059" />
    <synapse sourceNeuronName = "20" targetNeuronName = "38" weight = "-0.4769303874701317" />
    <synapse sourceNeuronName = "20" targetNeuronName = "39" weight = "0.25245874159642323" />
    <synapse sourceNeuronName = "20" targetNeuronName = "40" weight = "-0.5228897105680682" />
    <synapse sourceNeuronName = "20" targetNeuronName = "41" weight = "-0.5386988122549147" />
    <synapse sourceNeuronName = "20" targetNeuronName = "42" weight = "-0.04121696276541391" />
    <synapse sourceNeuronName = "20" targetNeuronName = "43" weight = "-0.538533129134547" />
    <synapse sourceNeuronName = "20" targetNeuronName = "44" weight = "0.16147764368256637" />
    <synapse sourceNeuronName = "20" targetNeuronName = "45" weight = "-0.06473407487604746" />
    <synapse sourceNeuronName = "20" targetNeuronName = "46" weight = "0.221311067940432" />
    <synapse sourceNeuronName = "20" targetNeuronName = "47" weight = "-0.11594990735029809" />
    <synapse sourceNeuronName = "20" targetNeuronName = "48" weight = "-0.022516682967572033" />
    <synapse sourceNeuronName = "20" targetNeuronName = "49" weight = "0.2668534913454704" />
    <synapse sourceNeuronName = "20" targetNeuronName = "50" weight = "-0.560287214647617" />
    <synapse sourceNeuronName = "20" targetNeuronName = "51" weight = "0.17876942461240564" />
    <synapse sourceNeuronName = "20" targetNeuronName = "52" weight = "-0.22613329259125986" />
    <synapse sourceNeuronName = "20" targetNeuronName = "53" weight = "0.03776943624179924" />
    <synapse sourceNeuronName = "20" targetNeuronName = "54" weight = "-0.15019842271232337" />
    <synapse sourceNeuronName = "20" targetNeuronName = "55" weight = "-0.13713653958665584" />
    <synapse sourceNeuronName = "20" targetNeuronName = "56" weight = "0.002046969108977891" />
    <synapse sourceNeuronName = "20" targetNeuronName = "57" weight = "0.04225916598275979" />
    <synapse sourceNeuronName = "20" targetNeuronName = "58" weight = "-0.6947826600940844" />
    <synapse sourceNeuronName = "20" targetNeuronName = "59" weight = "-0.2792815087060115" />
    <synapse sourceNeuronName = "20" targetNeuronName = "60" weight = "0.437576881717811" />
    <synapse sourceNeuronName = "20" targetNeuronName = "61" weight = "0.028934641410653817" />
    <synapse sourceNeuronName = "20" targetNeuronName = "62" weight = "-0.44550089680350835" />
    <synapse sourceNeuronName = "20" targetNeuronName = "63" weight = "0.6765330395615266" />
    <synapse sourceNeuronName = "21" targetNeuronName = "28" weight = "-0.24182941033546046" />
    <synapse sourceNeuronName = "21" targetNeuronName = "29" weight = "-0.4580489747144413" />
    <synapse sourceNeuronName = "21" targetNeuronName = "30" weight = "0.035705609364082985" />
    <synapse sourceNeuronName = "21" targetNeuronName = "31" weight = "0.2412996873895669" />
    <synapse sourceNeuronName = "21" targetNeuronName = "32" weight = "-0.16484275396020226" />
    <synapse sourceNeuronName = "21" targetNeuronName = "33" weight = "0.22508940816768735" />
    <synapse sourceNeuronName = "21" targetNeuronName = "34" weight = "0.38068201170195815" />
    <synapse sourceNeuronName = "21" targetNeuronName = "35" weight = "-0.4174363836625757" />
    <synapse sourceNeuronName = "21" targetNeuronName = "36" weight = "-0.6794064066746266" />
    <synapse sourceNeuronName = "21" targetNeuronName = "37" weight = "-0.048254629299406056" />
    <synapse sourceNeuronName = "21" targetNeuronName = "38" weight = "-0.5108233098275954" />
    <synapse sourceNeuronName = "21" targetNeuronName = "39" weight = "0.04510526295523613" />
    <synapse sourceNeuronName = "21" targetNeuronName = "40" weight = "0.3232567878265241" />
    <synapse sourceNeuronName = "21" targetNeuronName = "41" weight = "-0.2729536158877818" />
    <synapse sourceNeuronName = "21" targetNeuronName = "42" weight = "0.14748116617183346" />
    <synapse sourceNeuronName = "21" targetNeuronName = "43" weight = "-0.4741869698539963" />
    <synapse sourceNeuronName = "21" targetNeuronName = "44" weight = "-0.10609087529417723" />
    <synapse sourceNeuronName = "21" targetNeuronName = "45" weight = "0.11761904533344053" />
    <synapse sourceNeuronName = "21" targetNeuronName = "46" weight = "-0.35521713141373146" />
    <synapse sourceNeuronName = "21" targetNeuronName = "47" weight = "0.5166254235708649" />
    <synapse sourceNeuronName = "21" targetNeuronName = "48" weight = "-0.2517676291130312" />
    <synapse sourceNeuronName = "21" targetNeuronName = "49" weight = "0.35428489972561283" />
    <synapse sourceNeuronName = "21" targetNeuronName = "50" weight = "-0.282295381871152" />
    <synapse sourceNeuronName = "21" targetNeuronName = "51" weight = "0.37406180029037484" />
    <synapse sourceNeuronName = "21" targetNeuronName = "52" weight = "0.0659458962723395" />
    <synapse sourceNeuronName = "21" targetNeuronName = "53" weight = "0.1745524897262827" />
    <synapse sourceNeuronName = "21" targetNeuronName = "54" weight = "0.44011086613875905" />
    <synapse sourceNeuronName = "21" targetNeuronName = "55" weight = "0.3653579103742548" />
    <synapse sourceNeuronName = "21" targetNeuronName = "56" weight = "0.13277775381295914" />
    <synapse sourceNeuronName = "21" targetNeuronName = "57" weight = "0.47688835381375944" />
    <synapse sourceNeuronName = "21" targetNeuronName = "58" weight = "0.4035179776267648" />
    <synapse sourceNeuronName = "21" targetNeuronName = "59" weight = "0.3638920531417525" />
    <synapse sourceNeuronName = "21" targetNeuronName = "60" weight = "-0.68117871049974" />
    <synapse sourceNeuronName = "21" targetNeuronName = "61" weight = "0.548550674014565" />
    <synapse sourceNeuronName = "21" targetNeuronName = "62" weight = "0.07761370933375625" />
    <synapse sourceNeuronName = "21" targetNeuronName = "63" weight = "-0.06668597360584172" />
    <synapse sourceNeuronName = "22" targetNeuronName = "28" weight = "0.2592197028536989" />
    <synapse sourceNeuronName = "22" targetNeuronName = "29" weight = "0.5007461926517731" />
    <synapse sourceNeuronName = "22" targetNeuronName = "30" weight = "-0.01009260269584196" />
    <synapse sourceNeuronName = "22" targetNeuronName = "31" weight = "-0.1711290711591273" />
    <synapse sourceNeuronName = "22" targetNeuronName = "32" weight = "0.17186552151486592" />
    <synapse sourceNeuronName = "22" targetNeuronName = "33" weight = "-0.06427568059418916" />
    <synapse sourceNeuronName = "22" targetNeuronName = "34" weight = "-0.5975210836506157" />
    <synapse sourceNeuronName = "22" targetNeuronName = "35" weight = "0.0679764109564526" />
    <synapse sourceNeuronName = "22" targetNeuronName = "36" weight = "-0.4263680486044743" />
    <synapse sourceNeuronName = "22" targetNeuronName = "37" weight = "0.32415919333066134" />
    <synapse sourceNeuronName = "22" targetNeuronName = "38" weight = "0.3089762974722636" />
    <synapse sourceNeuronName = "22" targetNeuronName = "39" weight = "-0.549418476946719" />
    <synapse sourceNeuronName = "22" targetNeuronName = "40" weight = "-0.0647786404388617" />
    <synapse sourceNeuronName = "22" targetNeuronName = "41" weight = "0.15840031712324262" />
    <synapse sourceNeuronName = "22" targetNeuronName = "42" weight = "-0.6151319150522221" />
    <synapse sourceNeuronName = "22" targetNeuronName = "43" weight = "0.27134472922114505" />
    <synapse sourceNeuronName = "22" targetNeuronName = "44" weight = "-0.4599419027491605" />
    <synapse sourceNeuronName = "22" targetNeuronName = "45" weight = "-0.6270640193780248" />
    <synapse sourceNeuronName = "22" targetNeuronName = "46" weight = "-0.7643666782020981" />
    <synapse sourceNeuronName = "22" targetNeuronName = "47" weight = "-0.1520968850858809" />
    <synapse sourceNeuronName = "22" targetNeuronName = "48" weight = "-0.023898101565853848" />
    <synapse sourceNeuronName = "22" targetNeuronName = "49" weight = "0.3890980796948502" />
    <synapse sourceNeuronName = "22" targetNeuronName = "50" weight = "-0.825473565380655" />
    <synapse sourceNeuronName = "22" targetNeuronName = "51" weight = "0.05609341434168241" />
    <synapse sourceNeuronName = "22" targetNeuronName = "52" weight = "-1.1405507202598542" />
    <synapse sourceNeuronName = "22" targetNeuronName = "53" weight = "-0.6339644412795868" />
    <synapse sourceNeuronName = "22" targetNeuronName = "54" weight = "1.0885918810970265" />
    <synapse sourceNeuronName = "22" targetNeuronName = "55" weight = "0.5892911680041293" />
    <synapse sourceNeuronName = "22" targetNeuronName = "56" weight = "0.12112859032259612" />
    <synapse sourceNeuronName = "22" targetNeuronName = "57" weight = "-0.21792650056081347" />
    <synapse sourceNeuronName = "22" targetNeuronName = "58" weight = "-0.020712216742788506" />
    <synapse sourceNeuronName = "22" targetNeuronName = "59" weight = "0.3006701153301715" />
    <synapse sourceNeuronName = "22" targetNeuronName = "60" weight = "0.1504117666125021" />
    <synapse sourceNeuronName = "22" targetNeuronName = "61" weight = "0.18378156152677688" />
    <synapse sourceNeuronName = "22" targetNeuronName = "62" weight = "0.020595580195099904" />
    <synapse sourceNeuronName = "22" targetNeuronName = "63" weight = "0.27538937570766364" />
    <synapse sourceNeuronName = "23" targetNeuronName = "28" weight = "-0.10381305984638885" />
    <synapse sourceNeuronName = "23" targetNeuronName = "29" weight = "-0.736743951480249" />
    <synapse sourceNeuronName = "23" targetNeuronName = "30" weight = "0.11964820599277627" />
    <synapse sourceNeuronName = "23" targetNeuronName = "31" weight = "-0.465249144169307" />
    <synapse sourceNeuronName = "23" targetNeuronName = "32" weight = "0.21429704638172944" />
    <synapse sourceNeuronName = "23" targetNeuronName = "33" weight = "-0.4382149015468293" />
    <synapse sourceNeuronName = "23" targetNeuronName = "34" weight = "-0.3918483038993823" />
    <synapse sourceNeuronName = "23" targetNeuronName = "35" weight = "0.32850928243412114" />
    <synapse sourceNeuronName = "23" targetNeuronName = "36" weight = "-0.6006319203207634" />
    <synapse sourceNeuronName = "23" targetNeuronName = "37" weight = "-0.48532630171179625" />
    <synapse sourceNeuronName = "23" targetNeuronName = "38" weight = "-0.037157770308954785" />
    <synapse sourceNeuronName = "23" targetNeuronName = "39" weight = "-0.3095095781564819" />
    <synapse sourceNeuronName = "23" targetNeuronName = "40" weight = "-0.17862654536533118" />
    <synapse sourceNeuronName = "23" targetNeuronName = "41" weight = "0.033103976933169674" />
    <synapse sourceNeuronName = "23" targetNeuronName = "42" weight = "0.08607195580845281" />
    <synapse sourceNeuronName = "23" targetNeuronName = "43" weight = "-0.2531748484482472" />
    <synapse sourceNeuronName = "23" targetNeuronName = "44" weight = "0.5054557667800367" />
    <synapse sourceNeuronName = "23" targetNeuronName = "45" weight = "0.09073728848436352" />
    <synapse sourceNeuronName = "23" targetNeuronName = "46" weight = "0.3973221837967159" />
    <synapse sourceNeuronName = "23" targetNeuronName = "47" weight = "0.2827881593483794" />
    <synapse sourceNeuronName = "23" targetNeuronName = "48" weight = "0.15755867463620346" />
    <synapse sourceNeuronName = "23" targetNeuronName = "49" weight = "-0.05722390877741693" />
    <synapse sourceNeuronName = "23" targetNeuronName = "50" weight = "-0.44111629601576774" />
    <synapse sourceNeuronName = "23" targetNeuronName = "51" weight = "-0.01920196306799648" />
    <synapse sourceNeuronName = "23" targetNeuronName = "52" weight = "0.24728001840763075" />
    <synapse sourceNeuronName = "23" targetNeuronName = "53" weight = "0.23163350220478768" />
    <synapse sourceNeuronName = "23" targetNeuronName = "54" weight = "-0.09399305367826383" />
    <synapse sourceNeuronName = "23" targetNeuronName = "55" weight = "-0.6609419091359872" />
    <synapse sourceNeuronName = "23" targetNeuronName = "56" weight = "0.062085216759134365" />
    <synapse sourceNeuronName = "23" targetNeuronName = "57" weight = "0.32223617489547296" />
    <synapse sourceNeuronName = "23" targetNeuronName = "58" weight = "0.09168755828754152" />
    <synapse sourceNeuronName = "23" targetNeuronName = "59" weight = "-0.06763397468956657" />
    <synapse sourceNeuronName = "23" targetNeuronName = "60" weight = "-0.22572107244657683" />
    <synapse sourceNeuronName = "23" targetNeuronName = "61" weight = "-0.18354267895992396" />
    <synapse sourceNeuronName = "23" targetNeuronName = "62" weight = "0.06683536147404864" />
    <synapse sourceNeuronName = "23" targetNeuronName = "63" weight = "0.032688712863228137" />
    <synapse sourceNeuronName = "24" targetNeuronName = "28" weight = "-0.4277343876331071" />
    <synapse sourceNeuronName = "24" targetNeuronName = "29" weight = "-0.3608890925998809" />
    <synapse sourceNeuronName = "24" targetNeuronName = "30" weight = "0.6660329037959689" />
    <synapse sourceNeuronName = "24" targetNeuronName = "31" weight = "-0.037126975361973465" />
    <synapse sourceNeuronName = "24" targetNeuronName = "32" weight = "-0.3689290599748104" />
    <synapse sourceNeuronName = "24" targetNeuronName = "33" weight = "0.3374903978268984" />
    <synapse sourceNeuronName = "24" targetNeuronName = "34" weight = "0.6137563236276934" />
    <synapse sourceNeuronName = "24" targetNeuronName = "35" weight = "-0.09984046148670231" />
    <synapse sourceNeuronName = "24" targetNeuronName = "36" weight = "-0.3658916571010572" />
    <synapse sourceNeuronName = "24" targetNeuronName = "37" weight = "-0.0962785783398443" />
    <synapse sourceNeuronName = "24" targetNeuronName = "38" weight = "0.7701574655665955" />
    <synapse sourceNeuronName = "24" targetNeuronName = "39" weight = "0.3929015429776302" />
    <synapse sourceNeuronName = "24" targetNeuronName = "40" weight = "0.17624476125300806" />
    <synapse sourceNeuronName = "24" targetNeuronName = "41" weight = "-0.26409242455721693" />
    <synapse sourceNeuronName = "24" targetNeuronName = "42" weight = "0.1360803123088164" />
    <synapse sourceNeuronName = "24" targetNeuronName = "43" weight = "-0.18136670137346514" />
    <synapse sourceNeuronName = "24" targetNeuronName = "44" weight = "-0.1668745011632587" />
    <synapse sourceNeuronName = "24" targetNeuronName = "45" weight = "0.03413855601338611" />
    <synapse sourceNeuronName = "24" targetNeuronName = "46" weight = "-0.12312324624371962" />
    <synapse sourceNeuronName = "24" targetNeuronName = "47" weight = "0.07121796830999684" />
    <synapse sourceNeuronName = "24" targetNeuronName = "48" weight = "-0.44184425507378366" />
    <synapse sourceNeuronName = "24" targetNeuronName = "49" weight = "0.3313638346811161" />
    <synapse sourceNeuronName = "24" targetNeuronName = "50" weight = "0.7120879417359873" />
    <synapse sourceNeuronName = "24" targetNeuronName = "51" weight = "0.029763689198219825" />
    <synapse sourceNeuronName = "24" targetNeuronName = "52" weight = "-0.06183613173908642" />
    <synapse sourceNeuronName = "24" targetNeuronName = "53" weight = "0.019730698242648583" />
    <synapse sourceNeuronName = "24" targetNeuronName = "54" weight = "0.018229922933378245" />
    <synapse sourceNeuronName = "24" targetNeuronName = "55" weight = "-0.5365877511375581" />
    <synapse sourceNeuronName = "24" targetNeuronName = "56" weight = "-0.20518594237463242" />
    <synapse sourceNeuronName = "24" targetNeuronName = "57" weight = "-0.5088118384309565" />
    <synapse sourceNeuronName = "24" targetNeuronName = "58" weight = "-0.2376537226718296" />
    <synapse sourceNeuronName = "24" targetNeuronName = "59" weight = "0.08018837555285999" />
    <synapse sourceNeuronName = "24" targetNeuronName = "60" weight = "0.42263204821382727" />
    <synapse sourceNeuronName = "24" targetNeuronName = "61" weight = "0.10060194817475765" />
    <synapse sourceNeuronName = "24" targetNeuronName = "62" weight = "0.01657640887245539" />
    <synapse sourceNeuronName = "24" targetNeuronName = "63" weight = "0.7744269500405154" />
    <synapse sourceNeuronName = "25" targetNeuronName = "28" weight = "0.37782451641836295" />
    <synapse sourceNeuronName = "25" targetNeuronName = "29" weight = "-0.3904974719194077" />
    <synapse sourceNeuronName = "25" targetNeuronName = "30" weight = "0.03788877973693683" />
    <synapse sourceNeuronName = "25" targetNeuronName = "31" weight = "-0.29210983648290895" />
    <synapse sourceNeuronName = "25" targetNeuronName = "32" weight = "-0.8286070288509839" />
    <synapse sourceNeuronName = "25" targetNeuronName = "33" weight = "-0.27316678799656335" />
    <synapse sourceNeuronName = "25" targetNeuronName = "34" weight = "-0.18038624801132486" />
    <synapse sourceNeuronName = "25" targetNeuronName = "35" weight = "-0.14891875718597092" />
    <synapse sourceNeuronName = "25" targetNeuronName = "36" weight = "0.34470123204890296" />
    <synapse sourceNeuronName = "25" targetNeuronName = "37" weight = "0.4673688436529254" />
    <synapse sourceNeuronName = "25" targetNeuronName = "38" weight = "-0.014675797741963877" />
    <synapse sourceNeuronName = "25" targetNeuronName = "39" weight = "-0.08456466356526199" />
    <synapse sourceNeuronName = "25" targetNeuronName = "40" weight = "0.8812508624217525" />
    <synapse sourceNeuronName = "25" targetNeuronName = "41" weight = "0.07565131986687369" />
    <synapse sourceNeuronName = "25" targetNeuronName = "42" weight = "-0.36898085271119696" />
    <synapse sourceNeuronName = "25" targetNeuronName = "43" weight = "0.0649714519279819" />
    <synapse sourceNeuronName = "25" targetNeuronName = "44" weight = "-0.45082727048463817" />
    <synapse sourceNeuronName = "25" targetNeuronName = "45" weight = "-0.21610817004287836" />
    <synapse sourceNeuronName = "25" targetNeuronName = "46" weight = "-0.10472597304108995" />
    <synapse sourceNeuronName = "25" targetNeuronName = "47" weight = "-0.6374080840933125" />
    <synapse sourceNeuronName = "25" targetNeuronName = "48" weight = "0.05362969264151452" />
    <synapse sourceNeuronName = "25" targetNeuronName = "49" weight = "-0.0068130534801500026" />
    <synapse sourceNeuronName = "25" targetNeuronName = "50" weight = "0.02277977101406596" />
    <synapse sourceNeuronName = "25" targetNeuronName = "51" weight = "0.5677559894162547" />
    <synapse sourceNeuronName = "25" targetNeuronName = "52" weight = "0.03917685878913733" />
    <synapse sourceNeuronName = "25" targetNeuronName = "53" weight = "0.20797045426864574" />
    <synapse sourceNeuronName = "25" targetNeuronName = "54" weight = "0.4656876854830232" />
    <synapse sourceNeuronName = "25" targetNeuronName = "55" weight = "0.5789890518837311" />
    <synapse sourceNeuronName = "25" targetNeuronName = "56" weight = "0.19777139727066523" />
    <synapse sourceNeuronName = "25" targetNeuronName = "57" weight = "0.48524933178590524" />
    <synapse sourceNeuronName = "25" targetNeuronName = "58" weight = "-0.051360113432874784" />
    <synapse sourceNeuronName = "25" targetNeuronName = "59" weight = "0.19664795656716172" />
    <synapse sourceNeuronName = "25" targetNeuronName = "60" weight = "-0.017546832979822763" />
    <synapse sourceNeuronName = "25" targetNeuronName = "61" weight = "0.15559077210972272" />
    <synapse sourceNeuronName = "25" targetNeuronName = "62" weight = "0.13106256320178122" />
    <synapse sourceNeuronName = "25" targetNeuronName = "63" weight = "0.44652005630411923" />
    <synapse sourceNeuronName = "26" targetNeuronName = "28" weight = "-0.2297906049268951" />
    <synapse sourceNeuronName = "26" targetNeuronName = "29" weight = "0.18662592188299787" />
    <synapse sourceNeuronName = "26" targetNeuronName = "30" weight = "0.15132799244735348" />
    <synapse sourceNeuronName = "26" targetNeuronName = "31" weight = "-0.12298610801317124" />
    <synapse sourceNeuronName = "26" targetNeuronName = "32" weight = "0.04022091070233698" />
    <synapse sourceNeuronName = "26" targetNeuronName = "33" weight = "0.4069820248987573" />
    <synapse sourceNeuronName = "26" targetNeuronName = "34" weight = "-0.04673385705100888" />
    <synapse sourceNeuronName = "26" targetNeuronName = "35" weight = "-0.09026449656396077" />
    <synapse sourceNeuronName = "26" targetNeuronName = "36" weight = "0.20774406380353005" />
    <synapse sourceNeuronName = "26" targetNeuronName = "37" weight = "-0.21015038536022027" />
    <synapse sourceNeuronName = "26" targetNeuronName = "38" weight = "-0.09859137191064589" />
    <synapse sourceNeuronName = "26" targetNeuronName = "39" weight = "-0.6269388136987819" />
    <synapse sourceNeuronName = "26" targetNeuronName = "40" weight = "0.1418455930754563" />
    <synapse sourceNeuronName = "26" targetNeuronName = "41" weight = "0.035373529608706905" />
    <synapse sourceNeuronName = "26" targetNeuronName = "42" weight = "-0.1847686886117868" />
    <synapse sourceNeuronName = "26" targetNeuronName = "43" weight = "0.5195412061091217" />
    <synapse sourceNeuronName = "26" targetNeuronName = "44" weight = "0.7602851417162513" />
    <synapse sourceNeuronName = "26" targetNeuronName = "45" weight = "0.09558011408718531" />
    <synapse sourceNeuronName = "26" targetNeuronName = "46" weight = "-0.3665046919241709" />
    <synapse sourceNeuronName = "26" targetNeuronName = "47" weight = "-0.13571564176397566" />
    <synapse sourceNeuronName = "26" targetNeuronName = "48" weight = "0.12789202480057504" />
    <synapse sourceNeuronName = "26" targetNeuronName = "49" weight = "-0.9318183055031508" />
    <synapse sourceNeuronName = "26" targetNeuronName = "50" weight = "-0.5265614236178698" />
    <synapse sourceNeuronName = "26" targetNeuronName = "51" weight = "0.020136308788307064" />
    <synapse sourceNeuronName = "26" targetNeuronName = "52" weight = "0.013937842167559684" />
    <synapse sourceNeuronName = "26" targetNeuronName = "53" weight = "0.3052791906508892" />
    <synapse sourceNeuronName = "26" targetNeuronName = "54" weight = "-0.006770520251986147" />
    <synapse sourceNeuronName = "26" targetNeuronName = "55" weight = "-0.41316260632185553" />
    <synapse sourceNeuronName = "26" targetNeuronName = "56" weight = "-0.2826760209618261" />
    <synapse sourceNeuronName = "26" targetNeuronName = "57" weight = "0.11936519751255179" />
    <synapse sourceNeuronName = "26" targetNeuronName = "58" weight = "-0.39397818803845186" />
    <synapse sourceNeuronName = "26" targetNeuronName = "59" weight = "0.1251959448093916" />
    <synapse sourceNeuronName = "26" targetNeuronName = "60" weight = "-0.26074991597999153" />
    <synapse sourceNeuronName = "26" targetNeuronName = "61" weight = "-0.05220440679615138" />
    <synapse sourceNeuronName = "26" targetNeuronName = "62" weight = "0.6682175459981419" />
    <synapse sourceNeuronName = "26" targetNeuronName = "63" weight = "-0.2164694297404946" />
    <synapse sourceNeuronName = "27" targetNeuronName = "28" weight = "0.061629198706855466" />
    <synapse sourceNeuronName = "27" targetNeuronName = "29" weight = "0.13367643494168657" />
    <synapse sourceNeuronName = "27" targetNeuronName = "30" weight = "0.30095965779470835" />
    <synapse sourceNeuronName = "27" targetNeuronName = "31" weight = "0.18818137230707022" />
    <synapse sourceNeuronName = "27" targetNeuronName = "32" weight = "0.4730226644951371" />
    <synapse sourceNeuronName = "27" targetNeuronName = "33" weight = "-0.14889676872629837" />
    <synapse sourceNeuronName = "27" targetNeuronName = "34" weight = "-0.08538733232149166" />
    <synapse sourceNeuronName = "27" targetNeuronName = "35" weight = "-0.570072011551901" />
    <synapse sourceNeuronName = "27" targetNeuronName = "36" weight = "-0.37290239379243634" />
    <synapse sourceNeuronName = "27" targetNeuronName = "37" weight = "-0.6738477476680892" />
    <synapse sourceNeuronName = "27" targetNeuronName = "38" weight = "-0.13805281685717102" />
    <synapse sourceNeuronName = "27" targetNeuronName = "39" weight = "0.3285848261518342" />
    <synapse sourceNeuronName = "27" targetNeuronName = "40" weight = "-0.27893584738521027" />
    <synapse sourceNeuronName = "27" targetNeuronName = "41" weight = "0.0612028163904016" />
    <synapse sourceNeuronName = "27" targetNeuronName = "42" weight = "0.05524464208210991" />
    <synapse sourceNeuronName = "27" targetNeuronName = "43" weight = "0.10848779923550911" />
    <synapse sourceNeuronName = "27" targetNeuronName = "44" weight = "0.17030454376886778" />
    <synapse sourceNeuronName = "27" targetNeuronName = "45" weight = "0.5101297593008596" />
    <synapse sourceNeuronName = "27" targetNeuronName = "46" weight = "-0.036908427090405836" />
    <synapse sourceNeuronName = "27" targetNeuronName = "47" weight = "0.4767709412639404" />
    <synapse sourceNeuronName = "27" targetNeuronName = "48" weight = "-0.44458137237480627" />
    <synapse sourceNeuronName = "27" targetNeuronName = "49" weight = "0.0888880334078529" />
    <synapse sourceNeuronName = "27" targetNeuronName = "50" weight = "-0.012142443953640227" />
    <synapse sourceNeuronName = "27" targetNeuronName = "51" weight = "0.41857463475176004" />
    <synapse sourceNeuronName = "27" targetNeuronName = "52" weight = "0.11286204259396906" />
    <synapse sourceNeuronName = "27" targetNeuronName = "53" weight = "0.4804071140587668" />
    <synapse sourceNeuronName = "27" targetNeuronName = "54" weight = "0.11477368708828051" />
    <synapse sourceNeuronName = "27" targetNeuronName = "55" weight = "0.2478146884223327" />
    <synapse sourceNeuronName = "27" targetNeuronName = "56" weight = "-0.27214032311634156" />
    <synapse sourceNeuronName = "27" targetNeuronName = "57" weight = "-0.0712912827860515" />
    <synapse sourceNeuronName = "27" targetNeuronName = "58" weight = "0.1643689552996668" />
    <synapse sourceNeuronName = "27" targetNeuronName = "59" weight = "-0.28325553659149844" />
    <synapse sourceNeuronName = "27" targetNeuronName = "60" weight = "-0.8435240915267139" />
    <synapse sourceNeuronName = "27" targetNeuronName = "61" weight = "0.27281860451388473" />
    <synapse sourceNeuronName = "27" targetNeuronName = "62" weight = "0.24148424242009975" />
    <synapse sourceNeuronName = "27" targetNeuronName = "63" weight = "0.08303741487767087" />
    <synapse sourceNeuronName = "18" targetNeuronName = "18" weight = "-0.4371764661420588" />
    <synapse sourceNeuronName = "19" targetNeuronName = "19" weight = "0.31072794540473314" />
    <synapse sourceNeuronName = "20" targetNeuronName = "20" weight = "-0.117167545789755" />
    <synapse sourceNeuronName = "21" targetNeuronName = "21" weight = "0.05037679650094426" />
    <synapse sourceNeuronName = "22" targetNeuronName = "22" weight = "0.12427240860779987" />
    <synapse sourceNeuronName = "23" targetNeuronName = "23" weight = "0.16534255370152134" />
    <synapse sourceNeuronName = "24" targetNeuronName = "24" weight = "0.29343398672636867" />
    <synapse sourceNeuronName = "25" targetNeuronName = "25" weight = "0.2346182961791559" />
    <synapse sourceNeuronName = "26" targetNeuronName = "26" weight = "0.18294734349856584" />
    <synapse sourceNeuronName = "27" targetNeuronName = "27" weight = "-0.04566049106692253" />
</neuralNetwork>