<neuralNetwork>
    <neuron name = "0" type = "sensor" linkName = "0TopSensor" />
    <neuron name = "1" type = "sensor" linkName = "0BottomSensor" />
    <neuron name = "2" type = "sensor" linkName = "0URBottomLeg" />
    <neuron name = "3" type = "sensor" linkName = "0ULBottomLeg" />
    <neuron name = "4" type = "sensor" linkName = "0BRBottomLeg" />
    <neuron name = "5" type = "sensor" linkName = "0BLBottomLeg" />
    <neuron name = "6" type = "sensor" linkName = "1TopSensor" />
    <neuron name = "7" type = "sensor" linkName = "1BottomSensor" />
    <neuron name = "8" type = "sensor" linkName = "1URBottomLeg" />
    <neuron name = "9" type = "sensor" linkName = "1ULBottomLeg" />
    <neuron name = "10" type = "sensor" linkName = "1BRBottomLeg" />
    <neuron name = "11" type = "sensor" linkName = "1BLBottomLeg" />
    <neuron name = "12" type = "sensor" linkName = "2TopSensor" />
    <neuron name = "13" type = "sensor" linkName = "2BottomSensor" />
    <neuron name = "14" type = "sensor" linkName = "2URBottomLeg" />
    <neuron name = "15" type = "sensor" linkName = "2ULBottomLeg" />
    <neuron name = "16" type = "sensor" linkName = "2BRBottomLeg" />
    <neuron name = "17" type = "sensor" linkName = "2BLBottomLeg" />
    <neuron name = "18" type = "hidden" />
    <neuron name = "19" type = "hidden" />
    <neuron name = "20" type = "hidden" />
    <neuron name = "21" type = "hidden" />
    <neuron name = "22" type = "hidden" />
    <neuron name = "23" type = "hidden" />
    <neuron name = "24" type = "hidden" />
    <neuron name = "25" type = "hidden" />
    <neuron name = "26" type = "hidden" />
    <neuron name = "27" type = "hidden" />
    <neuron name = "28" type = "motor"  jointName = "0Torso_0URRotate" />
    <neuron name = "29" type = "motor"  jointName = "0URRotate_0URTopLeg" />
    <neuron name = "30" type = "motor"  jointName = "0URTopLeg_0URBottomLeg" />
    <neuron name = "31" type = "motor"  jointName = "0Torso_0ULRotate" />
    <neuron name = "32" type = "motor"  jointName = "0ULRotate_0ULTopLeg" />
    <neuron name = "33" type = "motor"  jointName = "0ULTopLeg_0ULBottomLeg" />
    <neuron name = "34" type = "motor"  jointName = "0Torso_0BRRotate" />
    <neuron name = "35" type = "motor"  jointName = "0BRRotate_0BRTopLeg" />
    <neuron name = "36" type = "motor"  jointName = "0BRTopLeg_0BRBottomLeg" />
    <neuron name = "37" type = "motor"  jointName = "0Torso_0BLRotate" />
    <neuron name = "38" type = "motor"  jointName = "0BLRotate_0BLTopLeg" />
    <neuron name = "39" type = "motor"  jointName = "0BLTopLeg_0BLBottomLeg" />
    <neuron name = "40" type = "motor"  jointName = "1Torso_1URRotate" />
    <neuron name = "41" type = "motor"  jointName = "1URRotate_1URTopLeg" />
    <neuron name = "42" type = "motor"  jointName = "1URTopLeg_1URBottomLeg" />
    <neuron name = "43" type = "motor"  jointName = "1Torso_1ULRotate" />
    <neuron name = "44" type = "motor"  jointName = "1ULRotate_1ULTopLeg" />
    <neuron name = "45" type = "motor"  jointName = "1ULTopLeg_1ULBottomLeg" />
    <neuron name = "46" type = "motor"  jointName = "1Torso_1BRRotate" />
    <neuron name = "47" type = "motor"  jointName = "1BRRotate_1BRTopLeg" />
    <neuron name = "48" type = "motor"  jointName = "1BRTopLeg_1BRBottomLeg" />
    <neuron name = "49" type = "motor"  jointName = "1Torso_1BLRotate" />
    <neuron name = "50" type = "motor"  jointName = "1BLRotate_1BLTopLeg" />
    <neuron name = "51" type = "motor"  jointName = "1BLTopLeg_1BLBottomLeg" />
    <neuron name = "52" type = "motor"  jointName = "2Torso_2URRotate" />
    <neuron name = "53" type = "motor"  jointName = "2URRotate_2URTopLeg" />
    <neuron name = "54" type = "motor"  jointName = "2URTopLeg_2URBottomLeg" />
    <neuron name = "55" type = "motor"  jointName = "2Torso_2ULRotate" />
    <neuron name = "56" type = "motor"  jointName = "2ULRotate_2ULTopLeg" />
    <neuron name = "57" type = "motor"  jointName = "2ULTopLeg_2ULBottomLeg" />
    <neuron name = "58" type = "motor"  jointName = "2Torso_2BRRotate" />
    <neuron name = "59" type = "motor"  jointName = "2BRRotate_2BRTopLeg" />
    <neuron name = "60" type = "motor"  jointName = "2BRTopLeg_2BRBottomLeg" />
    <neuron name = "61" type = "motor"  jointName = "2Torso_2BLRotate" />
    <neuron name = "62" type = "motor"  jointName = "2BLRotate_2BLTopLeg" />
    <neuron name = "63" type = "motor"  jointName = "2BLTopLeg_2BLBottomLeg" />
    <synapse sourceNeuronName = "0" targetNeuronName = "18" weight = "-0.040938189812183653" />
    <synapse sourceNeuronName = "0" targetNeuronName = "19" weight = "0.36948697994784174" />
    <synapse sourceNeuronName = "0" targetNeuronName = "20" weight = "0.23007737223047192" />
    <synapse sourceNeuronName = "0" targetNeuronName = "21" weight = "-0.13049650617848213" />
    <synapse sourceNeuronName = "0" targetNeuronName = "22" weight = "-0.4207066234729234" />
    <synapse sourceNeuronName = "0" targetNeuronName = "23" weight = "-0.2035955266230824" />
    <synapse sourceNeuronName = "0" targetNeuronName = "24" weight = "0.055408163917942656" />
    <synapse sourceNeuronName = "0" targetNeuronName = "25" weight = "-0.008172067774762764" />
    <synapse sourceNeuronName = "0" targetNeuronName = "26" weight = "0.025297365929585307" />
    <synapse sourceNeuronName = "0" targetNeuronName = "27" weight = "-0.28713211984537845" />
    <synapse sourceNeuronName = "1" targetNeuronName = "18" weight = "0.037135453621087305" />
    <synapse sourceNeuronName = "1" targetNeuronName = "19" weight = "0.1341515730729439" />
    <synapse sourceNeuronName = "1" targetNeuronName = "20" weight = "0.07578482549693272" />
    <synapse sourceNeuronName = "1" targetNeuronName = "21" weight = "0.34314368026963465" />
    <synapse sourceNeuronName = "1" targetNeuronName = "22" weight = "0.420005518187252" />
    <synapse sourceNeuronName = "1" targetNeuronName = "23" weight = "-0.1426820465953481" />
    <synapse sourceNeuronName = "1" targetNeuronName = "24" weight = "0.38961269413303695" />
    <synapse sourceNeuronName = "1" targetNeuronName = "25" weight = "0.10615554847168379" />
    <synapse sourceNeuronName = "1" targetNeuronName = "26" weight = "0.6417231388465627" />
    <synapse sourceNeuronName = "1" targetNeuronName = "27" weight = "-0.01861296143777762" />
    <synapse sourceNeuronName = "2" targetNeuronName = "18" weight = "0.3166348348075025" />
    <synapse sourceNeuronName = "2" targetNeuronName = "19" weight = "-0.12590884501820432" />
    <synapse sourceNeuronName = "2" targetNeuronName = "20" weight = "-0.18766499467513248" />
    <synapse sourceNeuronName = "2" targetNeuronName = "21" weight = "0.18343823323892378" />
    <synapse sourceNeuronName = "2" targetNeuronName = "22" weight = "0.019838081225758905" />
    <synapse sourceNeuronName = "2" targetNeuronName = "23" weight = "-0.24551235321079834" />
    <synapse sourceNeuronName = "2" targetNeuronName = "24" weight = "0.1325734340812964" />
    <synapse sourceNeuronName = "2" targetNeuronName = "25" weight = "0.13203648540677615" />
    <synapse sourceNeuronName = "2" targetNeuronName = "26" weight = "-0.055657332486799056" />
    <synapse sourceNeuronName = "2" targetNeuronName = "27" weight = "0.06155147531352909" />
    <synapse sourceNeuronName = "3" targetNeuronName = "18" weight = "-0.4507203887902329" />
    <synapse sourceNeuronName = "3" targetNeuronName = "19" weight = "-0.26898410973049125" />
    <synapse sourceNeuronName = "3" targetNeuronName = "20" weight = "-0.1268820249827031" />
    <synapse sourceNeuronName = "3" targetNeuronName = "21" weight = "0.0711510952477521" />
    <synapse sourceNeuronName = "3" targetNeuronName = "22" weight = "-0.6039059997356186" />
    <synapse sourceNeuronName = "3" targetNeuronName = "23" weight = "-0.3481890773727404" />
    <synapse sourceNeuronName = "3" targetNeuronName = "24" weight = "-0.04349771928794783" />
    <synapse sourceNeuronName = "3" targetNeuronName = "25" weight = "-0.17699111357538577" />
    <synapse sourceNeuronName = "3" targetNeuronName = "26" weight = "-0.35325982048659715" />
    <synapse sourceNeuronName = "3" targetNeuronName = "27" weight = "0.0361741187221578" />
    <synapse sourceNeuronName = "4" targetNeuronName = "18" weight = "0.23484417442178496" />
    <synapse sourceNeuronName = "4" targetNeuronName = "19" weight = "0.46997552683840116" />
    <synapse sourceNeuronName = "4" targetNeuronName = "20" weight = "0.3375646432635835" />
    <synapse sourceNeuronName = "4" targetNeuronName = "21" weight = "-0.5827627686713098" />
    <synapse sourceNeuronName = "4" targetNeuronName = "22" weight = "-0.29015035493388863" />
    <synapse sourceNeuronName = "4" targetNeuronName = "23" weight = "-0.4002477192591746" />
    <synapse sourceNeuronName = "4" targetNeuronName = "24" weight = "0.4942696284356056" />
    <synapse sourceNeuronName = "4" targetNeuronName = "25" weight = "-0.20325345185588417" />
    <synapse sourceNeuronName = "4" targetNeuronName = "26" weight = "-0.051661506922440745" />
    <synapse sourceNeuronName = "4" targetNeuronName = "27" weight = "-0.7445705428036404" />
    <synapse sourceNeuronName = "5" targetNeuronName = "18" weight = "-0.16551997738327393" />
    <synapse sourceNeuronName = "5" targetNeuronName = "19" weight = "-0.33428519697440706" />
    <synapse sourceNeuronName = "5" targetNeuronName = "20" weight = "-0.16231885451802508" />
    <synapse sourceNeuronName = "5" targetNeuronName = "21" weight = "0.2958940269092956" />
    <synapse sourceNeuronName = "5" targetNeuronName = "22" weight = "-0.4815205290116802" />
    <synapse sourceNeuronName = "5" targetNeuronName = "23" weight = "-0.2802137900948283" />
    <synapse sourceNeuronName = "5" targetNeuronName = "24" weight = "0.2599104506251547" />
    <synapse sourceNeuronName = "5" targetNeuronName = "25" weight = "-0.8657708079709426" />
    <synapse sourceNeuronName = "5" targetNeuronName = "26" weight = "-0.27212856989925294" />
    <synapse sourceNeuronName = "5" targetNeuronName = "27" weight = "0.23468968658220907" />
    <synapse sourceNeuronName = "6" targetNeuronName = "18" weight = "-0.1235582493179003" />
    <synapse sourceNeuronName = "6" targetNeuronName = "19" weight = "0.3367608494205692" />
    <synapse sourceNeuronName = "6" targetNeuronName = "20" weight = "-0.2256415241430219" />
    <synapse sourceNeuronName = "6" targetNeuronName = "21" weight = "-0.0894858379172184" />
    <synapse sourceNeuronName = "6" targetNeuronName = "22" weight = "0.010296410075710818" />
    <synapse sourceNeuronName = "6" targetNeuronName = "23" weight = "-0.16822777670118375" />
    <synapse sourceNeuronName = "6" targetNeuronName = "24" weight = "0.3363618876518262" />
    <synapse sourceNeuronName = "6" targetNeuronName = "25" weight = "-0.3763681784782068" />
    <synapse sourceNeuronName = "6" targetNeuronName = "26" weight = "-0.035722662848586606" />
    <synapse sourceNeuronName = "6" targetNeuronName = "27" weight = "-0.11520920617678859" />
    <synapse sourceNeuronName = "7" targetNeuronName = "18" weight = "0.358220557150397" />
    <synapse sourceNeuronName = "7" targetNeuronName = "19" weight = "0.07553025168071534" />
    <synapse sourceNeuronName = "7" targetNeuronName = "20" weight = "0.5041614440653568" />
    <synapse sourceNeuronName = "7" targetNeuronName = "21" weight = "-0.7082505594436082" />
    <synapse sourceNeuronName = "7" targetNeuronName = "22" weight = "0.05687245553424772" />
    <synapse sourceNeuronName = "7" targetNeuronName = "23" weight = "0.27421675354240344" />
    <synapse sourceNeuronName = "7" targetNeuronName = "24" weight = "-0.5091895586347015" />
    <synapse sourceNeuronName = "7" targetNeuronName = "25" weight = "-0.19357664414747056" />
    <synapse sourceNeuronName = "7" targetNeuronName = "26" weight = "0.4133671890976443" />
    <synapse sourceNeuronName = "7" targetNeuronName = "27" weight = "0.3525032877111006" />
    <synapse sourceNeuronName = "8" targetNeuronName = "18" weight = "-0.48478594195129815" />
    <synapse sourceNeuronName = "8" targetNeuronName = "19" weight = "-0.3767114541790141" />
    <synapse sourceNeuronName = "8" targetNeuronName = "20" weight = "-0.2569806311542542" />
    <synapse sourceNeuronName = "8" targetNeuronName = "21" weight = "-0.08115318741473537" />
    <synapse sourceNeuronName = "8" targetNeuronName = "22" weight = "0.04474625948130148" />
    <synapse sourceNeuronName = "8" targetNeuronName = "23" weight = "-0.08974121959167582" />
    <synapse sourceNeuronName = "8" targetNeuronName = "24" weight = "-0.2533504716691865" />
    <synapse sourceNeuronName = "8" targetNeuronName = "25" weight = "-0.4074142511259595" />
    <synapse sourceNeuronName = "8" targetNeuronName = "26" weight = "0.2004513094458627" />
    <synapse sourceNeuronName = "8" targetNeuronName = "27" weight = "-0.35655641309678743" />
    <synapse sourceNeuronName = "9" targetNeuronName = "18" weight = "-0.4959097741613586" />
    <synapse sourceNeuronName = "9" targetNeuronName = "19" weight = "-0.08699586418373363" />
    <synapse sourceNeuronName = "9" targetNeuronName = "20" weight = "0.07415598078606711" />
    <synapse sourceNeuronName = "9" targetNeuronName = "21" weight = "-0.09697099023583175" />
    <synapse sourceNeuronName = "9" targetNeuronName = "22" weight = "-1.054875788062708" />
    <synapse sourceNeuronName = "9" targetNeuronName = "23" weight = "0.11099114264913482" />
    <synapse sourceNeuronName = "9" targetNeuronName = "24" weight = "0.07334830535176509" />
    <synapse sourceNeuronName = "9" targetNeuronName = "25" weight = "-0.03429833421494331" />
    <synapse sourceNeuronName = "9" targetNeuronName = "26" weight = "-0.09827201655304169" />
    <synapse sourceNeuronName = "9" targetNeuronName = "27" weight = "-0.22922915154846993" />
    <synapse sourceNeuronName = "10" targetNeuronName = "18" weight = "0.6117272015190482" />
    <synapse sourceNeuronName = "10" targetNeuronName = "19" weight = "-0.02171357463161769" />
    <synapse sourceNeuronName = "10" targetNeuronName = "20" weight = "-0.2469473420649671" />
    <synapse sourceNeuronName = "10" targetNeuronName = "21" weight = "-0.0013993864259084633" />
    <synapse sourceNeuronName = "10" targetNeuronName = "22" weight = "-0.002281533049597828" />
    <synapse sourceNeuronName = "10" targetNeuronName = "23" weight = "-0.3905422014013512" />
    <synapse sourceNeuronName = "10" targetNeuronName = "24" weight = "0.25582553124791707" />
    <synapse sourceNeuronName = "10" targetNeuronName = "25" weight = "0.8490334866557834" />
    <synapse sourceNeuronName = "10" targetNeuronName = "26" weight = "-0.31349314576720044" />
    <synapse sourceNeuronName = "10" targetNeuronName = "27" weight = "-0.035173866913852596" />
    <synapse sourceNeuronName = "11" targetNeuronName = "18" weight = "-0.0592381867566261" />
    <synapse sourceNeuronName = "11" targetNeuronName = "19" weight = "0.2921459479076941" />
    <synapse sourceNeuronName = "11" targetNeuronName = "20" weight = "0.4044447048117619" />
    <synapse sourceNeuronName = "11" targetNeuronName = "21" weight = "0.3137316423669911" />
    <synapse sourceNeuronName = "11" targetNeuronName = "22" weight = "-0.2538085502540209" />
    <synapse sourceNeuronName = "11" targetNeuronName = "23" weight = "-0.16154055205339302" />
    <synapse sourceNeuronName = "11" targetNeuronName = "24" weight = "0.3605323742431579" />
    <synapse sourceNeuronName = "11" targetNeuronName = "25" weight = "0.2937384517702033" />
    <synapse sourceNeuronName = "11" targetNeuronName = "26" weight = "-0.4935158665047541" />
    <synapse sourceNeuronName = "11" targetNeuronName = "27" weight = "-0.031101179750847738" />
    <synapse sourceNeuronName = "12" targetNeuronName = "18" weight = "0.032603775283734746" />
    <synapse sourceNeuronName = "12" targetNeuronName = "19" weight = "-0.2192102059979181" />
    <synapse sourceNeuronName = "12" targetNeuronName = "20" weight = "0.08530273464800305" />
    <synapse sourceNeuronName = "12" targetNeuronName = "21" weight = "-0.4639535292848024" />
    <synapse sourceNeuronName = "12" targetNeuronName = "22" weight = "-0.06470929397069963" />
    <synapse sourceNeuronName = "12" targetNeuronName = "23" weight = "-0.1968686212734237" />
    <synapse sourceNeuronName = "12" targetNeuronName = "24" weight = "-0.4465054837698822" />
    <synapse sourceNeuronName = "12" targetNeuronName = "25" weight = "-0.2066028616420883" />
    <synapse sourceNeuronName = "12" targetNeuronName = "26" weight = "-0.4122171106981248" />
    <synapse sourceNeuronName = "12" targetNeuronName = "27" weight = "-0.36444316397294607" />
    <synapse sourceNeuronName = "13" targetNeuronName = "18" weight = "0.558371543926473" />
    <synapse sourceNeuronName = "13" targetNeuronName = "19" weight = "0.3064637249140232" />
    <synapse sourceNeuronName = "13" targetNeuronName = "20" weight = "-0.1385939400284681" />
    <synapse sourceNeuronName = "13" targetNeuronName = "21" weight = "-0.010433303402104872" />
    <synapse sourceNeuronName = "13" targetNeuronName = "22" weight = "-0.2891721968141252" />
    <synapse sourceNeuronName = "13" targetNeuronName = "23" weight = "0.2856436812328901" />
    <synapse sourceNeuronName = "13" targetNeuronName = "24" weight = "-0.902418649251586" />
    <synapse sourceNeuronName = "13" targetNeuronName = "25" weight = "0.011158526858362766" />
    <synapse sourceNeuronName = "13" targetNeuronName = "26" weight = "-0.06547576120950238" />
    <synapse sourceNeuronName = "13" targetNeuronName = "27" weight = "0.2690327378733969" />
    <synapse sourceNeuronName = "14" targetNeuronName = "18" weight = "-0.7990708352409592" />
    <synapse sourceNeuronName = "14" targetNeuronName = "19" weight = "0.15959368103607383" />
    <synapse sourceNeuronName = "14" targetNeuronName = "20" weight = "-0.07869785365402382" />
    <synapse sourceNeuronName = "14" targetNeuronName = "21" weight = "0.10429778564617449" />
    <synapse sourceNeuronName = "14" targetNeuronName = "22" weight = "-0.5333729325327711" />
    <synapse sourceNeuronName = "14" targetNeuronName = "23" weight = "-0.42666432621609784" />
    <synapse sourceNeuronName = "14" targetNeuronName = "24" weight = "0.10013752727220082" />
    <synapse sourceNeuronName = "14" targetNeuronName = "25" weight = "0.0724316963113653" />
    <synapse sourceNeuronName = "14" targetNeuronName = "26" weight = "0.22394102114467188" />
    <synapse sourceNeuronName = "14" targetNeuronName = "27" weight = "-0.4349950325329917" />
    <synapse sourceNeuronName = "15" targetNeuronName = "18" weight = "-0.029713788223641603" />
    <synapse sourceNeuronName = "15" targetNeuronName = "19" weight = "0.6782337964778589" />
    <synapse sourceNeuronName = "15" targetNeuronName = "20" weight = "-0.2574642676673063" />
    <synapse sourceNeuronName = "15" targetNeuronName = "21" weight = "-0.3561770347661342" />
    <synapse sourceNeuronName = "15" targetNeuronName = "22" weight = "-0.010589688582590859" />
    <synapse sourceNeuronName = "15" targetNeuronName = "23" weight = "0.04941112215658187" />
    <synapse sourceNeuronName = "15" targetNeuronName = "24" weight = "-0.09152268375340146" />
    <synapse sourceNeuronName = "15" targetNeuronName = "25" weight = "0.3210258549302198" />
    <synapse sourceNeuronName = "15" targetNeuronName = "26" weight = "-0.7757182180070036" />
    <synapse sourceNeuronName = "15" targetNeuronName = "27" weight = "-1.0465509702131754" />
    <synapse sourceNeuronName = "16" targetNeuronName = "18" weight = "-0.2352365707180965" />
    <synapse sourceNeuronName = "16" targetNeuronName = "19" weight = "0.33614818785682066" />
    <synapse sourceNeuronName = "16" targetNeuronName = "20" weight = "-0.1436942728855041" />
    <synapse sourceNeuronName = "16" targetNeuronName = "21" weight = "0.05833808049586229" />
    <synapse sourceNeuronName = "16" targetNeuronName = "22" weight = "-0.08007567546916164" />
    <synapse sourceNeuronName = "16" targetNeuronName = "23" weight = "0.43514492002487254" />
    <synapse sourceNeuronName = "16" targetNeuronName = "24" weight = "-0.39050829743176774" />
    <synapse sourceNeuronName = "16" targetNeuronName = "25" weight = "-0.2880488578493614" />
    <synapse sourceNeuronName = "16" targetNeuronName = "26" weight = "-0.5202301512491221" />
    <synapse sourceNeuronName = "16" targetNeuronName = "27" weight = "0.11728084120783058" />
    <synapse sourceNeuronName = "17" targetNeuronName = "18" weight = "-0.1303847849587057" />
    <synapse sourceNeuronName = "17" targetNeuronName = "19" weight = "-0.17680808986128538" />
    <synapse sourceNeuronName = "17" targetNeuronName = "20" weight = "0.10211551766539023" />
    <synapse sourceNeuronName = "17" targetNeuronName = "21" weight = "-0.5507591506904886" />
    <synapse sourceNeuronName = "17" targetNeuronName = "22" weight = "0.6402618369955486" />
    <synapse sourceNeuronName = "17" targetNeuronName = "23" weight = "0.22374214630809466" />
    <synapse sourceNeuronName = "17" targetNeuronName = "24" weight = "-0.6737221182268366" />
    <synapse sourceNeuronName = "17" targetNeuronName = "25" weight = "0.19386256097711851" />
    <synapse sourceNeuronName = "17" targetNeuronName = "26" weight = "-0.6187116742507294" />
    <synapse sourceNeuronName = "17" targetNeuronName = "27" weight = "0.4526178456635879" />
    <synapse sourceNeuronName = "18" targetNeuronName = "28" weight = "-0.4207659375312561" />
    <synapse sourceNeuronName = "18" targetNeuronName = "29" weight = "0.13649451962966624" />
    <synapse sourceNeuronName = "18" targetNeuronName = "30" weight = "0.04727757036317658" />
    <synapse sourceNeuronName = "18" targetNeuronName = "31" weight = "0.5283162898271021" />
    <synapse sourceNeuronName = "18" targetNeuronName = "32" weight = "-0.1283703170167395" />
    <synapse sourceNeuronName = "18" targetNeuronName = "33" weight = "-0.018596980788406645" />
    <synapse sourceNeuronName = "18" targetNeuronName = "34" weight = "-0.6576849249433636" />
    <synapse sourceNeuronName = "18" targetNeuronName = "35" weight = "-0.255558404351672" />
    <synapse sourceNeuronName = "18" targetNeuronName = "36" weight = "0.2101203849655086" />
    <synapse sourceNeuronName = "18" targetNeuronName = "37" weight = "-0.475553788659843" />
    <synapse sourceNeuronName = "18" targetNeuronName = "38" weight = "0.26513962834873256" />
    <synapse sourceNeuronName = "18" targetNeuronName = "39" weight = "-0.41205311589669363" />
    <synapse sourceNeuronName = "18" targetNeuronName = "40" weight = "-0.5233536168587822" />
    <synapse sourceNeuronName = "18" targetNeuronName = "41" weight = "-0.36903664108102957" />
    <synapse sourceNeuronName = "18" targetNeuronName = "42" weight = "0.7539806640698896" />
    <synapse sourceNeuronName = "18" targetNeuronName = "43" weight = "-0.740330776270537" />
    <synapse sourceNeuronName = "18" targetNeuronName = "44" weight = "0.5345657891343151" />
    <synapse sourceNeuronName = "18" targetNeuronName = "45" weight = "0.6101060697626493" />
    <synapse sourceNeuronName = "18" targetNeuronName = "46" weight = "0.4309489553160295" />
    <synapse sourceNeuronName = "18" targetNeuronName = "47" weight = "-0.3923624865542885" />
    <synapse sourceNeuronName = "18" targetNeuronName = "48" weight = "0.41228659468848" />
    <synapse sourceNeuronName = "18" targetNeuronName = "49" weight = "-0.11395984249576885" />
    <synapse sourceNeuronName = "18" targetNeuronName = "50" weight = "0.05932604445895073" />
    <synapse sourceNeuronName = "18" targetNeuronName = "51" weight = "-0.13852291770418504" />
    <synapse sourceNeuronName = "18" targetNeuronName = "52" weight = "-0.2688992176436054" />
    <synapse sourceNeuronName = "18" targetNeuronName = "53" weight = "0.26064144911952103" />
    <synapse sourceNeuronName = "18" targetNeuronName = "54" weight = "-0.4450676559143805" />
    <synapse sourceNeuronName = "18" targetNeuronName = "55" weight = "0.17224194472723578" />
    <synapse sourceNeuronName = "18" targetNeuronName = "56" weight = "0.26908398026966424" />
    <synapse sourceNeuronName = "18" targetNeuronName = "57" weight = "0.11530508890674199" />
    <synapse sourceNeuronName = "18" targetNeuronName = "58" weight = "-0.21476818890190824" />
    <synapse sourceNeuronName = "18" targetNeuronName = "59" weight = "0.1318478686472406" />
    <synapse sourceNeuronName = "18" targetNeuronName = "60" weight = "0.18444199140605844" />
    <synapse sourceNeuronName = "18" targetNeuronName = "61" weight = "-0.20953010572089303" />
    <synapse sourceNeuronName = "18" targetNeuronName = "62" weight = "-0.013642524527304016" />
    <synapse sourceNeuronName = "18" targetNeuronName = "63" weight = "-0.2991393808175605" />
    <synapse sourceNeuronName = "19" targetNeuronName = "28" weight = "0.28372230060994386" />
    <synapse sourceNeuronName = "19" targetNeuronName = "29" weight = "0.1219152062175215" />
    <synapse sourceNeuronName = "19" targetNeuronName = "30" weight = "0.05114472817526612" />
    <synapse sourceNeuronName = "19" targetNeuronName = "31" weight = "-0.030208953018598876" />
    <synapse sourceNeuronName = "19" targetNeuronName = "32" weight = "-0.35242392216308965" />
    <synapse sourceNeuronName = "19" targetNeuronName = "33" weight = "-0.3968358999503866" />
    <synapse sourceNeuronName = "19" targetNeuronName = "34" weight = "0.0017599409879657873" />
    <synapse sourceNeuronName = "19" targetNeuronName = "35" weight = "0.2699382999343778" />
    <synapse sourceNeuronName = "19" targetNeuronName = "36" weight = "0.43292891710374526" />
    <synapse sourceNeuronName = "19" targetNeuronName = "37" weight = "0.052363531171003175" />
    <synapse sourceNeuronName = "19" targetNeuronName = "38" weight = "-0.1037483849644087" />
    <synapse sourceNeuronName = "19" targetNeuronName = "39" weight = "0.15819302786964723" />
    <synapse sourceNeuronName = "19" targetNeuronName = "40" weight = "0.26898138222832596" />
    <synapse sourceNeuronName = "19" targetNeuronName = "41" weight = "0.3269139472685656" />
    <synapse sourceNeuronName = "19" targetNeuronName = "42" weight = "-0.1819114490319638" />
    <synapse sourceNeuronName = "19" targetNeuronName = "43" weight = "0.6132503008584291" />
    <synapse sourceNeuronName = "19" targetNeuronName = "44" weight = "0.5462541345894057" />
    <synapse sourceNeuronName = "19" targetNeuronName = "45" weight = "0.3121277330193048" />
    <synapse sourceNeuronName = "19" targetNeuronName = "46" weight = "0.7245637097762265" />
    <synapse sourceNeuronName = "19" targetNeuronName = "47" weight = "0.07089723655525221" />
    <synapse sourceNeuronName = "19" targetNeuronName = "48" weight = "-0.49999722829891624" />
    <synapse sourceNeuronName = "19" targetNeuronName = "49" weight = "-0.15046502510397214" />
    <synapse sourceNeuronName = "19" targetNeuronName = "50" weight = "-0.2928385512058945" />
    <synapse sourceNeuronName = "19" targetNeuronName = "51" weight = "-0.07842296768046338" />
    <synapse sourceNeuronName = "19" targetNeuronName = "52" weight = "0.021293335483669698" />
    <synapse sourceNeuronName = "19" targetNeuronName = "53" weight = "-0.5429174703258566" />
    <synapse sourceNeuronName = "19" targetNeuronName = "54" weight = "-0.11605416268766085" />
    <synapse sourceNeuronName = "19" targetNeuronName = "55" weight = "0.7640217928839201" />
    <synapse sourceNeuronName = "19" targetNeuronName = "56" weight = "-0.19120558339820276" />
    <synapse sourceNeuronName = "19" targetNeuronName = "57" weight = "-0.4793498800377406" />
    <synapse sourceNeuronName = "19" targetNeuronName = "58" weight = "0.36485621803525303" />
    <synapse sourceNeuronName = "19" targetNeuronName = "59" weight = "-0.07767045467387856" />
    <synapse sourceNeuronName = "19" targetNeuronName = "60" weight = "0.45716847729103544" />
    <synapse sourceNeuronName = "19" targetNeuronName = "61" weight = "0.025695353613902853" />
    <synapse sourceNeuronName = "19" targetNeuronName = "62" weight = "0.524310014925668" />
    <synapse sourceNeuronName = "19" targetNeuronName = "63" weight = "1.0550331901993573" />
    <synapse sourceNeuronName = "20" targetNeuronName = "28" weight = "0.11608226270347778" />
    <synapse sourceNeuronName = "20" targetNeuronName = "29" weight = "0.20995650998607568" />
    <synapse sourceNeuronName = "20" targetNeuronName = "30" weight = "0.12005513116665853" />
    <synapse sourceNeuronName = "20" targetNeuronName = "31" weight = "-0.32812725403246135" />
    <synapse sourceNeuronName = "20" targetNeuronName = "32" weight = "-0.8825593211243301" />
    <synapse sourceNeuronName = "20" targetNeuronName = "33" weight = "0.3141930245416747" />
    <synapse sourceNeuronName = "20" targetNeuronName = "34" weight = "-0.00765521518869167" />
    <synapse sourceNeuronName = "20" targetNeuronName = "35" weight = "-0.09577887025435074" />
    <synapse sourceNeuronName = "20" targetNeuronName = "36" weight = "0.002021322902397338" />
    <synapse sourceNeuronName = "20" targetNeuronName = "37" weight = "0.8019204684152613" />
    <synapse sourceNeuronName = "20" targetNeuronName = "38" weight = "-0.07209905914347436" />
    <synapse sourceNeuronName = "20" targetNeuronName = "39" weight = "-0.3185407459910554" />
    <synapse sourceNeuronName = "20" targetNeuronName = "40" weight = "0.36702843680916974" />
    <synapse sourceNeuronName = "20" targetNeuronName = "41" weight = "-0.03346428632878548" />
    <synapse sourceNeuronName = "20" targetNeuronName = "42" weight = "0.0977143090396595" />
    <synapse sourceNeuronName = "20" targetNeuronName = "43" weight = "-0.09220114322685748" />
    <synapse sourceNeuronName = "20" targetNeuronName = "44" weight = "-0.2072216224383095" />
    <synapse sourceNeuronName = "20" targetNeuronName = "45" weight = "0.7269999276794424" />
    <synapse sourceNeuronName = "20" targetNeuronName = "46" weight = "-0.4876670273354505" />
    <synapse sourceNeuronName = "20" targetNeuronName = "47" weight = "0.05880327440319653" />
    <synapse sourceNeuronName = "20" targetNeuronName = "48" weight = "-0.19265410853951795" />
    <synapse sourceNeuronName = "20" targetNeuronName = "49" weight = "-0.31717997353343863" />
    <synapse sourceNeuronName = "20" targetNeuronName = "50" weight = "0.4823440101239671" />
    <synapse sourceNeuronName = "20" targetNeuronName = "51" weight = "0.3720807054855584" />
    <synapse sourceNeuronName = "20" targetNeuronName = "52" weight = "0.2211257315364778" />
    <synapse sourceNeuronName = "20" targetNeuronName = "53" weight = "-0.16468917409511552" />
    <synapse sourceNeuronName = "20" targetNeuronName = "54" weight = "0.6174094659047857" />
    <synapse sourceNeuronName = "20" targetNeuronName = "55" weight = "-0.007687796992974449" />
    <synapse sourceNeuronName = "20" targetNeuronName = "56" weight = "0.4355585003370575" />
    <synapse sourceNeuronName = "20" targetNeuronName = "57" weight = "-0.1563359850202958" />
    <synapse sourceNeuronName = "20" targetNeuronName = "58" weight = "0.03265370513743693" />
    <synapse sourceNeuronName = "20" targetNeuronName = "59" weight = "0.06161296245362563" />
    <synapse sourceNeuronName = "20" targetNeuronName = "60" weight = "0.031470934383276895" />
    <synapse sourceNeuronName = "20" targetNeuronName = "61" weight = "-0.5155201851827486" />
    <synapse sourceNeuronName = "20" targetNeuronName = "62" weight = "-0.2748934138971818" />
    <synapse sourceNeuronName = "20" targetNeuronName = "63" weight = "-0.34147417936004765" />
    <synapse sourceNeuronName = "21" targetNeuronName = "28" weight = "0.4866871284600166" />
    <synapse sourceNeuronName = "21" targetNeuronName = "29" weight = "-0.08385798534406327" />
    <synapse sourceNeuronName = "21" targetNeuronName = "30" weight = "0.16847094841488203" />
    <synapse sourceNeuronName = "21" targetNeuronName = "31" weight = "-0.20843966758354843" />
    <synapse sourceNeuronName = "21" targetNeuronName = "32" weight = "-0.10276185913450991" />
    <synapse sourceNeuronName = "21" targetNeuronName = "33" weight = "0.42253011012887176" />
    <synapse sourceNeuronName = "21" targetNeuronName = "34" weight = "-0.17348281196329968" />
    <synapse sourceNeuronName = "21" targetNeuronName = "35" weight = "0.1232633038513131" />
    <synapse sourceNeuronName = "21" targetNeuronName = "36" weight = "0.3981871921875924" />
    <synapse sourceNeuronName = "21" targetNeuronName = "37" weight = "-0.32544736631146587" />
    <synapse sourceNeuronName = "21" targetNeuronName = "38" weight = "-0.20813136104728816" />
    <synapse sourceNeuronName = "21" targetNeuronName = "39" weight = "-0.6460316410306839" />
    <synapse sourceNeuronName = "21" targetNeuronName = "40" weight = "0.14001161471842616" />
    <synapse sourceNeuronName = "21" targetNeuronName = "41" weight = "0.11564549005975301" />
    <synapse sourceNeuronName = "21" targetNeuronName = "42" weight = "0.5925130924400973" />
    <synapse sourceNeuronName = "21" targetNeuronName = "43" weight = "0.33212879541728435" />
    <synapse sourceNeuronName = "21" targetNeuronName = "44" weight = "-0.3102821325084366" />
    <synapse sourceNeuronName = "21" targetNeuronName = "45" weight = "-0.3386174214227968" />
    <synapse sourceNeuronName = "21" targetNeuronName = "46" weight = "0.10586447045013331" />
    <synapse sourceNeuronName = "21" targetNeuronName = "47" weight = "0.6602301069687888" />
    <synapse sourceNeuronName = "21" targetNeuronName = "48" weight = "0.04082961992930987" />
    <synapse sourceNeuronName = "21" targetNeuronName = "49" weight = "0.05025495274697739" />
    <synapse sourceNeuronName = "21" targetNeuronName = "50" weight = "0.0705568469924686" />
    <synapse sourceNeuronName = "21" targetNeuronName = "51" weight = "0.2679891644188558" />
    <synapse sourceNeuronName = "21" targetNeuronName = "52" weight = "0.10839706116961269" />
    <synapse sourceNeuronName = "21" targetNeuronName = "53" weight = "-0.35636621126545315" />
    <synapse sourceNeuronName = "21" targetNeuronName = "54" weight = "0.2542372257979768" />
    <synapse sourceNeuronName = "21" targetNeuronName = "55" weight = "0.28326177724156404" />
    <synapse sourceNeuronName = "21" targetNeuronName = "56" weight = "-0.3654805396149938" />
    <synapse sourceNeuronName = "21" targetNeuronName = "57" weight = "-0.42441885060784823" />
    <synapse sourceNeuronName = "21" targetNeuronName = "58" weight = "-0.7792746774252912" />
    <synapse sourceNeuronName = "21" targetNeuronName = "59" weight = "-0.6172248761063536" />
    <synapse sourceNeuronName = "21" targetNeuronName = "60" weight = "0.09238920368197537" />
    <synapse sourceNeuronName = "21" targetNeuronName = "61" weight = "0.003679953505304491" />
    <synapse sourceNeuronName = "21" targetNeuronName = "62" weight = "0.45360565516345225" />
    <synapse sourceNeuronName = "21" targetNeuronName = "63" weight = "0.2951107531775264" />
    <synapse sourceNeuronName = "22" targetNeuronName = "28" weight = "0.04046874530972881" />
    <synapse sourceNeuronName = "22" targetNeuronName = "29" weight = "0.6806639248044823" />
    <synapse sourceNeuronName = "22" targetNeuronName = "30" weight = "0.48226268926269605" />
    <synapse sourceNeuronName = "22" targetNeuronName = "31" weight = "-0.18693539778552629" />
    <synapse sourceNeuronName = "22" targetNeuronName = "32" weight = "0.2226302009063225" />
    <synapse sourceNeuronName = "22" targetNeuronName = "33" weight = "0.399606940091218" />
    <synapse sourceNeuronName = "22" targetNeuronName = "34" weight = "0.18273786097345668" />
    <synapse sourceNeuronName = "22" targetNeuronName = "35" weight = "0.6677967808349847" />
    <synapse sourceNeuronName = "22" targetNeuronName = "36" weight = "0.5828186732350203" />
    <synapse sourceNeuronName = "22" targetNeuronName = "37" weight = "0.3497540776289544" />
    <synapse sourceNeuronName = "22" targetNeuronName = "38" weight = "-0.5302802262212519" />
    <synapse sourceNeuronName = "22" targetNeuronName = "39" weight = "-0.5549085717521125" />
    <synapse sourceNeuronName = "22" targetNeuronName = "40" weight = "-0.10286326560466777" />
    <synapse sourceNeuronName = "22" targetNeuronName = "41" weight = "0.5449715593425524" />
    <synapse sourceNeuronName = "22" targetNeuronName = "42" weight = "0.07825977410617052" />
    <synapse sourceNeuronName = "22" targetNeuronName = "43" weight = "0.016945694688801534" />
    <synapse sourceNeuronName = "22" targetNeuronName = "44" weight = "-0.453783188825295" />
    <synapse sourceNeuronName = "22" targetNeuronName = "45" weight = "-0.06882133853922194" />
    <synapse sourceNeuronName = "22" targetNeuronName = "46" weight = "-0.058461032990114715" />
    <synapse sourceNeuronName = "22" targetNeuronName = "47" weight = "-0.09255892715793636" />
    <synapse sourceNeuronName = "22" targetNeuronName = "48" weight = "-0.7156218821198639" />
    <synapse sourceNeuronName = "22" targetNeuronName = "49" weight = "0.11593809453238008" />
    <synapse sourceNeuronName = "22" targetNeuronName = "50" weight = "-0.3226441134874771" />
    <synapse sourceNeuronName = "22" targetNeuronName = "51" weight = "-0.05637907240342833" />
    <synapse sourceNeuronName = "22" targetNeuronName = "52" weight = "-0.09286274732800129" />
    <synapse sourceNeuronName = "22" targetNeuronName = "53" weight = "-0.34295299328097184" />
    <synapse sourceNeuronName = "22" targetNeuronName = "54" weight = "0.18534031973296852" />
    <synapse sourceNeuronName = "22" targetNeuronName = "55" weight = "-0.11578625159882486" />
    <synapse sourceNeuronName = "22" targetNeuronName = "56" weight = "0.5111411417322111" />
    <synapse sourceNeuronName = "22" targetNeuronName = "57" weight = "0.2588442577805746" />
    <synapse sourceNeuronName = "22" targetNeuronName = "58" weight = "-0.009500577074256963" />
    <synapse sourceNeuronName = "22" targetNeuronName = "59" weight = "-0.017027823557848307" />
    <synapse sourceNeuronName = "22" targetNeuronName = "60" weight = "0.36227427973393067" />
    <synapse sourceNeuronName = "22" targetNeuronName = "61" weight = "0.272153079405532" />
    <synapse sourceNeuronName = "22" targetNeuronName = "62" weight = "-0.40706771519954854" />
    <synapse sourceNeuronName = "22" targetNeuronName = "63" weight = "-0.5914200188691785" />
    <synapse sourceNeuronName = "23" targetNeuronName = "28" weight = "-0.1860352694106321" />
    <synapse sourceNeuronName = "23" targetNeuronName = "29" weight = "0.09210996753510398" />
    <synapse sourceNeuronName = "23" targetNeuronName = "30" weight = "0.11824195529293541" />
    <synapse sourceNeuronName = "23" targetNeuronName = "31" weight = "-0.49151530666213633" />
    <synapse sourceNeuronName = "23" targetNeuronName = "32" weight = "0.31032330326092306" />
    <synapse sourceNeuronName = "23" targetNeuronName = "33" weight = "0.10699592902781949" />
    <synapse sourceNeuronName = "23" targetNeuronName = "34" weight = "-0.37915254935851683" />
    <synapse sourceNeuronName = "23" targetNeuronName = "35" weight = "-0.35299649539550304" />
    <synapse sourceNeuronName = "23" targetNeuronName = "36" weight = "0.0840849583499885" />
    <synapse sourceNeuronName = "23" targetNeuronName = "37" weight = "0.08424044474819688" />
    <synapse sourceNeuronName = "23" targetNeuronName = "38" weight = "-0.13165520070132095" />
    <synapse sourceNeuronName = "23" targetNeuronName = "39" weight = "-0.2874458723329155" />
    <synapse sourceNeuronName = "23" targetNeuronName = "40" weight = "-0.16106599119539552" />
    <synapse sourceNeuronName = "23" targetNeuronName = "41" weight = "-0.04617208016864062" />
    <synapse sourceNeuronName = "23" targetNeuronName = "42" weight = "0.02326306674973422" />
    <synapse sourceNeuronName = "23" targetNeuronName = "43" weight = "0.11510208632580582" />
    <synapse sourceNeuronName = "23" targetNeuronName = "44" weight = "-0.33685079328374545" />
    <synapse sourceNeuronName = "23" targetNeuronName = "45" weight = "-0.11440296770494282" />
    <synapse sourceNeuronName = "23" targetNeuronName = "46" weight = "0.08271010534808745" />
    <synapse sourceNeuronName = "23" targetNeuronName = "47" weight = "0.4378950290325357" />
    <synapse sourceNeuronName = "23" targetNeuronName = "48" weight = "0.1064184638909749" />
    <synapse sourceNeuronName = "23" targetNeuronName = "49" weight = "-0.26059236136057207" />
    <synapse sourceNeuronName = "23" targetNeuronName = "50" weight = "0.2986004336433095" />
    <synapse sourceNeuronName = "23" targetNeuronName = "51" weight = "-0.07632229291586246" />
    <synapse sourceNeuronName = "23" targetNeuronName = "52" weight = "0.36727808138495166" />
    <synapse sourceNeuronName = "23" targetNeuronName = "53" weight = "0.30398653746782955" />
    <synapse sourceNeuronName = "23" targetNeuronName = "54" weight = "0.041466490621113766" />
    <synapse sourceNeuronName = "23" targetNeuronName = "55" weight = "-0.06080053909245997" />
    <synapse sourceNeuronName = "23" targetNeuronName = "56" weight = "-0.13594738007764418" />
    <synapse sourceNeuronName = "23" targetNeuronName = "57" weight = "-0.08285772512529815" />
    <synapse sourceNeuronName = "23" targetNeuronName = "58" weight = "0.44434779071304786" />
    <synapse sourceNeuronName = "23" targetNeuronName = "59" weight = "0.3897660370515059" />
    <synapse sourceNeuronName = "23" targetNeuronName = "60" weight = "-0.12831190948493598" />
    <synapse sourceNeuronName = "23" targetNeuronName = "61" weight = "-0.5322414513297087" />
    <synapse sourceNeuronName = "23" targetNeuronName = "62" weight = "-0.023610050738651377" />
    <synapse sourceNeuronName = "23" targetNeuronName = "63" weight = "0.6159657121284932" />
    <synapse sourceNeuronName = "24" targetNeuronName = "28" weight = "-0.8984211803174678" />
    <synapse sourceNeuronName = "24" targetNeuronName = "29" weight = "0.047040439297337595" />
    <synapse sourceNeuronName = "24" targetNeuronName = "30" weight = "0.5484610333451067" />
    <synapse sourceNeuronName = "24" targetNeuronName = "31" weight = "-0.06357191353402739" />
    <synapse sourceNeuronName = "24" targetNeuronName = "32" weight = "0.023525630880474383" />
    <synapse sourceNeuronName = "24" targetNeuronName = "33" weight = "-0.2382203956932243" />
    <synapse sourceNeuronName = "24" targetNeuronName = "34" weight = "0.6994251928763109" />
    <synapse sourceNeuronName = "24" targetNeuronName = "35" weight = "0.039826381990506934" />
    <synapse sourceNeuronName = "24" targetNeuronName = "36" weight = "0.10876605364071558" />
    <synapse sourceNeuronName = "24" targetNeuronName = "37" weight = "-0.22244896096389227" />
    <synapse sourceNeuronName = "24" targetNeuronName = "38" weight = "-0.24973124281448084" />
    <synapse sourceNeuronName = "24" targetNeuronName = "39" weight = "0.6712060266178486" />
    <synapse sourceNeuronName = "24" targetNeuronName = "40" weight = "0.12052841359087697" />
    <synapse sourceNeuronName = "24" targetNeuronName = "41" weight = "-0.17829977925492527" />
    <synapse sourceNeuronName = "24" targetNeuronName = "42" weight = "0.026462978921041064" />
    <synapse sourceNeuronName = "24" targetNeuronName = "43" weight = "-0.5026087824823079" />
    <synapse sourceNeuronName = "24" targetNeuronName = "44" weight = "0.13030444460481178" />
    <synapse sourceNeuronName = "24" targetNeuronName = "45" weight = "-0.21396621763564688" />
    <synapse sourceNeuronName = "24" targetNeuronName = "46" weight = "0.4732888746994093" />
    <synapse sourceNeuronName = "24" targetNeuronName = "47" weight = "0.33422211670115015" />
    <synapse sourceNeuronName = "24" targetNeuronName = "48" weight = "-0.19893244245258815" />
    <synapse sourceNeuronName = "24" targetNeuronName = "49" weight = "-0.3431145271865175" />
    <synapse sourceNeuronName = "24" targetNeuronName = "50" weight = "-0.21620601431834569" />
    <synapse sourceNeuronName = "24" targetNeuronName = "51" weight = "-0.057156077182629335" />
    <synapse sourceNeuronName = "24" targetNeuronName = "52" weight = "-0.10719719979376885" />
    <synapse sourceNeuronName = "24" targetNeuronName = "53" weight = "-0.260795421488862" />
    <synapse sourceNeuronName = "24" targetNeuronName = "54" weight = "-0.5005898864631602" />
    <synapse sourceNeuronName = "24" targetNeuronName = "55" weight = "-0.423286525428207" />
    <synapse sourceNeuronName = "24" targetNeuronName = "56" weight = "-0.022460249196246243" />
    <synapse sourceNeuronName = "24" targetNeuronName = "57" weight = "0.14403605760497762" />
    <synapse sourceNeuronName = "24" targetNeuronName = "58" weight = "-0.5167031787493641" />
    <synapse sourceNeuronName = "24" targetNeuronName = "59" weight = "-0.42133046495231513" />
    <synapse sourceNeuronName = "24" targetNeuronName = "60" weight = "0.13198991438519614" />
    <synapse sourceNeuronName = "24" targetNeuronName = "61" weight = "-0.03311984774455702" />
    <synapse sourceNeuronName = "24" targetNeuronName = "62" weight = "-0.18657068434758295" />
    <synapse sourceNeuronName = "24" targetNeuronName = "63" weight = "0.0026652812987019163" />
    <synapse sourceNeuronName = "25" targetNeuronName = "28" weight = "0.11197701187100312" />
    <synapse sourceNeuronName = "25" targetNeuronName = "29" weight = "0.13516573949054678" />
    <synapse sourceNeuronName = "25" targetNeuronName = "30" weight = "-0.3036004285488203" />
    <synapse sourceNeuronName = "25" targetNeuronName = "31" weight = "-0.6004090839968921" />
    <synapse sourceNeuronName = "25" targetNeuronName = "32" weight = "-0.37628755283560184" />
    <synapse sourceNeuronName = "25" targetNeuronName = "33" weight = "0.10644065208096294" />
    <synapse sourceNeuronName = "25" targetNeuronName = "34" weight = "0.12937403391685207" />
    <synapse sourceNeuronName = "25" targetNeuronName = "35" weight = "0.2918612118997188" />
    <synapse sourceNeuronName = "25" targetNeuronName = "36" weight = "0.023194997668086012" />
    <synapse sourceNeuronName = "25" targetNeuronName = "37" weight = "-0.13887072492307673" />
    <synapse sourceNeuronName = "25" targetNeuronName = "38" weight = "-0.048978751252491834" />
    <synapse sourceNeuronName = "25" targetNeuronName = "39" weight = "0.20365561288296324" />
    <synapse sourceNeuronName = "25" targetNeuronName = "40" weight = "0.3843961213453635" />
    <synapse sourceNeuronName = "25" targetNeuronName = "41" weight = "-0.20520103107936474" />
    <synapse sourceNeuronName = "25" targetNeuronName = "42" weight = "0.648450615200723" />
    <synapse sourceNeuronName = "25" targetNeuronName = "43" weight = "-0.45225427085123676" />
    <synapse sourceNeuronName = "25" targetNeuronName = "44" weight = "-0.33786400300170527" />
    <synapse sourceNeuronName = "25" targetNeuronName = "45" weight = "0.08821868935183552" />
    <synapse sourceNeuronName = "25" targetNeuronName = "46" weight = "-0.09962949560203027" />
    <synapse sourceNeuronName = "25" targetNeuronName = "47" weight = "-0.3544393780003996" />
    <synapse sourceNeuronName = "25" targetNeuronName = "48" weight = "0.07617603775268879" />
    <synapse sourceNeuronName = "25" targetNeuronName = "49" weight = "-0.1157823628882544" />
    <synapse sourceNeuronName = "25" targetNeuronName = "50" weight = "-0.023983136514368696" />
    <synapse sourceNeuronName = "25" targetNeuronName = "51" weight = "0.7085907314580557" />
    <synapse sourceNeuronName = "25" targetNeuronName = "52" weight = "-0.06420717344493455" />
    <synapse sourceNeuronName = "25" targetNeuronName = "53" weight = "-0.4833216147890802" />
    <synapse sourceNeuronName = "25" targetNeuronName = "54" weight = "0.4778752380435603" />
    <synapse sourceNeuronName = "25" targetNeuronName = "55" weight = "0.015972723222971368" />
    <synapse sourceNeuronName = "25" targetNeuronName = "56" weight = "0.4843274970608958" />
    <synapse sourceNeuronName = "25" targetNeuronName = "57" weight = "0.2530019949530666" />
    <synapse sourceNeuronName = "25" targetNeuronName = "58" weight = "0.3708715229602495" />
    <synapse sourceNeuronName = "25" targetNeuronName = "59" weight = "0.3814530423599714" />
    <synapse sourceNeuronName = "25" targetNeuronName = "60" weight = "-0.021386718627430443" />
    <synapse sourceNeuronName = "25" targetNeuronName = "61" weight = "0.06259818169069897" />
    <synapse sourceNeuronName = "25" targetNeuronName = "62" weight = "0.021196266554913204" />
    <synapse sourceNeuronName = "25" targetNeuronName = "63" weight = "-0.013735433915871422" />
    <synapse sourceNeuronName = "26" targetNeuronName = "28" weight = "0.09444059712306781" />
    <synapse sourceNeuronName = "26" targetNeuronName = "29" weight = "-0.4277046435169934" />
    <synapse sourceNeuronName = "26" targetNeuronName = "30" weight = "-0.053915760243574015" />
    <synapse sourceNeuronName = "26" targetNeuronName = "31" weight = "-0.04509420825722148" />
    <synapse sourceNeuronName = "26" targetNeuronName = "32" weight = "-0.11098780151557999" />
    <synapse sourceNeuronName = "26" targetNeuronName = "33" weight = "-0.35223439466965717" />
    <synapse sourceNeuronName = "26" targetNeuronName = "34" weight = "0.004517840714462925" />
    <synapse sourceNeuronName = "26" targetNeuronName = "35" weight = "-0.06438208872270487" />
    <synapse sourceNeuronName = "26" targetNeuronName = "36" weight = "-0.8100548782102803" />
    <synapse sourceNeuronName = "26" targetNeuronName = "37" weight = "0.12248528055752779" />
    <synapse sourceNeuronName = "26" targetNeuronName = "38" weight = "-0.607626874356331" />
    <synapse sourceNeuronName = "26" targetNeuronName = "39" weight = "0.16108328764258634" />
    <synapse sourceNeuronName = "26" targetNeuronName = "40" weight = "0.32436179580166546" />
    <synapse sourceNeuronName = "26" targetNeuronName = "41" weight = "-0.5973256992785809" />
    <synapse sourceNeuronName = "26" targetNeuronName = "42" weight = "0.2725764144105583" />
    <synapse sourceNeuronName = "26" targetNeuronName = "43" weight = "0.6861038959139705" />
    <synapse sourceNeuronName = "26" targetNeuronName = "44" weight = "0.530715127344764" />
    <synapse sourceNeuronName = "26" targetNeuronName = "45" weight = "0.04885785894348569" />
    <synapse sourceNeuronName = "26" targetNeuronName = "46" weight = "0.6515623137015505" />
    <synapse sourceNeuronName = "26" targetNeuronName = "47" weight = "0.660760531625987" />
    <synapse sourceNeuronName = "26" targetNeuronName = "48" weight = "-0.35337001300176263" />
    <synapse sourceNeuronName = "26" targetNeuronName = "49" weight = "0.1515728941351553" />
    <synapse sourceNeuronName = "26" targetNeuronName = "50" weight = "0.008143193592673799" />
    <synapse sourceNeuronName = "26" targetNeuronName = "51" weight = "0.1285786255984429" />
    <synapse sourceNeuronName = "26" targetNeuronName = "52" weight = "0.6664108816051855" />
    <synapse sourceNeuronName = "26" targetNeuronName = "53" weight = "0.1695226836841797" />
    <synapse sourceNeuronName = "26" targetNeuronName = "54" weight = "0.27543863048844575" />
    <synapse sourceNeuronName = "26" targetNeuronName = "55" weight = "-0.01791383125308426" />
    <synapse sourceNeuronName = "26" targetNeuronName = "56" weight = "-0.009526231118564345" />
    <synapse sourceNeuronName = "26" targetNeuronName = "57" weight = "-0.34477783025870623" />
    <synapse sourceNeuronName = "26" targetNeuronName = "58" weight = "0.18651667982008568" />
    <synapse sourceNeuronName = "26" targetNeuronName = "59" weight = "0.5212100607612902" />
    <synapse sourceNeuronName = "26" targetNeuronName = "60" weight = "0.31929253966171667" />
    <synapse sourceNeuronName = "26" targetNeuronName = "61" weight = "0.35189015994444084" />
    <synapse sourceNeuronName = "26" targetNeuronName = "62" weight = "-0.3714146212990902" />
    <synapse sourceNeuronName = "26" targetNeuronName = "63" weight = "-0.5689546566439878" />
    <synapse sourceNeuronName = "27" targetNeuronName = "28" weight = "-0.35092024047151443" />
    <synapse sourceNeuronName = "27" targetNeuronName = "29" weight = "-0.5569706201542499" />
    <synapse sourceNeuronName = "27" targetNeuronName = "30" weight = "0.6200964052117935" />
    <synapse sourceNeuronName = "27" targetNeuronName = "31" weight = "-0.1718195531298611" />
    <synapse sourceNeuronName = "27" targetNeuronName = "32" weight = "0.18131004957369593" />
    <synapse sourceNeuronName = "27" targetNeuronName = "33" weight = "0.2655641444122309" />
    <synapse sourceNeuronName = "27" targetNeuronName = "34" weight = "-0.31266631927532507" />
    <synapse sourceNeuronName = "27" targetNeuronName = "35" weight = "-0.5587838547282814" />
    <synapse sourceNeuronName = "27" targetNeuronName = "36" weight = "0.0683713237696901" />
    <synapse sourceNeuronName = "27" targetNeuronName = "37" weight = "0.09090531995461215" />
    <synapse sourceNeuronName = "27" targetNeuronName = "38" weight = "-0.8566302676754406" />
    <synapse sourceNeuronName = "27" targetNeuronName = "39" weight = "0.062443333790855426" />
    <synapse sourceNeuronName = "27" targetNeuronName = "40" weight = "-0.03178559701005662" />
    <synapse sourceNeuronName = "27" targetNeuronName = "41" weight = "0.1828682965208112" />
    <synapse sourceNeuronName = "27" targetNeuronName = "42" weight = "0.05655399239698575" />
    <synapse sourceNeuronName = "27" targetNeuronName = "43" weight = "0.673381651711396" />
    <synapse sourceNeuronName = "27" targetNeuronName = "44" weight = "0.3375058374929294" />
    <synapse sourceNeuronName = "27" targetNeuronName = "45" weight = "0.12388071304456733" />
    <synapse sourceNeuronName = "27" targetNeuronName = "46" weight = "0.16404445111988813" />
    <synapse sourceNeuronName = "27" targetNeuronName = "47" weight = "0.27704410439624216" />
    <synapse sourceNeuronName = "27" targetNeuronName = "48" weight = "0.6282045355820551" />
    <synapse sourceNeuronName = "27" targetNeuronName = "49" weight = "0.7744103665829276" />
    <synapse sourceNeuronName = "27" targetNeuronName = "50" weight = "0.388304643135743" />
    <synapse sourceNeuronName = "27" targetNeuronName = "51" weight = "-0.5254506462872599" />
    <synapse sourceNeuronName = "27" targetNeuronName = "52" weight = "0.08756148082989959" />
    <synapse sourceNeuronName = "27" targetNeuronName = "53" weight = "0.33698209884576347" />
    <synapse sourceNeuronName = "27" targetNeuronName = "54" weight = "-0.5605625925239446" />
    <synapse sourceNeuronName = "27" targetNeuronName = "55" weight = "-0.17515927089250682" />
    <synapse sourceNeuronName = "27" targetNeuronName = "56" weight = "-0.08827066340837267" />
    <synapse sourceNeuronName = "27" targetNeuronName = "57" weight = "0.6081011320071354" />
    <synapse sourceNeuronName = "27" targetNeuronName = "58" weight = "0.3938773636365225" />
    <synapse sourceNeuronName = "27" targetNeuronName = "59" weight = "0.1379771260282307" />
    <synapse sourceNeuronName = "27" targetNeuronName = "60" weight = "-0.06366974073811772" />
    <synapse sourceNeuronName = "27" targetNeuronName = "61" weight = "0.7418352001852113" />
    <synapse sourceNeuronName = "27" targetNeuronName = "62" weight = "-0.5833582010765783" />
    <synapse sourceNeuronName = "27" targetNeuronName = "63" weight = "-0.14896281056318117" />
    <synapse sourceNeuronName = "18" targetNeuronName = "18" weight = "-0.1005687212746348" />
    <synapse sourceNeuronName = "19" targetNeuronName = "19" weight = "-0.4839730392950444" />
    <synapse sourceNeuronName = "20" targetNeuronName = "20" weight = "-0.4363895161685031" />
    <synapse sourceNeuronName = "21" targetNeuronName = "21" weight = "-0.10532468177385404" />
    <synapse sourceNeuronName = "22" targetNeuronName = "22" weight = "0.8483757177946352" />
    <synapse sourceNeuronName = "23" targetNeuronName = "23" weight = "-0.18116360340713578" />
    <synapse sourceNeuronName = "24" targetNeuronName = "24" weight = "0.46326191044824966" />
    <synapse sourceNeuronName = "25" targetNeuronName = "25" weight = "0.034678803635286984" />
    <synapse sourceNeuronName = "26" targetNeuronName = "26" weight = "-0.6025507243902339" />
    <synapse sourceNeuronName = "27" targetNeuronName = "27" weight = "-0.33626151419814626" />
</neuralNetwork>