<neuralNetwork>
    <neuron name = "0" type = "sensor" linkName = "0TopSensor" />
    <neuron name = "1" type = "sensor" linkName = "0BottomSensor" />
    <neuron name = "2" type = "sensor" linkName = "0URBottomLeg" />
    <neuron name = "3" type = "sensor" linkName = "0ULBottomLeg" />
    <neuron name = "4" type = "sensor" linkName = "0BRBottomLeg" />
    <neuron name = "5" type = "sensor" linkName = "0BLBottomLeg" />
    <neuron name = "6" type = "sensor" linkName = "1TopSensor" />
    <neuron name = "7" type = "sensor" linkName = "1BottomSensor" />
    <neuron name = "8" type = "sensor" linkName = "1URBottomLeg" />
    <neuron name = "9" type = "sensor" linkName = "1ULBottomLeg" />
    <neuron name = "10" type = "sensor" linkName = "1BRBottomLeg" />
    <neuron name = "11" type = "sensor" linkName = "1BLBottomLeg" />
    <neuron name = "12" type = "sensor" linkName = "2TopSensor" />
    <neuron name = "13" type = "sensor" linkName = "2BottomSensor" />
    <neuron name = "14" type = "sensor" linkName = "2URBottomLeg" />
    <neuron name = "15" type = "sensor" linkName = "2ULBottomLeg" />
    <neuron name = "16" type = "sensor" linkName = "2BRBottomLeg" />
    <neuron name = "17" type = "sensor" linkName = "2BLBottomLeg" />
    <neuron name = "18" type = "hidden" />
    <neuron name = "19" type = "hidden" />
    <neuron name = "20" type = "hidden" />
    <neuron name = "21" type = "hidden" />
    <neuron name = "22" type = "hidden" />
    <neuron name = "23" type = "hidden" />
    <neuron name = "24" type = "hidden" />
    <neuron name = "25" type = "hidden" />
    <neuron name = "26" type = "hidden" />
    <neuron name = "27" type = "hidden" />
    <neuron name = "28" type = "motor"  jointName = "0Torso_0URRotate" />
    <neuron name = "29" type = "motor"  jointName = "0URRotate_0URTopLeg" />
    <neuron name = "30" type = "motor"  jointName = "0URTopLeg_0URBottomLeg" />
    <neuron name = "31" type = "motor"  jointName = "0Torso_0ULRotate" />
    <neuron name = "32" type = "motor"  jointName = "0ULRotate_0ULTopLeg" />
    <neuron name = "33" type = "motor"  jointName = "0ULTopLeg_0ULBottomLeg" />
    <neuron name = "34" type = "motor"  jointName = "0Torso_0BRRotate" />
    <neuron name = "35" type = "motor"  jointName = "0BRRotate_0BRTopLeg" />
    <neuron name = "36" type = "motor"  jointName = "0BRTopLeg_0BRBottomLeg" />
    <neuron name = "37" type = "motor"  jointName = "0Torso_0BLRotate" />
    <neuron name = "38" type = "motor"  jointName = "0BLRotate_0BLTopLeg" />
    <neuron name = "39" type = "motor"  jointName = "0BLTopLeg_0BLBottomLeg" />
    <neuron name = "40" type = "motor"  jointName = "1Torso_1URRotate" />
    <neuron name = "41" type = "motor"  jointName = "1URRotate_1URTopLeg" />
    <neuron name = "42" type = "motor"  jointName = "1URTopLeg_1URBottomLeg" />
    <neuron name = "43" type = "motor"  jointName = "1Torso_1ULRotate" />
    <neuron name = "44" type = "motor"  jointName = "1ULRotate_1ULTopLeg" />
    <neuron name = "45" type = "motor"  jointName = "1ULTopLeg_1ULBottomLeg" />
    <neuron name = "46" type = "motor"  jointName = "1Torso_1BRRotate" />
    <neuron name = "47" type = "motor"  jointName = "1BRRotate_1BRTopLeg" />
    <neuron name = "48" type = "motor"  jointName = "1BRTopLeg_1BRBottomLeg" />
    <neuron name = "49" type = "motor"  jointName = "1Torso_1BLRotate" />
    <neuron name = "50" type = "motor"  jointName = "1BLRotate_1BLTopLeg" />
    <neuron name = "51" type = "motor"  jointName = "1BLTopLeg_1BLBottomLeg" />
    <neuron name = "52" type = "motor"  jointName = "2Torso_2URRotate" />
    <neuron name = "53" type = "motor"  jointName = "2URRotate_2URTopLeg" />
    <neuron name = "54" type = "motor"  jointName = "2URTopLeg_2URBottomLeg" />
    <neuron name = "55" type = "motor"  jointName = "2Torso_2ULRotate" />
    <neuron name = "56" type = "motor"  jointName = "2ULRotate_2ULTopLeg" />
    <neuron name = "57" type = "motor"  jointName = "2ULTopLeg_2ULBottomLeg" />
    <neuron name = "58" type = "motor"  jointName = "2Torso_2BRRotate" />
    <neuron name = "59" type = "motor"  jointName = "2BRRotate_2BRTopLeg" />
    <neuron name = "60" type = "motor"  jointName = "2BRTopLeg_2BRBottomLeg" />
    <neuron name = "61" type = "motor"  jointName = "2Torso_2BLRotate" />
    <neuron name = "62" type = "motor"  jointName = "2BLRotate_2BLTopLeg" />
    <neuron name = "63" type = "motor"  jointName = "2BLTopLeg_2BLBottomLeg" />
    <synapse sourceNeuronName = "0" targetNeuronName = "18" weight = "-0.10738895467142545" />
    <synapse sourceNeuronName = "0" targetNeuronName = "19" weight = "0.6885621746892121" />
    <synapse sourceNeuronName = "0" targetNeuronName = "20" weight = "-0.03770096281801621" />
    <synapse sourceNeuronName = "0" targetNeuronName = "21" weight = "0.43109083656029223" />
    <synapse sourceNeuronName = "0" targetNeuronName = "22" weight = "0.16115187901938144" />
    <synapse sourceNeuronName = "0" targetNeuronName = "23" weight = "0.42670278366164927" />
    <synapse sourceNeuronName = "0" targetNeuronName = "24" weight = "0.3641042087542662" />
    <synapse sourceNeuronName = "0" targetNeuronName = "25" weight = "0.3310417665975609" />
    <synapse sourceNeuronName = "0" targetNeuronName = "26" weight = "-0.14884165786998693" />
    <synapse sourceNeuronName = "0" targetNeuronName = "27" weight = "0.3849869546428195" />
    <synapse sourceNeuronName = "1" targetNeuronName = "18" weight = "0.7145284690037209" />
    <synapse sourceNeuronName = "1" targetNeuronName = "19" weight = "-0.01302682476605736" />
    <synapse sourceNeuronName = "1" targetNeuronName = "20" weight = "0.13562462893291283" />
    <synapse sourceNeuronName = "1" targetNeuronName = "21" weight = "0.05919459705052692" />
    <synapse sourceNeuronName = "1" targetNeuronName = "22" weight = "-0.4546163792824467" />
    <synapse sourceNeuronName = "1" targetNeuronName = "23" weight = "0.3593144300054654" />
    <synapse sourceNeuronName = "1" targetNeuronName = "24" weight = "0.02111616150425333" />
    <synapse sourceNeuronName = "1" targetNeuronName = "25" weight = "0.1335679867663155" />
    <synapse sourceNeuronName = "1" targetNeuronName = "26" weight = "-0.33829964016043995" />
    <synapse sourceNeuronName = "1" targetNeuronName = "27" weight = "-0.385256059709457" />
    <synapse sourceNeuronName = "2" targetNeuronName = "18" weight = "-0.11533475164298035" />
    <synapse sourceNeuronName = "2" targetNeuronName = "19" weight = "-0.33941926685950874" />
    <synapse sourceNeuronName = "2" targetNeuronName = "20" weight = "0.8738541926590635" />
    <synapse sourceNeuronName = "2" targetNeuronName = "21" weight = "-0.7233021319839612" />
    <synapse sourceNeuronName = "2" targetNeuronName = "22" weight = "-0.29671706974294165" />
    <synapse sourceNeuronName = "2" targetNeuronName = "23" weight = "-0.27563818961621045" />
    <synapse sourceNeuronName = "2" targetNeuronName = "24" weight = "-0.4687915019972111" />
    <synapse sourceNeuronName = "2" targetNeuronName = "25" weight = "0.3331715263593912" />
    <synapse sourceNeuronName = "2" targetNeuronName = "26" weight = "-0.23942881649162928" />
    <synapse sourceNeuronName = "2" targetNeuronName = "27" weight = "0.9715637437934455" />
    <synapse sourceNeuronName = "3" targetNeuronName = "18" weight = "0.3398827025416223" />
    <synapse sourceNeuronName = "3" targetNeuronName = "19" weight = "-0.09678574352423128" />
    <synapse sourceNeuronName = "3" targetNeuronName = "20" weight = "0.041244208257240095" />
    <synapse sourceNeuronName = "3" targetNeuronName = "21" weight = "-0.6806278835412463" />
    <synapse sourceNeuronName = "3" targetNeuronName = "22" weight = "-0.12789978899262053" />
    <synapse sourceNeuronName = "3" targetNeuronName = "23" weight = "0.11757857175785039" />
    <synapse sourceNeuronName = "3" targetNeuronName = "24" weight = "-0.05550329515477332" />
    <synapse sourceNeuronName = "3" targetNeuronName = "25" weight = "-0.3134242046098485" />
    <synapse sourceNeuronName = "3" targetNeuronName = "26" weight = "0.27540242922923547" />
    <synapse sourceNeuronName = "3" targetNeuronName = "27" weight = "0.5159021153616548" />
    <synapse sourceNeuronName = "4" targetNeuronName = "18" weight = "-0.273104976949923" />
    <synapse sourceNeuronName = "4" targetNeuronName = "19" weight = "0.19584727901843135" />
    <synapse sourceNeuronName = "4" targetNeuronName = "20" weight = "0.11622080185542585" />
    <synapse sourceNeuronName = "4" targetNeuronName = "21" weight = "-0.8759709298371432" />
    <synapse sourceNeuronName = "4" targetNeuronName = "22" weight = "0.33816764797501003" />
    <synapse sourceNeuronName = "4" targetNeuronName = "23" weight = "-0.22669314429289084" />
    <synapse sourceNeuronName = "4" targetNeuronName = "24" weight = "-0.12179678973789772" />
    <synapse sourceNeuronName = "4" targetNeuronName = "25" weight = "0.40108844180712544" />
    <synapse sourceNeuronName = "4" targetNeuronName = "26" weight = "-0.21424382232945677" />
    <synapse sourceNeuronName = "4" targetNeuronName = "27" weight = "-0.12970781694222105" />
    <synapse sourceNeuronName = "5" targetNeuronName = "18" weight = "-0.11326145854805166" />
    <synapse sourceNeuronName = "5" targetNeuronName = "19" weight = "0.09740133473051796" />
    <synapse sourceNeuronName = "5" targetNeuronName = "20" weight = "0.31784644670285944" />
    <synapse sourceNeuronName = "5" targetNeuronName = "21" weight = "-0.2635850963180033" />
    <synapse sourceNeuronName = "5" targetNeuronName = "22" weight = "0.42714804599670037" />
    <synapse sourceNeuronName = "5" targetNeuronName = "23" weight = "0.21035004342045183" />
    <synapse sourceNeuronName = "5" targetNeuronName = "24" weight = "-0.35005427259605193" />
    <synapse sourceNeuronName = "5" targetNeuronName = "25" weight = "-0.5482790526118417" />
    <synapse sourceNeuronName = "5" targetNeuronName = "26" weight = "-0.19565859614412762" />
    <synapse sourceNeuronName = "5" targetNeuronName = "27" weight = "-0.3958078844284334" />
    <synapse sourceNeuronName = "6" targetNeuronName = "18" weight = "0.2812003416044084" />
    <synapse sourceNeuronName = "6" targetNeuronName = "19" weight = "-0.40831804446870235" />
    <synapse sourceNeuronName = "6" targetNeuronName = "20" weight = "-0.6470284103621392" />
    <synapse sourceNeuronName = "6" targetNeuronName = "21" weight = "-0.2773870363777772" />
    <synapse sourceNeuronName = "6" targetNeuronName = "22" weight = "-0.08963315923024906" />
    <synapse sourceNeuronName = "6" targetNeuronName = "23" weight = "-0.000547117354699199" />
    <synapse sourceNeuronName = "6" targetNeuronName = "24" weight = "-0.19162161740435674" />
    <synapse sourceNeuronName = "6" targetNeuronName = "25" weight = "-0.34977959341087483" />
    <synapse sourceNeuronName = "6" targetNeuronName = "26" weight = "-0.18191411457624168" />
    <synapse sourceNeuronName = "6" targetNeuronName = "27" weight = "0.25686338911625534" />
    <synapse sourceNeuronName = "7" targetNeuronName = "18" weight = "0.09852087749658539" />
    <synapse sourceNeuronName = "7" targetNeuronName = "19" weight = "0.29463698586155657" />
    <synapse sourceNeuronName = "7" targetNeuronName = "20" weight = "-0.42797108125936134" />
    <synapse sourceNeuronName = "7" targetNeuronName = "21" weight = "0.32664941266473313" />
    <synapse sourceNeuronName = "7" targetNeuronName = "22" weight = "0.5620558453537905" />
    <synapse sourceNeuronName = "7" targetNeuronName = "23" weight = "-0.7033601370028171" />
    <synapse sourceNeuronName = "7" targetNeuronName = "24" weight = "0.3288876376273498" />
    <synapse sourceNeuronName = "7" targetNeuronName = "25" weight = "-0.4448809541030874" />
    <synapse sourceNeuronName = "7" targetNeuronName = "26" weight = "-0.05066885522801537" />
    <synapse sourceNeuronName = "7" targetNeuronName = "27" weight = "0.16745846352611732" />
    <synapse sourceNeuronName = "8" targetNeuronName = "18" weight = "-0.03611560492149105" />
    <synapse sourceNeuronName = "8" targetNeuronName = "19" weight = "0.22231344417441082" />
    <synapse sourceNeuronName = "8" targetNeuronName = "20" weight = "0.45701398955313033" />
    <synapse sourceNeuronName = "8" targetNeuronName = "21" weight = "-0.6975279826140715" />
    <synapse sourceNeuronName = "8" targetNeuronName = "22" weight = "0.36946937311294864" />
    <synapse sourceNeuronName = "8" targetNeuronName = "23" weight = "0.67152700111963" />
    <synapse sourceNeuronName = "8" targetNeuronName = "24" weight = "0.08200702428870021" />
    <synapse sourceNeuronName = "8" targetNeuronName = "25" weight = "0.08980857784969665" />
    <synapse sourceNeuronName = "8" targetNeuronName = "26" weight = "-0.2142725166699644" />
    <synapse sourceNeuronName = "8" targetNeuronName = "27" weight = "-0.03936041997117042" />
    <synapse sourceNeuronName = "9" targetNeuronName = "18" weight = "0.439359188314185" />
    <synapse sourceNeuronName = "9" targetNeuronName = "19" weight = "-0.5389936593234719" />
    <synapse sourceNeuronName = "9" targetNeuronName = "20" weight = "0.1286539577677549" />
    <synapse sourceNeuronName = "9" targetNeuronName = "21" weight = "0.21480147361558138" />
    <synapse sourceNeuronName = "9" targetNeuronName = "22" weight = "-0.016119597966037666" />
    <synapse sourceNeuronName = "9" targetNeuronName = "23" weight = "-0.5534564712550641" />
    <synapse sourceNeuronName = "9" targetNeuronName = "24" weight = "-0.17996957685831344" />
    <synapse sourceNeuronName = "9" targetNeuronName = "25" weight = "-0.05946235619891647" />
    <synapse sourceNeuronName = "9" targetNeuronName = "26" weight = "0.251571050181185" />
    <synapse sourceNeuronName = "9" targetNeuronName = "27" weight = "-0.4752841904474008" />
    <synapse sourceNeuronName = "10" targetNeuronName = "18" weight = "0.18502968883675777" />
    <synapse sourceNeuronName = "10" targetNeuronName = "19" weight = "-0.01880032397236468" />
    <synapse sourceNeuronName = "10" targetNeuronName = "20" weight = "-0.4477357678052161" />
    <synapse sourceNeuronName = "10" targetNeuronName = "21" weight = "-0.026027012126559446" />
    <synapse sourceNeuronName = "10" targetNeuronName = "22" weight = "-0.028493866759793145" />
    <synapse sourceNeuronName = "10" targetNeuronName = "23" weight = "0.5411370789513024" />
    <synapse sourceNeuronName = "10" targetNeuronName = "24" weight = "0.23691662628020854" />
    <synapse sourceNeuronName = "10" targetNeuronName = "25" weight = "-0.20404138605831185" />
    <synapse sourceNeuronName = "10" targetNeuronName = "26" weight = "-0.0057303628756015116" />
    <synapse sourceNeuronName = "10" targetNeuronName = "27" weight = "-0.09659427512426205" />
    <synapse sourceNeuronName = "11" targetNeuronName = "18" weight = "-0.848040429897227" />
    <synapse sourceNeuronName = "11" targetNeuronName = "19" weight = "-0.17324442225265405" />
    <synapse sourceNeuronName = "11" targetNeuronName = "20" weight = "0.1998336092766782" />
    <synapse sourceNeuronName = "11" targetNeuronName = "21" weight = "0.12076539958466931" />
    <synapse sourceNeuronName = "11" targetNeuronName = "22" weight = "-0.4906088070338086" />
    <synapse sourceNeuronName = "11" targetNeuronName = "23" weight = "-0.12415197094268393" />
    <synapse sourceNeuronName = "11" targetNeuronName = "24" weight = "0.3803102197582001" />
    <synapse sourceNeuronName = "11" targetNeuronName = "25" weight = "0.21253464376658252" />
    <synapse sourceNeuronName = "11" targetNeuronName = "26" weight = "-0.23949163603327564" />
    <synapse sourceNeuronName = "11" targetNeuronName = "27" weight = "-0.04083769161830368" />
    <synapse sourceNeuronName = "12" targetNeuronName = "18" weight = "-0.12736226970562314" />
    <synapse sourceNeuronName = "12" targetNeuronName = "19" weight = "0.16790376745099636" />
    <synapse sourceNeuronName = "12" targetNeuronName = "20" weight = "-0.30915812241065393" />
    <synapse sourceNeuronName = "12" targetNeuronName = "21" weight = "-0.09242597976391888" />
    <synapse sourceNeuronName = "12" targetNeuronName = "22" weight = "0.4197788553349727" />
    <synapse sourceNeuronName = "12" targetNeuronName = "23" weight = "-0.842869299124517" />
    <synapse sourceNeuronName = "12" targetNeuronName = "24" weight = "0.0289021449434888" />
    <synapse sourceNeuronName = "12" targetNeuronName = "25" weight = "0.26048722023750137" />
    <synapse sourceNeuronName = "12" targetNeuronName = "26" weight = "0.18806280139006518" />
    <synapse sourceNeuronName = "12" targetNeuronName = "27" weight = "0.6207844149190804" />
    <synapse sourceNeuronName = "13" targetNeuronName = "18" weight = "-0.5083960480685713" />
    <synapse sourceNeuronName = "13" targetNeuronName = "19" weight = "0.34204172464930904" />
    <synapse sourceNeuronName = "13" targetNeuronName = "20" weight = "-0.557471043994862" />
    <synapse sourceNeuronName = "13" targetNeuronName = "21" weight = "-0.1024050695484864" />
    <synapse sourceNeuronName = "13" targetNeuronName = "22" weight = "0.5607972909799118" />
    <synapse sourceNeuronName = "13" targetNeuronName = "23" weight = "0.19463859753465768" />
    <synapse sourceNeuronName = "13" targetNeuronName = "24" weight = "0.13091783901665774" />
    <synapse sourceNeuronName = "13" targetNeuronName = "25" weight = "0.03296565034282949" />
    <synapse sourceNeuronName = "13" targetNeuronName = "26" weight = "0.17153597913186042" />
    <synapse sourceNeuronName = "13" targetNeuronName = "27" weight = "0.3159103619191211" />
    <synapse sourceNeuronName = "14" targetNeuronName = "18" weight = "0.3293484085055126" />
    <synapse sourceNeuronName = "14" targetNeuronName = "19" weight = "0.27013190942148135" />
    <synapse sourceNeuronName = "14" targetNeuronName = "20" weight = "-0.31006834308210257" />
    <synapse sourceNeuronName = "14" targetNeuronName = "21" weight = "-0.15811463677395904" />
    <synapse sourceNeuronName = "14" targetNeuronName = "22" weight = "0.08465047976361846" />
    <synapse sourceNeuronName = "14" targetNeuronName = "23" weight = "0.20185151604240914" />
    <synapse sourceNeuronName = "14" targetNeuronName = "24" weight = "0.16444148620381382" />
    <synapse sourceNeuronName = "14" targetNeuronName = "25" weight = "0.14667535739371543" />
    <synapse sourceNeuronName = "14" targetNeuronName = "26" weight = "-0.2264948972911594" />
    <synapse sourceNeuronName = "14" targetNeuronName = "27" weight = "-0.1910563225620734" />
    <synapse sourceNeuronName = "15" targetNeuronName = "18" weight = "0.3703193840682625" />
    <synapse sourceNeuronName = "15" targetNeuronName = "19" weight = "-0.17423191216476647" />
    <synapse sourceNeuronName = "15" targetNeuronName = "20" weight = "0.20816502159633138" />
    <synapse sourceNeuronName = "15" targetNeuronName = "21" weight = "-0.3238555534931093" />
    <synapse sourceNeuronName = "15" targetNeuronName = "22" weight = "0.5858886332251053" />
    <synapse sourceNeuronName = "15" targetNeuronName = "23" weight = "-0.16379393568676437" />
    <synapse sourceNeuronName = "15" targetNeuronName = "24" weight = "-0.0019406638964620867" />
    <synapse sourceNeuronName = "15" targetNeuronName = "25" weight = "0.6152220772509096" />
    <synapse sourceNeuronName = "15" targetNeuronName = "26" weight = "-0.25826366111141985" />
    <synapse sourceNeuronName = "15" targetNeuronName = "27" weight = "-0.16143663670234665" />
    <synapse sourceNeuronName = "16" targetNeuronName = "18" weight = "-0.7468859324993572" />
    <synapse sourceNeuronName = "16" targetNeuronName = "19" weight = "0.04087649888134212" />
    <synapse sourceNeuronName = "16" targetNeuronName = "20" weight = "-0.03413785431501676" />
    <synapse sourceNeuronName = "16" targetNeuronName = "21" weight = "0.2054179842349663" />
    <synapse sourceNeuronName = "16" targetNeuronName = "22" weight = "-0.26932380798815786" />
    <synapse sourceNeuronName = "16" targetNeuronName = "23" weight = "0.18598118467232727" />
    <synapse sourceNeuronName = "16" targetNeuronName = "24" weight = "0.5304797111141278" />
    <synapse sourceNeuronName = "16" targetNeuronName = "25" weight = "-0.6383537976291334" />
    <synapse sourceNeuronName = "16" targetNeuronName = "26" weight = "0.24528644776099987" />
    <synapse sourceNeuronName = "16" targetNeuronName = "27" weight = "-0.04093651765979569" />
    <synapse sourceNeuronName = "17" targetNeuronName = "18" weight = "-0.5142630257424252" />
    <synapse sourceNeuronName = "17" targetNeuronName = "19" weight = "-0.3517591154825215" />
    <synapse sourceNeuronName = "17" targetNeuronName = "20" weight = "-0.026223209665238056" />
    <synapse sourceNeuronName = "17" targetNeuronName = "21" weight = "-0.06588844928626958" />
    <synapse sourceNeuronName = "17" targetNeuronName = "22" weight = "-0.05076251092727655" />
    <synapse sourceNeuronName = "17" targetNeuronName = "23" weight = "-0.3519686538587621" />
    <synapse sourceNeuronName = "17" targetNeuronName = "24" weight = "0.3143251558185504" />
    <synapse sourceNeuronName = "17" targetNeuronName = "25" weight = "0.6894257390289426" />
    <synapse sourceNeuronName = "17" targetNeuronName = "26" weight = "0.07025397463529749" />
    <synapse sourceNeuronName = "17" targetNeuronName = "27" weight = "-0.176553585646121" />
    <synapse sourceNeuronName = "18" targetNeuronName = "28" weight = "0.6865230769549411" />
    <synapse sourceNeuronName = "18" targetNeuronName = "29" weight = "0.029547372578332638" />
    <synapse sourceNeuronName = "18" targetNeuronName = "30" weight = "-0.13544896472748832" />
    <synapse sourceNeuronName = "18" targetNeuronName = "31" weight = "0.013899232024325716" />
    <synapse sourceNeuronName = "18" targetNeuronName = "32" weight = "-0.45364618642738025" />
    <synapse sourceNeuronName = "18" targetNeuronName = "33" weight = "-0.1802018864626144" />
    <synapse sourceNeuronName = "18" targetNeuronName = "34" weight = "0.28938276686274234" />
    <synapse sourceNeuronName = "18" targetNeuronName = "35" weight = "0.04113280817035897" />
    <synapse sourceNeuronName = "18" targetNeuronName = "36" weight = "-0.31877282394952206" />
    <synapse sourceNeuronName = "18" targetNeuronName = "37" weight = "0.40758225307018836" />
    <synapse sourceNeuronName = "18" targetNeuronName = "38" weight = "-0.32026107327558395" />
    <synapse sourceNeuronName = "18" targetNeuronName = "39" weight = "-0.6896855701229851" />
    <synapse sourceNeuronName = "18" targetNeuronName = "40" weight = "0.13031822855589115" />
    <synapse sourceNeuronName = "18" targetNeuronName = "41" weight = "-0.08669921270259795" />
    <synapse sourceNeuronName = "18" targetNeuronName = "42" weight = "0.44689378857779627" />
    <synapse sourceNeuronName = "18" targetNeuronName = "43" weight = "-0.6191392214692235" />
    <synapse sourceNeuronName = "18" targetNeuronName = "44" weight = "-0.782747213531216" />
    <synapse sourceNeuronName = "18" targetNeuronName = "45" weight = "-0.009081126811653557" />
    <synapse sourceNeuronName = "18" targetNeuronName = "46" weight = "-0.3597937675519889" />
    <synapse sourceNeuronName = "18" targetNeuronName = "47" weight = "-0.28746148224034407" />
    <synapse sourceNeuronName = "18" targetNeuronName = "48" weight = "-0.3189667311249369" />
    <synapse sourceNeuronName = "18" targetNeuronName = "49" weight = "0.024364685696495997" />
    <synapse sourceNeuronName = "18" targetNeuronName = "50" weight = "0.1812150992515942" />
    <synapse sourceNeuronName = "18" targetNeuronName = "51" weight = "-0.26090654591594775" />
    <synapse sourceNeuronName = "18" targetNeuronName = "52" weight = "-0.34004630483160436" />
    <synapse sourceNeuronName = "18" targetNeuronName = "53" weight = "0.23827273434326626" />
    <synapse sourceNeuronName = "18" targetNeuronName = "54" weight = "0.13740151402890272" />
    <synapse sourceNeuronName = "18" targetNeuronName = "55" weight = "0.1679594845116118" />
    <synapse sourceNeuronName = "18" targetNeuronName = "56" weight = "-0.23141793679633332" />
    <synapse sourceNeuronName = "18" targetNeuronName = "57" weight = "0.5272736515448742" />
    <synapse sourceNeuronName = "18" targetNeuronName = "58" weight = "-0.3415075835172601" />
    <synapse sourceNeuronName = "18" targetNeuronName = "59" weight = "0.42904875076780946" />
    <synapse sourceNeuronName = "18" targetNeuronName = "60" weight = "-0.12913320847955595" />
    <synapse sourceNeuronName = "18" targetNeuronName = "61" weight = "-0.28952295200685196" />
    <synapse sourceNeuronName = "18" targetNeuronName = "62" weight = "-0.27887905470701174" />
    <synapse sourceNeuronName = "18" targetNeuronName = "63" weight = "-0.010046259153058443" />
    <synapse sourceNeuronName = "19" targetNeuronName = "28" weight = "0.14546993337909375" />
    <synapse sourceNeuronName = "19" targetNeuronName = "29" weight = "-0.12461701221627874" />
    <synapse sourceNeuronName = "19" targetNeuronName = "30" weight = "0.035430668518314876" />
    <synapse sourceNeuronName = "19" targetNeuronName = "31" weight = "0.17312367298280765" />
    <synapse sourceNeuronName = "19" targetNeuronName = "32" weight = "0.5712127809206815" />
    <synapse sourceNeuronName = "19" targetNeuronName = "33" weight = "0.21630126471615202" />
    <synapse sourceNeuronName = "19" targetNeuronName = "34" weight = "-0.32382165809514063" />
    <synapse sourceNeuronName = "19" targetNeuronName = "35" weight = "-0.6157637448246267" />
    <synapse sourceNeuronName = "19" targetNeuronName = "36" weight = "0.39798799895016407" />
    <synapse sourceNeuronName = "19" targetNeuronName = "37" weight = "0.20510969288437778" />
    <synapse sourceNeuronName = "19" targetNeuronName = "38" weight = "-0.172375609123043" />
    <synapse sourceNeuronName = "19" targetNeuronName = "39" weight = "-0.06735621547821632" />
    <synapse sourceNeuronName = "19" targetNeuronName = "40" weight = "0.030034112685490652" />
    <synapse sourceNeuronName = "19" targetNeuronName = "41" weight = "0.00428986217130186" />
    <synapse sourceNeuronName = "19" targetNeuronName = "42" weight = "-0.05657191616363326" />
    <synapse sourceNeuronName = "19" targetNeuronName = "43" weight = "0.9111036156380026" />
    <synapse sourceNeuronName = "19" targetNeuronName = "44" weight = "-0.05115547088033237" />
    <synapse sourceNeuronName = "19" targetNeuronName = "45" weight = "-0.06256938610875407" />
    <synapse sourceNeuronName = "19" targetNeuronName = "46" weight = "0.3738373046126985" />
    <synapse sourceNeuronName = "19" targetNeuronName = "47" weight = "0.025334832194481474" />
    <synapse sourceNeuronName = "19" targetNeuronName = "48" weight = "0.4830760094402655" />
    <synapse sourceNeuronName = "19" targetNeuronName = "49" weight = "0.21606812523026558" />
    <synapse sourceNeuronName = "19" targetNeuronName = "50" weight = "-0.08938050770899239" />
    <synapse sourceNeuronName = "19" targetNeuronName = "51" weight = "0.08175673287895574" />
    <synapse sourceNeuronName = "19" targetNeuronName = "52" weight = "-0.4971505345024273" />
    <synapse sourceNeuronName = "19" targetNeuronName = "53" weight = "0.6003384349177956" />
    <synapse sourceNeuronName = "19" targetNeuronName = "54" weight = "-0.13320411268738583" />
    <synapse sourceNeuronName = "19" targetNeuronName = "55" weight = "0.3280631107363646" />
    <synapse sourceNeuronName = "19" targetNeuronName = "56" weight = "0.5406351916507032" />
    <synapse sourceNeuronName = "19" targetNeuronName = "57" weight = "0.08587347346622348" />
    <synapse sourceNeuronName = "19" targetNeuronName = "58" weight = "0.0329776363690158" />
    <synapse sourceNeuronName = "19" targetNeuronName = "59" weight = "0.22161916392383813" />
    <synapse sourceNeuronName = "19" targetNeuronName = "60" weight = "-0.08275745756428138" />
    <synapse sourceNeuronName = "19" targetNeuronName = "61" weight = "0.2607546737552784" />
    <synapse sourceNeuronName = "19" targetNeuronName = "62" weight = "0.3178590739983479" />
    <synapse sourceNeuronName = "19" targetNeuronName = "63" weight = "0.04879429567290673" />
    <synapse sourceNeuronName = "20" targetNeuronName = "28" weight = "0.5289623823252512" />
    <synapse sourceNeuronName = "20" targetNeuronName = "29" weight = "0.17693871325448554" />
    <synapse sourceNeuronName = "20" targetNeuronName = "30" weight = "-0.13204853521118337" />
    <synapse sourceNeuronName = "20" targetNeuronName = "31" weight = "-0.2670842221304529" />
    <synapse sourceNeuronName = "20" targetNeuronName = "32" weight = "-0.005119292112535549" />
    <synapse sourceNeuronName = "20" targetNeuronName = "33" weight = "0.6182726852022897" />
    <synapse sourceNeuronName = "20" targetNeuronName = "34" weight = "-0.20348490950895587" />
    <synapse sourceNeuronName = "20" targetNeuronName = "35" weight = "-0.28528206736947603" />
    <synapse sourceNeuronName = "20" targetNeuronName = "36" weight = "0.2075125308047451" />
    <synapse sourceNeuronName = "20" targetNeuronName = "37" weight = "-0.1446894059396278" />
    <synapse sourceNeuronName = "20" targetNeuronName = "38" weight = "0.01583441569369786" />
    <synapse sourceNeuronName = "20" targetNeuronName = "39" weight = "0.2683987058910036" />
    <synapse sourceNeuronName = "20" targetNeuronName = "40" weight = "0.027177501210994943" />
    <synapse sourceNeuronName = "20" targetNeuronName = "41" weight = "0.013266188615657053" />
    <synapse sourceNeuronName = "20" targetNeuronName = "42" weight = "-0.510967890207966" />
    <synapse sourceNeuronName = "20" targetNeuronName = "43" weight = "-0.32158571042930795" />
    <synapse sourceNeuronName = "20" targetNeuronName = "44" weight = "0.48885347151289793" />
    <synapse sourceNeuronName = "20" targetNeuronName = "45" weight = "0.19210851573027343" />
    <synapse sourceNeuronName = "20" targetNeuronName = "46" weight = "0.06929878003423524" />
    <synapse sourceNeuronName = "20" targetNeuronName = "47" weight = "-0.13612746579738175" />
    <synapse sourceNeuronName = "20" targetNeuronName = "48" weight = "-0.05173408802278213" />
    <synapse sourceNeuronName = "20" targetNeuronName = "49" weight = "0.017280647263991995" />
    <synapse sourceNeuronName = "20" targetNeuronName = "50" weight = "-0.34854569571658633" />
    <synapse sourceNeuronName = "20" targetNeuronName = "51" weight = "0.21340584012879876" />
    <synapse sourceNeuronName = "20" targetNeuronName = "52" weight = "-0.1741994642170035" />
    <synapse sourceNeuronName = "20" targetNeuronName = "53" weight = "0.5432291966267122" />
    <synapse sourceNeuronName = "20" targetNeuronName = "54" weight = "-0.09259617654657762" />
    <synapse sourceNeuronName = "20" targetNeuronName = "55" weight = "-0.1243672330426539" />
    <synapse sourceNeuronName = "20" targetNeuronName = "56" weight = "-0.21320344711214811" />
    <synapse sourceNeuronName = "20" targetNeuronName = "57" weight = "-0.2802242534966495" />
    <synapse sourceNeuronName = "20" targetNeuronName = "58" weight = "-0.06412006004054792" />
    <synapse sourceNeuronName = "20" targetNeuronName = "59" weight = "-0.6561287617119224" />
    <synapse sourceNeuronName = "20" targetNeuronName = "60" weight = "0.31741165436245733" />
    <synapse sourceNeuronName = "20" targetNeuronName = "61" weight = "0.5596123350908109" />
    <synapse sourceNeuronName = "20" targetNeuronName = "62" weight = "0.1570044212995998" />
    <synapse sourceNeuronName = "20" targetNeuronName = "63" weight = "-0.12225899252970338" />
    <synapse sourceNeuronName = "21" targetNeuronName = "28" weight = "-0.3453391571794855" />
    <synapse sourceNeuronName = "21" targetNeuronName = "29" weight = "-0.5103265768637406" />
    <synapse sourceNeuronName = "21" targetNeuronName = "30" weight = "-0.38676869394518276" />
    <synapse sourceNeuronName = "21" targetNeuronName = "31" weight = "0.37609417212644686" />
    <synapse sourceNeuronName = "21" targetNeuronName = "32" weight = "0.2831784073433339" />
    <synapse sourceNeuronName = "21" targetNeuronName = "33" weight = "-0.12654770460128112" />
    <synapse sourceNeuronName = "21" targetNeuronName = "34" weight = "-0.5718942843831706" />
    <synapse sourceNeuronName = "21" targetNeuronName = "35" weight = "-0.2867029625101629" />
    <synapse sourceNeuronName = "21" targetNeuronName = "36" weight = "0.10133912996491279" />
    <synapse sourceNeuronName = "21" targetNeuronName = "37" weight = "0.6731336435012263" />
    <synapse sourceNeuronName = "21" targetNeuronName = "38" weight = "0.8317901065186133" />
    <synapse sourceNeuronName = "21" targetNeuronName = "39" weight = "0.10484446836003741" />
    <synapse sourceNeuronName = "21" targetNeuronName = "40" weight = "-0.183453558542775" />
    <synapse sourceNeuronName = "21" targetNeuronName = "41" weight = "0.14669738730975107" />
    <synapse sourceNeuronName = "21" targetNeuronName = "42" weight = "-0.10380419904387045" />
    <synapse sourceNeuronName = "21" targetNeuronName = "43" weight = "0.3440533043703189" />
    <synapse sourceNeuronName = "21" targetNeuronName = "44" weight = "-0.11351068792127048" />
    <synapse sourceNeuronName = "21" targetNeuronName = "45" weight = "-0.16515233929282958" />
    <synapse sourceNeuronName = "21" targetNeuronName = "46" weight = "0.19071226547159995" />
    <synapse sourceNeuronName = "21" targetNeuronName = "47" weight = "0.14204340344001332" />
    <synapse sourceNeuronName = "21" targetNeuronName = "48" weight = "-0.02732401069945948" />
    <synapse sourceNeuronName = "21" targetNeuronName = "49" weight = "0.5415757009225552" />
    <synapse sourceNeuronName = "21" targetNeuronName = "50" weight = "0.05408087883931317" />
    <synapse sourceNeuronName = "21" targetNeuronName = "51" weight = "-0.12562340445321568" />
    <synapse sourceNeuronName = "21" targetNeuronName = "52" weight = "-0.1036141353042446" />
    <synapse sourceNeuronName = "21" targetNeuronName = "53" weight = "0.558052182756914" />
    <synapse sourceNeuronName = "21" targetNeuronName = "54" weight = "0.24442482865549237" />
    <synapse sourceNeuronName = "21" targetNeuronName = "55" weight = "0.1639406554706153" />
    <synapse sourceNeuronName = "21" targetNeuronName = "56" weight = "0.0803595238418226" />
    <synapse sourceNeuronName = "21" targetNeuronName = "57" weight = "-0.2630316971437492" />
    <synapse sourceNeuronName = "21" targetNeuronName = "58" weight = "-0.16388840577920954" />
    <synapse sourceNeuronName = "21" targetNeuronName = "59" weight = "-0.4543009463673754" />
    <synapse sourceNeuronName = "21" targetNeuronName = "60" weight = "-0.29998900324824973" />
    <synapse sourceNeuronName = "21" targetNeuronName = "61" weight = "-0.09601818654170591" />
    <synapse sourceNeuronName = "21" targetNeuronName = "62" weight = "0.18158424696682018" />
    <synapse sourceNeuronName = "21" targetNeuronName = "63" weight = "0.17759765822669352" />
    <synapse sourceNeuronName = "22" targetNeuronName = "28" weight = "-0.26085853371802104" />
    <synapse sourceNeuronName = "22" targetNeuronName = "29" weight = "-0.6342983564182307" />
    <synapse sourceNeuronName = "22" targetNeuronName = "30" weight = "0.1540427775478826" />
    <synapse sourceNeuronName = "22" targetNeuronName = "31" weight = "0.21378642854219704" />
    <synapse sourceNeuronName = "22" targetNeuronName = "32" weight = "0.3312359508644581" />
    <synapse sourceNeuronName = "22" targetNeuronName = "33" weight = "-0.3712191428954249" />
    <synapse sourceNeuronName = "22" targetNeuronName = "34" weight = "-0.299194271425956" />
    <synapse sourceNeuronName = "22" targetNeuronName = "35" weight = "-0.2595055429528272" />
    <synapse sourceNeuronName = "22" targetNeuronName = "36" weight = "0.5181018449655739" />
    <synapse sourceNeuronName = "22" targetNeuronName = "37" weight = "0.3115462000130514" />
    <synapse sourceNeuronName = "22" targetNeuronName = "38" weight = "0.4206615790990773" />
    <synapse sourceNeuronName = "22" targetNeuronName = "39" weight = "0.7035133586761377" />
    <synapse sourceNeuronName = "22" targetNeuronName = "40" weight = "-0.539599029287908" />
    <synapse sourceNeuronName = "22" targetNeuronName = "41" weight = "-0.06698700413566158" />
    <synapse sourceNeuronName = "22" targetNeuronName = "42" weight = "-0.3416178786810489" />
    <synapse sourceNeuronName = "22" targetNeuronName = "43" weight = "-0.26122493645645006" />
    <synapse sourceNeuronName = "22" targetNeuronName = "44" weight = "-0.0886663451664843" />
    <synapse sourceNeuronName = "22" targetNeuronName = "45" weight = "-0.3945302956139095" />
    <synapse sourceNeuronName = "22" targetNeuronName = "46" weight = "-0.0030378693452840127" />
    <synapse sourceNeuronName = "22" targetNeuronName = "47" weight = "0.15815070785779378" />
    <synapse sourceNeuronName = "22" targetNeuronName = "48" weight = "-0.3121303101508952" />
    <synapse sourceNeuronName = "22" targetNeuronName = "49" weight = "0.15302789549569648" />
    <synapse sourceNeuronName = "22" targetNeuronName = "50" weight = "0.06546275557944391" />
    <synapse sourceNeuronName = "22" targetNeuronName = "51" weight = "-0.2202573530378784" />
    <synapse sourceNeuronName = "22" targetNeuronName = "52" weight = "0.9599820564064134" />
    <synapse sourceNeuronName = "22" targetNeuronName = "53" weight = "-0.1565836316196804" />
    <synapse sourceNeuronName = "22" targetNeuronName = "54" weight = "-0.6776669434740829" />
    <synapse sourceNeuronName = "22" targetNeuronName = "55" weight = "0.2291678405749179" />
    <synapse sourceNeuronName = "22" targetNeuronName = "56" weight = "-0.23224223535519462" />
    <synapse sourceNeuronName = "22" targetNeuronName = "57" weight = "0.4058224897836963" />
    <synapse sourceNeuronName = "22" targetNeuronName = "58" weight = "-0.2601149435037512" />
    <synapse sourceNeuronName = "22" targetNeuronName = "59" weight = "-0.09653837461446893" />
    <synapse sourceNeuronName = "22" targetNeuronName = "60" weight = "-0.4061917128825472" />
    <synapse sourceNeuronName = "22" targetNeuronName = "61" weight = "0.398298547428418" />
    <synapse sourceNeuronName = "22" targetNeuronName = "62" weight = "0.6713311373109481" />
    <synapse sourceNeuronName = "22" targetNeuronName = "63" weight = "-0.03212928122126653" />
    <synapse sourceNeuronName = "23" targetNeuronName = "28" weight = "-0.32522939354209357" />
    <synapse sourceNeuronName = "23" targetNeuronName = "29" weight = "-0.18988594665233405" />
    <synapse sourceNeuronName = "23" targetNeuronName = "30" weight = "-0.3976942623993541" />
    <synapse sourceNeuronName = "23" targetNeuronName = "31" weight = "0.3579817676664488" />
    <synapse sourceNeuronName = "23" targetNeuronName = "32" weight = "0.027367684464389405" />
    <synapse sourceNeuronName = "23" targetNeuronName = "33" weight = "-0.11964298593881673" />
    <synapse sourceNeuronName = "23" targetNeuronName = "34" weight = "-0.24794039359280046" />
    <synapse sourceNeuronName = "23" targetNeuronName = "35" weight = "-0.12725503347790973" />
    <synapse sourceNeuronName = "23" targetNeuronName = "36" weight = "0.2602055962574727" />
    <synapse sourceNeuronName = "23" targetNeuronName = "37" weight = "-0.2584833232954764" />
    <synapse sourceNeuronName = "23" targetNeuronName = "38" weight = "-0.0366837602195967" />
    <synapse sourceNeuronName = "23" targetNeuronName = "39" weight = "0.06410532414472471" />
    <synapse sourceNeuronName = "23" targetNeuronName = "40" weight = "-0.29016352294946496" />
    <synapse sourceNeuronName = "23" targetNeuronName = "41" weight = "-0.09671892448584604" />
    <synapse sourceNeuronName = "23" targetNeuronName = "42" weight = "-0.4031933433287779" />
    <synapse sourceNeuronName = "23" targetNeuronName = "43" weight = "-0.16168892625278725" />
    <synapse sourceNeuronName = "23" targetNeuronName = "44" weight = "0.05321705613303361" />
    <synapse sourceNeuronName = "23" targetNeuronName = "45" weight = "-0.19306545913238252" />
    <synapse sourceNeuronName = "23" targetNeuronName = "46" weight = "-0.031723645852024085" />
    <synapse sourceNeuronName = "23" targetNeuronName = "47" weight = "0.04831210312100269" />
    <synapse sourceNeuronName = "23" targetNeuronName = "48" weight = "0.009651176034962981" />
    <synapse sourceNeuronName = "23" targetNeuronName = "49" weight = "0.07443835194473712" />
    <synapse sourceNeuronName = "23" targetNeuronName = "50" weight = "0.1174414551989977" />
    <synapse sourceNeuronName = "23" targetNeuronName = "51" weight = "0.1963740593059607" />
    <synapse sourceNeuronName = "23" targetNeuronName = "52" weight = "-0.06574125346861322" />
    <synapse sourceNeuronName = "23" targetNeuronName = "53" weight = "0.25244483625319125" />
    <synapse sourceNeuronName = "23" targetNeuronName = "54" weight = "-0.21576326746805014" />
    <synapse sourceNeuronName = "23" targetNeuronName = "55" weight = "-0.5218267907048939" />
    <synapse sourceNeuronName = "23" targetNeuronName = "56" weight = "0.43038210837120294" />
    <synapse sourceNeuronName = "23" targetNeuronName = "57" weight = "-0.30304920028648125" />
    <synapse sourceNeuronName = "23" targetNeuronName = "58" weight = "0.1722286627882437" />
    <synapse sourceNeuronName = "23" targetNeuronName = "59" weight = "0.15750110490957722" />
    <synapse sourceNeuronName = "23" targetNeuronName = "60" weight = "-0.6207519516681809" />
    <synapse sourceNeuronName = "23" targetNeuronName = "61" weight = "0.032042642444794156" />
    <synapse sourceNeuronName = "23" targetNeuronName = "62" weight = "-0.2536769965394472" />
    <synapse sourceNeuronName = "23" targetNeuronName = "63" weight = "0.07800266762122272" />
    <synapse sourceNeuronName = "24" targetNeuronName = "28" weight = "-0.15011706715868744" />
    <synapse sourceNeuronName = "24" targetNeuronName = "29" weight = "0.23395641219080857" />
    <synapse sourceNeuronName = "24" targetNeuronName = "30" weight = "-0.10568685765321467" />
    <synapse sourceNeuronName = "24" targetNeuronName = "31" weight = "0.2782590213186422" />
    <synapse sourceNeuronName = "24" targetNeuronName = "32" weight = "0.05191081800539249" />
    <synapse sourceNeuronName = "24" targetNeuronName = "33" weight = "-0.31700510926389003" />
    <synapse sourceNeuronName = "24" targetNeuronName = "34" weight = "0.033930306273892" />
    <synapse sourceNeuronName = "24" targetNeuronName = "35" weight = "-0.18364394470754647" />
    <synapse sourceNeuronName = "24" targetNeuronName = "36" weight = "-0.08843860289613488" />
    <synapse sourceNeuronName = "24" targetNeuronName = "37" weight = "0.8363819484239299" />
    <synapse sourceNeuronName = "24" targetNeuronName = "38" weight = "0.14346136812667837" />
    <synapse sourceNeuronName = "24" targetNeuronName = "39" weight = "0.4461623179820947" />
    <synapse sourceNeuronName = "24" targetNeuronName = "40" weight = "-0.012015190591409272" />
    <synapse sourceNeuronName = "24" targetNeuronName = "41" weight = "0.0631792316567758" />
    <synapse sourceNeuronName = "24" targetNeuronName = "42" weight = "0.27047593406508197" />
    <synapse sourceNeuronName = "24" targetNeuronName = "43" weight = "0.07886888095111597" />
    <synapse sourceNeuronName = "24" targetNeuronName = "44" weight = "0.22872580909274498" />
    <synapse sourceNeuronName = "24" targetNeuronName = "45" weight = "0.3298824828703276" />
    <synapse sourceNeuronName = "24" targetNeuronName = "46" weight = "-0.31878351227974394" />
    <synapse sourceNeuronName = "24" targetNeuronName = "47" weight = "-0.11564485865398208" />
    <synapse sourceNeuronName = "24" targetNeuronName = "48" weight = "0.003014855585452744" />
    <synapse sourceNeuronName = "24" targetNeuronName = "49" weight = "0.479456348647811" />
    <synapse sourceNeuronName = "24" targetNeuronName = "50" weight = "-0.11949024701338093" />
    <synapse sourceNeuronName = "24" targetNeuronName = "51" weight = "0.15671855412659394" />
    <synapse sourceNeuronName = "24" targetNeuronName = "52" weight = "-0.23706480159232357" />
    <synapse sourceNeuronName = "24" targetNeuronName = "53" weight = "-0.502096180516744" />
    <synapse sourceNeuronName = "24" targetNeuronName = "54" weight = "-0.3400241976413104" />
    <synapse sourceNeuronName = "24" targetNeuronName = "55" weight = "0.18899765188752998" />
    <synapse sourceNeuronName = "24" targetNeuronName = "56" weight = "-0.41843900494844416" />
    <synapse sourceNeuronName = "24" targetNeuronName = "57" weight = "-0.5179137600163283" />
    <synapse sourceNeuronName = "24" targetNeuronName = "58" weight = "-0.09657575748339826" />
    <synapse sourceNeuronName = "24" targetNeuronName = "59" weight = "0.28965441504234835" />
    <synapse sourceNeuronName = "24" targetNeuronName = "60" weight = "0.08480664372990554" />
    <synapse sourceNeuronName = "24" targetNeuronName = "61" weight = "-0.11153619983393631" />
    <synapse sourceNeuronName = "24" targetNeuronName = "62" weight = "-0.09517567421356746" />
    <synapse sourceNeuronName = "24" targetNeuronName = "63" weight = "0.4645424322367848" />
    <synapse sourceNeuronName = "25" targetNeuronName = "28" weight = "-0.7409268646739282" />
    <synapse sourceNeuronName = "25" targetNeuronName = "29" weight = "0.060747784413538855" />
    <synapse sourceNeuronName = "25" targetNeuronName = "30" weight = "0.3175222885187524" />
    <synapse sourceNeuronName = "25" targetNeuronName = "31" weight = "0.20596583790947723" />
    <synapse sourceNeuronName = "25" targetNeuronName = "32" weight = "0.2165987208407493" />
    <synapse sourceNeuronName = "25" targetNeuronName = "33" weight = "-0.19066042348401613" />
    <synapse sourceNeuronName = "25" targetNeuronName = "34" weight = "-0.23970106508384392" />
    <synapse sourceNeuronName = "25" targetNeuronName = "35" weight = "0.04105873165351365" />
    <synapse sourceNeuronName = "25" targetNeuronName = "36" weight = "0.13253189823092487" />
    <synapse sourceNeuronName = "25" targetNeuronName = "37" weight = "0.11477707404757642" />
    <synapse sourceNeuronName = "25" targetNeuronName = "38" weight = "-0.5605818962649953" />
    <synapse sourceNeuronName = "25" targetNeuronName = "39" weight = "0.07790810692673472" />
    <synapse sourceNeuronName = "25" targetNeuronName = "40" weight = "0.0902606201188304" />
    <synapse sourceNeuronName = "25" targetNeuronName = "41" weight = "-0.44714477642071043" />
    <synapse sourceNeuronName = "25" targetNeuronName = "42" weight = "-0.4744486373728772" />
    <synapse sourceNeuronName = "25" targetNeuronName = "43" weight = "-0.024307597946608157" />
    <synapse sourceNeuronName = "25" targetNeuronName = "44" weight = "0.24149386923411514" />
    <synapse sourceNeuronName = "25" targetNeuronName = "45" weight = "0.4176840710802861" />
    <synapse sourceNeuronName = "25" targetNeuronName = "46" weight = "0.10781409541557604" />
    <synapse sourceNeuronName = "25" targetNeuronName = "47" weight = "-0.03321160989934674" />
    <synapse sourceNeuronName = "25" targetNeuronName = "48" weight = "-0.2857475307276298" />
    <synapse sourceNeuronName = "25" targetNeuronName = "49" weight = "-0.21086368402092592" />
    <synapse sourceNeuronName = "25" targetNeuronName = "50" weight = "-0.27595734095011115" />
    <synapse sourceNeuronName = "25" targetNeuronName = "51" weight = "-0.4182089212429544" />
    <synapse sourceNeuronName = "25" targetNeuronName = "52" weight = "-0.25849591385263554" />
    <synapse sourceNeuronName = "25" targetNeuronName = "53" weight = "-0.05569947403517937" />
    <synapse sourceNeuronName = "25" targetNeuronName = "54" weight = "0.23112224115730012" />
    <synapse sourceNeuronName = "25" targetNeuronName = "55" weight = "0.02685645480022108" />
    <synapse sourceNeuronName = "25" targetNeuronName = "56" weight = "-0.31987465053199343" />
    <synapse sourceNeuronName = "25" targetNeuronName = "57" weight = "0.5516700983732853" />
    <synapse sourceNeuronName = "25" targetNeuronName = "58" weight = "0.8831762529241659" />
    <synapse sourceNeuronName = "25" targetNeuronName = "59" weight = "0.11281606359902496" />
    <synapse sourceNeuronName = "25" targetNeuronName = "60" weight = "0.00253873841733215" />
    <synapse sourceNeuronName = "25" targetNeuronName = "61" weight = "-0.2764615061326236" />
    <synapse sourceNeuronName = "25" targetNeuronName = "62" weight = "-0.2178661983873933" />
    <synapse sourceNeuronName = "25" targetNeuronName = "63" weight = "-0.3288702377173681" />
    <synapse sourceNeuronName = "26" targetNeuronName = "28" weight = "-0.2368892482108728" />
    <synapse sourceNeuronName = "26" targetNeuronName = "29" weight = "0.6855281941443404" />
    <synapse sourceNeuronName = "26" targetNeuronName = "30" weight = "-0.3157330949727331" />
    <synapse sourceNeuronName = "26" targetNeuronName = "31" weight = "0.4160054641423514" />
    <synapse sourceNeuronName = "26" targetNeuronName = "32" weight = "0.25137311050991684" />
    <synapse sourceNeuronName = "26" targetNeuronName = "33" weight = "0.19541576089014367" />
    <synapse sourceNeuronName = "26" targetNeuronName = "34" weight = "-0.03294825217376824" />
    <synapse sourceNeuronName = "26" targetNeuronName = "35" weight = "0.3317351458937957" />
    <synapse sourceNeuronName = "26" targetNeuronName = "36" weight = "0.27248103681103036" />
    <synapse sourceNeuronName = "26" targetNeuronName = "37" weight = "-0.3056825531106765" />
    <synapse sourceNeuronName = "26" targetNeuronName = "38" weight = "0.3162987303756808" />
    <synapse sourceNeuronName = "26" targetNeuronName = "39" weight = "-0.07086184636802775" />
    <synapse sourceNeuronName = "26" targetNeuronName = "40" weight = "-0.2088726482893159" />
    <synapse sourceNeuronName = "26" targetNeuronName = "41" weight = "-0.23490013094617326" />
    <synapse sourceNeuronName = "26" targetNeuronName = "42" weight = "-0.02402172709629562" />
    <synapse sourceNeuronName = "26" targetNeuronName = "43" weight = "-0.4499671285098579" />
    <synapse sourceNeuronName = "26" targetNeuronName = "44" weight = "-0.1626775684491163" />
    <synapse sourceNeuronName = "26" targetNeuronName = "45" weight = "0.5574323063309722" />
    <synapse sourceNeuronName = "26" targetNeuronName = "46" weight = "0.552820491216528" />
    <synapse sourceNeuronName = "26" targetNeuronName = "47" weight = "0.28867950520342867" />
    <synapse sourceNeuronName = "26" targetNeuronName = "48" weight = "-0.16371774744784018" />
    <synapse sourceNeuronName = "26" targetNeuronName = "49" weight = "-0.04867284135544096" />
    <synapse sourceNeuronName = "26" targetNeuronName = "50" weight = "-0.45196751473428576" />
    <synapse sourceNeuronName = "26" targetNeuronName = "51" weight = "-0.0014206192103983306" />
    <synapse sourceNeuronName = "26" targetNeuronName = "52" weight = "-0.08701708551365722" />
    <synapse sourceNeuronName = "26" targetNeuronName = "53" weight = "0.20648378399643347" />
    <synapse sourceNeuronName = "26" targetNeuronName = "54" weight = "-0.16742831210944248" />
    <synapse sourceNeuronName = "26" targetNeuronName = "55" weight = "0.39084420548320736" />
    <synapse sourceNeuronName = "26" targetNeuronName = "56" weight = "-0.08980535024220418" />
    <synapse sourceNeuronName = "26" targetNeuronName = "57" weight = "-0.5595047581780352" />
    <synapse sourceNeuronName = "26" targetNeuronName = "58" weight = "-0.308334957779244" />
    <synapse sourceNeuronName = "26" targetNeuronName = "59" weight = "0.07189329778725087" />
    <synapse sourceNeuronName = "26" targetNeuronName = "60" weight = "0.2524009370245686" />
    <synapse sourceNeuronName = "26" targetNeuronName = "61" weight = "-0.21533990062209507" />
    <synapse sourceNeuronName = "26" targetNeuronName = "62" weight = "-0.06385139634084913" />
    <synapse sourceNeuronName = "26" targetNeuronName = "63" weight = "0.26461435327681926" />
    <synapse sourceNeuronName = "27" targetNeuronName = "28" weight = "0.16137463490404066" />
    <synapse sourceNeuronName = "27" targetNeuronName = "29" weight = "-0.5470281172560512" />
    <synapse sourceNeuronName = "27" targetNeuronName = "30" weight = "-0.02761426340969264" />
    <synapse sourceNeuronName = "27" targetNeuronName = "31" weight = "0.20370741940718812" />
    <synapse sourceNeuronName = "27" targetNeuronName = "32" weight = "0.11354074937617648" />
    <synapse sourceNeuronName = "27" targetNeuronName = "33" weight = "0.12256739321665258" />
    <synapse sourceNeuronName = "27" targetNeuronName = "34" weight = "-0.18117432595787689" />
    <synapse sourceNeuronName = "27" targetNeuronName = "35" weight = "-0.09691599469064073" />
    <synapse sourceNeuronName = "27" targetNeuronName = "36" weight = "-0.1347778050863132" />
    <synapse sourceNeuronName = "27" targetNeuronName = "37" weight = "0.06541955319045785" />
    <synapse sourceNeuronName = "27" targetNeuronName = "38" weight = "0.41091155308817673" />
    <synapse sourceNeuronName = "27" targetNeuronName = "39" weight = "0.3426382778267715" />
    <synapse sourceNeuronName = "27" targetNeuronName = "40" weight = "-0.24095681923720935" />
    <synapse sourceNeuronName = "27" targetNeuronName = "41" weight = "0.6360875754630823" />
    <synapse sourceNeuronName = "27" targetNeuronName = "42" weight = "0.2598944046770454" />
    <synapse sourceNeuronName = "27" targetNeuronName = "43" weight = "-0.06815784618410395" />
    <synapse sourceNeuronName = "27" targetNeuronName = "44" weight = "0.34167603308964584" />
    <synapse sourceNeuronName = "27" targetNeuronName = "45" weight = "0.37736219810686633" />
    <synapse sourceNeuronName = "27" targetNeuronName = "46" weight = "-0.21666118600248419" />
    <synapse sourceNeuronName = "27" targetNeuronName = "47" weight = "-0.224300037720028" />
    <synapse sourceNeuronName = "27" targetNeuronName = "48" weight = "0.2517074880085404" />
    <synapse sourceNeuronName = "27" targetNeuronName = "49" weight = "-0.10545032875304505" />
    <synapse sourceNeuronName = "27" targetNeuronName = "50" weight = "-0.3327293195788168" />
    <synapse sourceNeuronName = "27" targetNeuronName = "51" weight = "0.2973913350547429" />
    <synapse sourceNeuronName = "27" targetNeuronName = "52" weight = "0.356819226291042" />
    <synapse sourceNeuronName = "27" targetNeuronName = "53" weight = "0.6230650561726043" />
    <synapse sourceNeuronName = "27" targetNeuronName = "54" weight = "0.048149873787033705" />
    <synapse sourceNeuronName = "27" targetNeuronName = "55" weight = "0.2902824738335052" />
    <synapse sourceNeuronName = "27" targetNeuronName = "56" weight = "-0.3189286162199261" />
    <synapse sourceNeuronName = "27" targetNeuronName = "57" weight = "-0.0801201123042544" />
    <synapse sourceNeuronName = "27" targetNeuronName = "58" weight = "-0.25300971481227863" />
    <synapse sourceNeuronName = "27" targetNeuronName = "59" weight = "-0.14894063751644782" />
    <synapse sourceNeuronName = "27" targetNeuronName = "60" weight = "0.2763262002174208" />
    <synapse sourceNeuronName = "27" targetNeuronName = "61" weight = "0.07559708539825753" />
    <synapse sourceNeuronName = "27" targetNeuronName = "62" weight = "0.32150238371387274" />
    <synapse sourceNeuronName = "27" targetNeuronName = "63" weight = "0.6645654921139352" />
    <synapse sourceNeuronName = "18" targetNeuronName = "18" weight = "-0.008044209466801299" />
    <synapse sourceNeuronName = "19" targetNeuronName = "19" weight = "-0.40997738509897963" />
    <synapse sourceNeuronName = "20" targetNeuronName = "20" weight = "-0.08856886327851954" />
    <synapse sourceNeuronName = "21" targetNeuronName = "21" weight = "-0.8114709535793414" />
    <synapse sourceNeuronName = "22" targetNeuronName = "22" weight = "-0.42418887041887865" />
    <synapse sourceNeuronName = "23" targetNeuronName = "23" weight = "-0.21005790983155048" />
    <synapse sourceNeuronName = "24" targetNeuronName = "24" weight = "0.010757370853973764" />
    <synapse sourceNeuronName = "25" targetNeuronName = "25" weight = "0.40328736098973805" />
    <synapse sourceNeuronName = "26" targetNeuronName = "26" weight = "0.2555907687041922" />
    <synapse sourceNeuronName = "27" targetNeuronName = "27" weight = "0.2455601734063269" />
</neuralNetwork>