<neuralNetwork>
    <neuron name = "0" type = "sensor" linkName = "0TopSensor" />
    <neuron name = "1" type = "sensor" linkName = "0BottomSensor" />
    <neuron name = "2" type = "sensor" linkName = "0URBottomLeg" />
    <neuron name = "3" type = "sensor" linkName = "0ULBottomLeg" />
    <neuron name = "4" type = "sensor" linkName = "0BRBottomLeg" />
    <neuron name = "5" type = "sensor" linkName = "0BLBottomLeg" />
    <neuron name = "6" type = "hidden" />
    <neuron name = "7" type = "hidden" />
    <neuron name = "8" type = "hidden" />
    <neuron name = "9" type = "hidden" />
    <neuron name = "10" type = "hidden" />
    <neuron name = "11" type = "hidden" />
    <neuron name = "12" type = "hidden" />
    <neuron name = "13" type = "hidden" />
    <neuron name = "14" type = "hidden" />
    <neuron name = "15" type = "hidden" />
    <neuron name = "16" type = "motor"  jointName = "0Torso_0URRotate" />
    <neuron name = "17" type = "motor"  jointName = "0URRotate_0URTopLeg" />
    <neuron name = "18" type = "motor"  jointName = "0URTopLeg_0URBottomLeg" />
    <neuron name = "19" type = "motor"  jointName = "0Torso_0ULRotate" />
    <neuron name = "20" type = "motor"  jointName = "0ULRotate_0ULTopLeg" />
    <neuron name = "21" type = "motor"  jointName = "0ULTopLeg_0ULBottomLeg" />
    <neuron name = "22" type = "motor"  jointName = "0Torso_0BRRotate" />
    <neuron name = "23" type = "motor"  jointName = "0BRRotate_0BRTopLeg" />
    <neuron name = "24" type = "motor"  jointName = "0BRTopLeg_0BRBottomLeg" />
    <neuron name = "25" type = "motor"  jointName = "0Torso_0BLRotate" />
    <neuron name = "26" type = "motor"  jointName = "0BLRotate_0BLTopLeg" />
    <neuron name = "27" type = "motor"  jointName = "0BLTopLeg_0BLBottomLeg" />
    <synapse sourceNeuronName = "0" targetNeuronName = "6" weight = "0.13714042688374273" />
    <synapse sourceNeuronName = "0" targetNeuronName = "7" weight = "-0.411024345114966" />
    <synapse sourceNeuronName = "0" targetNeuronName = "8" weight = "-0.14795828145931875" />
    <synapse sourceNeuronName = "0" targetNeuronName = "9" weight = "-0.07842220567026796" />
    <synapse sourceNeuronName = "0" targetNeuronName = "10" weight = "0.375222922691008" />
    <synapse sourceNeuronName = "0" targetNeuronName = "11" weight = "0.6352882029703626" />
    <synapse sourceNeuronName = "0" targetNeuronName = "12" weight = "0.14009803551176883" />
    <synapse sourceNeuronName = "0" targetNeuronName = "13" weight = "0.5319573059439779" />
    <synapse sourceNeuronName = "0" targetNeuronName = "14" weight = "0.2254538763451468" />
    <synapse sourceNeuronName = "0" targetNeuronName = "15" weight = "-0.07277755267489398" />
    <synapse sourceNeuronName = "1" targetNeuronName = "6" weight = "-0.40528998477289885" />
    <synapse sourceNeuronName = "1" targetNeuronName = "7" weight = "0.6978817278267555" />
    <synapse sourceNeuronName = "1" targetNeuronName = "8" weight = "-0.5538711446525892" />
    <synapse sourceNeuronName = "1" targetNeuronName = "9" weight = "-0.21255910572251183" />
    <synapse sourceNeuronName = "1" targetNeuronName = "10" weight = "-0.0122487653907003" />
    <synapse sourceNeuronName = "1" targetNeuronName = "11" weight = "0.3060749555011445" />
    <synapse sourceNeuronName = "1" targetNeuronName = "12" weight = "0.3391042181877203" />
    <synapse sourceNeuronName = "1" targetNeuronName = "13" weight = "-0.5744326943504425" />
    <synapse sourceNeuronName = "1" targetNeuronName = "14" weight = "0.022322229915518035" />
    <synapse sourceNeuronName = "1" targetNeuronName = "15" weight = "0.3473232427697715" />
    <synapse sourceNeuronName = "2" targetNeuronName = "6" weight = "0.10193296262665637" />
    <synapse sourceNeuronName = "2" targetNeuronName = "7" weight = "0.02794491792354676" />
    <synapse sourceNeuronName = "2" targetNeuronName = "8" weight = "0.11592193779760221" />
    <synapse sourceNeuronName = "2" targetNeuronName = "9" weight = "-0.3540109470464146" />
    <synapse sourceNeuronName = "2" targetNeuronName = "10" weight = "0.3017656337936637" />
    <synapse sourceNeuronName = "2" targetNeuronName = "11" weight = "0.40930329470157667" />
    <synapse sourceNeuronName = "2" targetNeuronName = "12" weight = "-0.6169934897819063" />
    <synapse sourceNeuronName = "2" targetNeuronName = "13" weight = "0.3187382643973514" />
    <synapse sourceNeuronName = "2" targetNeuronName = "14" weight = "-0.03639981531961567" />
    <synapse sourceNeuronName = "2" targetNeuronName = "15" weight = "-0.20865953400544957" />
    <synapse sourceNeuronName = "3" targetNeuronName = "6" weight = "-0.4950233025839406" />
    <synapse sourceNeuronName = "3" targetNeuronName = "7" weight = "0.12366525983533229" />
    <synapse sourceNeuronName = "3" targetNeuronName = "8" weight = "-0.07721446171739216" />
    <synapse sourceNeuronName = "3" targetNeuronName = "9" weight = "0.29333131232607434" />
    <synapse sourceNeuronName = "3" targetNeuronName = "10" weight = "0.24139388525151978" />
    <synapse sourceNeuronName = "3" targetNeuronName = "11" weight = "0.17844760206604895" />
    <synapse sourceNeuronName = "3" targetNeuronName = "12" weight = "-0.3193527455657571" />
    <synapse sourceNeuronName = "3" targetNeuronName = "13" weight = "-0.7904752313506963" />
    <synapse sourceNeuronName = "3" targetNeuronName = "14" weight = "-0.5707316070730202" />
    <synapse sourceNeuronName = "3" targetNeuronName = "15" weight = "0.17530481843852896" />
    <synapse sourceNeuronName = "4" targetNeuronName = "6" weight = "-0.27161528334569013" />
    <synapse sourceNeuronName = "4" targetNeuronName = "7" weight = "-0.15091634790745745" />
    <synapse sourceNeuronName = "4" targetNeuronName = "8" weight = "-0.0347467288188361" />
    <synapse sourceNeuronName = "4" targetNeuronName = "9" weight = "-0.3077428863901508" />
    <synapse sourceNeuronName = "4" targetNeuronName = "10" weight = "0.022022355937923833" />
    <synapse sourceNeuronName = "4" targetNeuronName = "11" weight = "-0.498240951701908" />
    <synapse sourceNeuronName = "4" targetNeuronName = "12" weight = "0.4109229589221924" />
    <synapse sourceNeuronName = "4" targetNeuronName = "13" weight = "-0.1272179923717809" />
    <synapse sourceNeuronName = "4" targetNeuronName = "14" weight = "-0.31926019585984" />
    <synapse sourceNeuronName = "4" targetNeuronName = "15" weight = "-0.2385071071294742" />
    <synapse sourceNeuronName = "5" targetNeuronName = "6" weight = "0.027532168623668408" />
    <synapse sourceNeuronName = "5" targetNeuronName = "7" weight = "0.0065943791988937565" />
    <synapse sourceNeuronName = "5" targetNeuronName = "8" weight = "0.21931515802679527" />
    <synapse sourceNeuronName = "5" targetNeuronName = "9" weight = "0.23669035792166554" />
    <synapse sourceNeuronName = "5" targetNeuronName = "10" weight = "0.17497686091526243" />
    <synapse sourceNeuronName = "5" targetNeuronName = "11" weight = "0.3382030639931115" />
    <synapse sourceNeuronName = "5" targetNeuronName = "12" weight = "0.10846884617270336" />
    <synapse sourceNeuronName = "5" targetNeuronName = "13" weight = "-0.03129910709405115" />
    <synapse sourceNeuronName = "5" targetNeuronName = "14" weight = "-0.0010331751880667227" />
    <synapse sourceNeuronName = "5" targetNeuronName = "15" weight = "-0.36048327788743767" />
    <synapse sourceNeuronName = "6" targetNeuronName = "16" weight = "-0.22800727529960355" />
    <synapse sourceNeuronName = "6" targetNeuronName = "17" weight = "0.10829456637850493" />
    <synapse sourceNeuronName = "6" targetNeuronName = "18" weight = "-0.31054837417436737" />
    <synapse sourceNeuronName = "6" targetNeuronName = "19" weight = "-0.26714667320840524" />
    <synapse sourceNeuronName = "6" targetNeuronName = "20" weight = "-0.27224049597193223" />
    <synapse sourceNeuronName = "6" targetNeuronName = "21" weight = "0.2888522365228868" />
    <synapse sourceNeuronName = "6" targetNeuronName = "22" weight = "0.44349269645712963" />
    <synapse sourceNeuronName = "6" targetNeuronName = "23" weight = "0.06323233826495768" />
    <synapse sourceNeuronName = "6" targetNeuronName = "24" weight = "0.10341519321402444" />
    <synapse sourceNeuronName = "6" targetNeuronName = "25" weight = "-0.14017925015099691" />
    <synapse sourceNeuronName = "6" targetNeuronName = "26" weight = "0.3654159265866447" />
    <synapse sourceNeuronName = "6" targetNeuronName = "27" weight = "0.2667707860808448" />
    <synapse sourceNeuronName = "7" targetNeuronName = "16" weight = "0.013300041970927927" />
    <synapse sourceNeuronName = "7" targetNeuronName = "17" weight = "-0.5785678958052828" />
    <synapse sourceNeuronName = "7" targetNeuronName = "18" weight = "-0.19813664253386576" />
    <synapse sourceNeuronName = "7" targetNeuronName = "19" weight = "-0.1982252090696886" />
    <synapse sourceNeuronName = "7" targetNeuronName = "20" weight = "-0.6249655262390492" />
    <synapse sourceNeuronName = "7" targetNeuronName = "21" weight = "-0.31971329911848456" />
    <synapse sourceNeuronName = "7" targetNeuronName = "22" weight = "0.001457223109000292" />
    <synapse sourceNeuronName = "7" targetNeuronName = "23" weight = "0.06563540211371939" />
    <synapse sourceNeuronName = "7" targetNeuronName = "24" weight = "0.5972946564934649" />
    <synapse sourceNeuronName = "7" targetNeuronName = "25" weight = "-0.330692992929843" />
    <synapse sourceNeuronName = "7" targetNeuronName = "26" weight = "-0.7295284952109116" />
    <synapse sourceNeuronName = "7" targetNeuronName = "27" weight = "-0.17548879638445464" />
    <synapse sourceNeuronName = "8" targetNeuronName = "16" weight = "0.17551089911205925" />
    <synapse sourceNeuronName = "8" targetNeuronName = "17" weight = "0.33797302190520495" />
    <synapse sourceNeuronName = "8" targetNeuronName = "18" weight = "-0.5421834475465608" />
    <synapse sourceNeuronName = "8" targetNeuronName = "19" weight = "0.23008067783413547" />
    <synapse sourceNeuronName = "8" targetNeuronName = "20" weight = "0.8044871879639488" />
    <synapse sourceNeuronName = "8" targetNeuronName = "21" weight = "-0.7435236706691232" />
    <synapse sourceNeuronName = "8" targetNeuronName = "22" weight = "0.47393233113055133" />
    <synapse sourceNeuronName = "8" targetNeuronName = "23" weight = "0.00011759134028519787" />
    <synapse sourceNeuronName = "8" targetNeuronName = "24" weight = "-0.3447890600461679" />
    <synapse sourceNeuronName = "8" targetNeuronName = "25" weight = "-0.592683711807996" />
    <synapse sourceNeuronName = "8" targetNeuronName = "26" weight = "0.18501148281913038" />
    <synapse sourceNeuronName = "8" targetNeuronName = "27" weight = "0.219915889450848" />
    <synapse sourceNeuronName = "9" targetNeuronName = "16" weight = "0.3019695793063029" />
    <synapse sourceNeuronName = "9" targetNeuronName = "17" weight = "-0.11350262649649691" />
    <synapse sourceNeuronName = "9" targetNeuronName = "18" weight = "-0.10974173883146551" />
    <synapse sourceNeuronName = "9" targetNeuronName = "19" weight = "0.04926220381901825" />
    <synapse sourceNeuronName = "9" targetNeuronName = "20" weight = "0.5428451187182513" />
    <synapse sourceNeuronName = "9" targetNeuronName = "21" weight = "0.18893709233376121" />
    <synapse sourceNeuronName = "9" targetNeuronName = "22" weight = "-0.251795449849023" />
    <synapse sourceNeuronName = "9" targetNeuronName = "23" weight = "0.7733129212263737" />
    <synapse sourceNeuronName = "9" targetNeuronName = "24" weight = "-0.2846351759382959" />
    <synapse sourceNeuronName = "9" targetNeuronName = "25" weight = "-0.030308617982339154" />
    <synapse sourceNeuronName = "9" targetNeuronName = "26" weight = "0.20705039881985898" />
    <synapse sourceNeuronName = "9" targetNeuronName = "27" weight = "0.300370339357689" />
    <synapse sourceNeuronName = "10" targetNeuronName = "16" weight = "0.17360563006719282" />
    <synapse sourceNeuronName = "10" targetNeuronName = "17" weight = "0.5119906272200798" />
    <synapse sourceNeuronName = "10" targetNeuronName = "18" weight = "0.09481025670060259" />
    <synapse sourceNeuronName = "10" targetNeuronName = "19" weight = "0.6322521313213536" />
    <synapse sourceNeuronName = "10" targetNeuronName = "20" weight = "0.4972732922941302" />
    <synapse sourceNeuronName = "10" targetNeuronName = "21" weight = "-0.22373801090020057" />
    <synapse sourceNeuronName = "10" targetNeuronName = "22" weight = "-0.05759883753846482" />
    <synapse sourceNeuronName = "10" targetNeuronName = "23" weight = "-0.4974615336255265" />
    <synapse sourceNeuronName = "10" targetNeuronName = "24" weight = "-0.17725705607838307" />
    <synapse sourceNeuronName = "10" targetNeuronName = "25" weight = "-0.23711211992129616" />
    <synapse sourceNeuronName = "10" targetNeuronName = "26" weight = "-0.9185493849715098" />
    <synapse sourceNeuronName = "10" targetNeuronName = "27" weight = "-0.16012551756807708" />
    <synapse sourceNeuronName = "11" targetNeuronName = "16" weight = "0.2860377012751574" />
    <synapse sourceNeuronName = "11" targetNeuronName = "17" weight = "0.026643000216833093" />
    <synapse sourceNeuronName = "11" targetNeuronName = "18" weight = "-0.43582325773180175" />
    <synapse sourceNeuronName = "11" targetNeuronName = "19" weight = "-0.09438775230946368" />
    <synapse sourceNeuronName = "11" targetNeuronName = "20" weight = "-0.19090900741080707" />
    <synapse sourceNeuronName = "11" targetNeuronName = "21" weight = "0.01622055781093183" />
    <synapse sourceNeuronName = "11" targetNeuronName = "22" weight = "0.14715674145743862" />
    <synapse sourceNeuronName = "11" targetNeuronName = "23" weight = "0.18529026795938164" />
    <synapse sourceNeuronName = "11" targetNeuronName = "24" weight = "0.25090126079157254" />
    <synapse sourceNeuronName = "11" targetNeuronName = "25" weight = "-0.11262717368131522" />
    <synapse sourceNeuronName = "11" targetNeuronName = "26" weight = "0.1532365906068806" />
    <synapse sourceNeuronName = "11" targetNeuronName = "27" weight = "-0.3057429111231967" />
    <synapse sourceNeuronName = "12" targetNeuronName = "16" weight = "0.5506881787138418" />
    <synapse sourceNeuronName = "12" targetNeuronName = "17" weight = "0.20580236385430456" />
    <synapse sourceNeuronName = "12" targetNeuronName = "18" weight = "-0.6855651625687247" />
    <synapse sourceNeuronName = "12" targetNeuronName = "19" weight = "-0.31561266359726514" />
    <synapse sourceNeuronName = "12" targetNeuronName = "20" weight = "0.41085110608574793" />
    <synapse sourceNeuronName = "12" targetNeuronName = "21" weight = "-0.18379195781666974" />
    <synapse sourceNeuronName = "12" targetNeuronName = "22" weight = "0.3723637260515403" />
    <synapse sourceNeuronName = "12" targetNeuronName = "23" weight = "0.8493253890461673" />
    <synapse sourceNeuronName = "12" targetNeuronName = "24" weight = "-0.3919335856599922" />
    <synapse sourceNeuronName = "12" targetNeuronName = "25" weight = "0.0419696008136189" />
    <synapse sourceNeuronName = "12" targetNeuronName = "26" weight = "-0.5027091368785019" />
    <synapse sourceNeuronName = "12" targetNeuronName = "27" weight = "0.05827486931291023" />
    <synapse sourceNeuronName = "13" targetNeuronName = "16" weight = "-0.06701382248776758" />
    <synapse sourceNeuronName = "13" targetNeuronName = "17" weight = "-0.09468150259081876" />
    <synapse sourceNeuronName = "13" targetNeuronName = "18" weight = "0.2640279424061373" />
    <synapse sourceNeuronName = "13" targetNeuronName = "19" weight = "-0.4977025060744265" />
    <synapse sourceNeuronName = "13" targetNeuronName = "20" weight = "-0.34813162172401335" />
    <synapse sourceNeuronName = "13" targetNeuronName = "21" weight = "0.12083308884530328" />
    <synapse sourceNeuronName = "13" targetNeuronName = "22" weight = "-0.2721667494457093" />
    <synapse sourceNeuronName = "13" targetNeuronName = "23" weight = "-0.006976080408476208" />
    <synapse sourceNeuronName = "13" targetNeuronName = "24" weight = "-0.5018914502106006" />
    <synapse sourceNeuronName = "13" targetNeuronName = "25" weight = "0.12619027470449448" />
    <synapse sourceNeuronName = "13" targetNeuronName = "26" weight = "-0.023910067780236417" />
    <synapse sourceNeuronName = "13" targetNeuronName = "27" weight = "-0.21195824135310842" />
    <synapse sourceNeuronName = "14" targetNeuronName = "16" weight = "0.3528851419691772" />
    <synapse sourceNeuronName = "14" targetNeuronName = "17" weight = "-0.5820447334244391" />
    <synapse sourceNeuronName = "14" targetNeuronName = "18" weight = "-0.4591918378228031" />
    <synapse sourceNeuronName = "14" targetNeuronName = "19" weight = "-0.44731449799195033" />
    <synapse sourceNeuronName = "14" targetNeuronName = "20" weight = "-0.28284896547522337" />
    <synapse sourceNeuronName = "14" targetNeuronName = "21" weight = "-0.42490243098385483" />
    <synapse sourceNeuronName = "14" targetNeuronName = "22" weight = "0.5230498512257529" />
    <synapse sourceNeuronName = "14" targetNeuronName = "23" weight = "-0.03594685740037505" />
    <synapse sourceNeuronName = "14" targetNeuronName = "24" weight = "-0.3641125748806039" />
    <synapse sourceNeuronName = "14" targetNeuronName = "25" weight = "0.9080673671809749" />
    <synapse sourceNeuronName = "14" targetNeuronName = "26" weight = "-0.12271159700687406" />
    <synapse sourceNeuronName = "14" targetNeuronName = "27" weight = "-0.4889680299451034" />
    <synapse sourceNeuronName = "15" targetNeuronName = "16" weight = "0.08685608446003909" />
    <synapse sourceNeuronName = "15" targetNeuronName = "17" weight = "0.4052099486646291" />
    <synapse sourceNeuronName = "15" targetNeuronName = "18" weight = "-0.05485996361715115" />
    <synapse sourceNeuronName = "15" targetNeuronName = "19" weight = "-0.26297566513140047" />
    <synapse sourceNeuronName = "15" targetNeuronName = "20" weight = "0.5373448558931967" />
    <synapse sourceNeuronName = "15" targetNeuronName = "21" weight = "-0.12957064220958747" />
    <synapse sourceNeuronName = "15" targetNeuronName = "22" weight = "-0.33669306364512847" />
    <synapse sourceNeuronName = "15" targetNeuronName = "23" weight = "-0.001684557075131946" />
    <synapse sourceNeuronName = "15" targetNeuronName = "24" weight = "0.10290558507527603" />
    <synapse sourceNeuronName = "15" targetNeuronName = "25" weight = "0.5149543281868776" />
    <synapse sourceNeuronName = "15" targetNeuronName = "26" weight = "-0.17864848060734723" />
    <synapse sourceNeuronName = "15" targetNeuronName = "27" weight = "0.08396387473088579" />
    <synapse sourceNeuronName = "6" targetNeuronName = "6" weight = "-0.32846778172194213" />
    <synapse sourceNeuronName = "7" targetNeuronName = "7" weight = "0.43430685338432645" />
    <synapse sourceNeuronName = "8" targetNeuronName = "8" weight = "-0.24458558483190523" />
    <synapse sourceNeuronName = "9" targetNeuronName = "9" weight = "-0.5442214027523357" />
    <synapse sourceNeuronName = "10" targetNeuronName = "10" weight = "-0.2966296043790956" />
    <synapse sourceNeuronName = "11" targetNeuronName = "11" weight = "0.11245577884847399" />
    <synapse sourceNeuronName = "12" targetNeuronName = "12" weight = "-0.09803085771211259" />
    <synapse sourceNeuronName = "13" targetNeuronName = "13" weight = "-0.10306927537395495" />
    <synapse sourceNeuronName = "14" targetNeuronName = "14" weight = "0.4964822600826922" />
    <synapse sourceNeuronName = "15" targetNeuronName = "15" weight = "0.03676645413202847" />
</neuralNetwork>