<neuralNetwork>
    <neuron name = "56" type = "sensor" linkName = "2TopSensor" />
    <neuron name = "57" type = "sensor" linkName = "2BottomSensor" />
    <neuron name = "58" type = "sensor" linkName = "2URBottomLeg" />
    <neuron name = "59" type = "sensor" linkName = "2ULBottomLeg" />
    <neuron name = "60" type = "sensor" linkName = "2BRBottomLeg" />
    <neuron name = "61" type = "sensor" linkName = "2BLBottomLeg" />
    <neuron name = "62" type = "hidden" />
    <neuron name = "63" type = "hidden" />
    <neuron name = "64" type = "hidden" />
    <neuron name = "65" type = "hidden" />
    <neuron name = "66" type = "hidden" />
    <neuron name = "67" type = "hidden" />
    <neuron name = "68" type = "hidden" />
    <neuron name = "69" type = "hidden" />
    <neuron name = "70" type = "hidden" />
    <neuron name = "71" type = "hidden" />
    <neuron name = "72" type = "motor"  jointName = "2Torso_2URRotate" />
    <neuron name = "73" type = "motor"  jointName = "2URRotate_2URTopLeg" />
    <neuron name = "74" type = "motor"  jointName = "2URTopLeg_2URBottomLeg" />
    <neuron name = "75" type = "motor"  jointName = "2Torso_2ULRotate" />
    <neuron name = "76" type = "motor"  jointName = "2ULRotate_2ULTopLeg" />
    <neuron name = "77" type = "motor"  jointName = "2ULTopLeg_2ULBottomLeg" />
    <neuron name = "78" type = "motor"  jointName = "2Torso_2BRRotate" />
    <neuron name = "79" type = "motor"  jointName = "2BRRotate_2BRTopLeg" />
    <neuron name = "80" type = "motor"  jointName = "2BRTopLeg_2BRBottomLeg" />
    <neuron name = "81" type = "motor"  jointName = "2Torso_2BLRotate" />
    <neuron name = "82" type = "motor"  jointName = "2BLRotate_2BLTopLeg" />
    <neuron name = "83" type = "motor"  jointName = "2BLTopLeg_2BLBottomLeg" />
    <synapse sourceNeuronName = "56" targetNeuronName = "62" weight = "-0.04218071476448128" />
    <synapse sourceNeuronName = "56" targetNeuronName = "63" weight = "-0.03593704393591792" />
    <synapse sourceNeuronName = "56" targetNeuronName = "64" weight = "-0.057660866854124124" />
    <synapse sourceNeuronName = "56" targetNeuronName = "65" weight = "0.31199419623103825" />
    <synapse sourceNeuronName = "56" targetNeuronName = "66" weight = "0.14265055112835137" />
    <synapse sourceNeuronName = "56" targetNeuronName = "67" weight = "-0.30294016926303335" />
    <synapse sourceNeuronName = "56" targetNeuronName = "68" weight = "0.24885637346422776" />
    <synapse sourceNeuronName = "56" targetNeuronName = "69" weight = "0.13486672944410683" />
    <synapse sourceNeuronName = "56" targetNeuronName = "70" weight = "0.050445759782749997" />
    <synapse sourceNeuronName = "56" targetNeuronName = "71" weight = "0.2767765651817543" />
    <synapse sourceNeuronName = "57" targetNeuronName = "62" weight = "0.23507532863509142" />
    <synapse sourceNeuronName = "57" targetNeuronName = "63" weight = "-0.28487041902457283" />
    <synapse sourceNeuronName = "57" targetNeuronName = "64" weight = "0.26549801558013864" />
    <synapse sourceNeuronName = "57" targetNeuronName = "65" weight = "-0.3151760352610621" />
    <synapse sourceNeuronName = "57" targetNeuronName = "66" weight = "0.13135364828181104" />
    <synapse sourceNeuronName = "57" targetNeuronName = "67" weight = "0.3789100930905778" />
    <synapse sourceNeuronName = "57" targetNeuronName = "68" weight = "0.06468875429979956" />
    <synapse sourceNeuronName = "57" targetNeuronName = "69" weight = "0.358176946282036" />
    <synapse sourceNeuronName = "57" targetNeuronName = "70" weight = "0.17045770595997892" />
    <synapse sourceNeuronName = "57" targetNeuronName = "71" weight = "-0.16094688705155846" />
    <synapse sourceNeuronName = "58" targetNeuronName = "62" weight = "0.5556848796831981" />
    <synapse sourceNeuronName = "58" targetNeuronName = "63" weight = "0.13614951753251026" />
    <synapse sourceNeuronName = "58" targetNeuronName = "64" weight = "-1.0606523870362263" />
    <synapse sourceNeuronName = "58" targetNeuronName = "65" weight = "-0.01329150472352746" />
    <synapse sourceNeuronName = "58" targetNeuronName = "66" weight = "0.19475868402269514" />
    <synapse sourceNeuronName = "58" targetNeuronName = "67" weight = "-0.15152799813333206" />
    <synapse sourceNeuronName = "58" targetNeuronName = "68" weight = "0.35499608736018884" />
    <synapse sourceNeuronName = "58" targetNeuronName = "69" weight = "-0.3985808724117672" />
    <synapse sourceNeuronName = "58" targetNeuronName = "70" weight = "0.22187764520902523" />
    <synapse sourceNeuronName = "58" targetNeuronName = "71" weight = "0.26281087742791187" />
    <synapse sourceNeuronName = "59" targetNeuronName = "62" weight = "0.18307520527563698" />
    <synapse sourceNeuronName = "59" targetNeuronName = "63" weight = "0.0679951354561316" />
    <synapse sourceNeuronName = "59" targetNeuronName = "64" weight = "0.19707023944612415" />
    <synapse sourceNeuronName = "59" targetNeuronName = "65" weight = "-0.35449431745355203" />
    <synapse sourceNeuronName = "59" targetNeuronName = "66" weight = "0.10062633561137205" />
    <synapse sourceNeuronName = "59" targetNeuronName = "67" weight = "0.8998914461944258" />
    <synapse sourceNeuronName = "59" targetNeuronName = "68" weight = "0.1598716062173536" />
    <synapse sourceNeuronName = "59" targetNeuronName = "69" weight = "0.047237667180058375" />
    <synapse sourceNeuronName = "59" targetNeuronName = "70" weight = "-0.770275305827248" />
    <synapse sourceNeuronName = "59" targetNeuronName = "71" weight = "0.20576191084284268" />
    <synapse sourceNeuronName = "60" targetNeuronName = "62" weight = "0.5204257209349102" />
    <synapse sourceNeuronName = "60" targetNeuronName = "63" weight = "-0.6502263822233574" />
    <synapse sourceNeuronName = "60" targetNeuronName = "64" weight = "-0.3148872641283106" />
    <synapse sourceNeuronName = "60" targetNeuronName = "65" weight = "0.03442923641795008" />
    <synapse sourceNeuronName = "60" targetNeuronName = "66" weight = "0.02232179131308474" />
    <synapse sourceNeuronName = "60" targetNeuronName = "67" weight = "0.12423858031321962" />
    <synapse sourceNeuronName = "60" targetNeuronName = "68" weight = "-0.6205808938027313" />
    <synapse sourceNeuronName = "60" targetNeuronName = "69" weight = "-0.025523615201905346" />
    <synapse sourceNeuronName = "60" targetNeuronName = "70" weight = "-0.03568617621447791" />
    <synapse sourceNeuronName = "60" targetNeuronName = "71" weight = "0.5798816737773563" />
    <synapse sourceNeuronName = "61" targetNeuronName = "62" weight = "0.023045741101104557" />
    <synapse sourceNeuronName = "61" targetNeuronName = "63" weight = "0.36534010641960424" />
    <synapse sourceNeuronName = "61" targetNeuronName = "64" weight = "-0.16471723512832787" />
    <synapse sourceNeuronName = "61" targetNeuronName = "65" weight = "-0.026427445675357916" />
    <synapse sourceNeuronName = "61" targetNeuronName = "66" weight = "-0.3746074506362525" />
    <synapse sourceNeuronName = "61" targetNeuronName = "67" weight = "0.2297413643802471" />
    <synapse sourceNeuronName = "61" targetNeuronName = "68" weight = "0.2552558468300462" />
    <synapse sourceNeuronName = "61" targetNeuronName = "69" weight = "0.4474297979424427" />
    <synapse sourceNeuronName = "61" targetNeuronName = "70" weight = "0.49112725838472526" />
    <synapse sourceNeuronName = "61" targetNeuronName = "71" weight = "0.15988510787238797" />
    <synapse sourceNeuronName = "62" targetNeuronName = "72" weight = "-0.09477192745906116" />
    <synapse sourceNeuronName = "62" targetNeuronName = "73" weight = "-0.07063407156090097" />
    <synapse sourceNeuronName = "62" targetNeuronName = "74" weight = "0.10233314780308296" />
    <synapse sourceNeuronName = "62" targetNeuronName = "75" weight = "0.010295859615529266" />
    <synapse sourceNeuronName = "62" targetNeuronName = "76" weight = "-0.13307626387714203" />
    <synapse sourceNeuronName = "62" targetNeuronName = "77" weight = "-0.2043821415056775" />
    <synapse sourceNeuronName = "62" targetNeuronName = "78" weight = "-0.24484525134072938" />
    <synapse sourceNeuronName = "62" targetNeuronName = "79" weight = "0.14724552937161675" />
    <synapse sourceNeuronName = "62" targetNeuronName = "80" weight = "-0.1839935222173178" />
    <synapse sourceNeuronName = "62" targetNeuronName = "81" weight = "0.35590968898411623" />
    <synapse sourceNeuronName = "62" targetNeuronName = "82" weight = "0.034040136938270155" />
    <synapse sourceNeuronName = "62" targetNeuronName = "83" weight = "0.2772654614108378" />
    <synapse sourceNeuronName = "63" targetNeuronName = "72" weight = "-0.13383357209909313" />
    <synapse sourceNeuronName = "63" targetNeuronName = "73" weight = "0.2550172883142449" />
    <synapse sourceNeuronName = "63" targetNeuronName = "74" weight = "0.3860887897679529" />
    <synapse sourceNeuronName = "63" targetNeuronName = "75" weight = "-0.3132547418721372" />
    <synapse sourceNeuronName = "63" targetNeuronName = "76" weight = "0.47224855413497024" />
    <synapse sourceNeuronName = "63" targetNeuronName = "77" weight = "-0.0840167579997362" />
    <synapse sourceNeuronName = "63" targetNeuronName = "78" weight = "-0.14063935858914473" />
    <synapse sourceNeuronName = "63" targetNeuronName = "79" weight = "-0.723653289468198" />
    <synapse sourceNeuronName = "63" targetNeuronName = "80" weight = "-0.35325136835691606" />
    <synapse sourceNeuronName = "63" targetNeuronName = "81" weight = "0.15720568476591745" />
    <synapse sourceNeuronName = "63" targetNeuronName = "82" weight = "-0.3706515765512125" />
    <synapse sourceNeuronName = "63" targetNeuronName = "83" weight = "-0.2796361972532643" />
    <synapse sourceNeuronName = "64" targetNeuronName = "72" weight = "0.30925985334573114" />
    <synapse sourceNeuronName = "64" targetNeuronName = "73" weight = "0.35502326909460097" />
    <synapse sourceNeuronName = "64" targetNeuronName = "74" weight = "-0.22061139933861829" />
    <synapse sourceNeuronName = "64" targetNeuronName = "75" weight = "0.23147205076623822" />
    <synapse sourceNeuronName = "64" targetNeuronName = "76" weight = "0.39066585912291985" />
    <synapse sourceNeuronName = "64" targetNeuronName = "77" weight = "-0.24647743425228485" />
    <synapse sourceNeuronName = "64" targetNeuronName = "78" weight = "-0.04146058769739039" />
    <synapse sourceNeuronName = "64" targetNeuronName = "79" weight = "0.25280716736741354" />
    <synapse sourceNeuronName = "64" targetNeuronName = "80" weight = "0.13763854372585835" />
    <synapse sourceNeuronName = "64" targetNeuronName = "81" weight = "0.09899424969893668" />
    <synapse sourceNeuronName = "64" targetNeuronName = "82" weight = "0.18104182811633543" />
    <synapse sourceNeuronName = "64" targetNeuronName = "83" weight = "-0.447502182198248" />
    <synapse sourceNeuronName = "65" targetNeuronName = "72" weight = "0.09664913806448594" />
    <synapse sourceNeuronName = "65" targetNeuronName = "73" weight = "-0.27910778849524925" />
    <synapse sourceNeuronName = "65" targetNeuronName = "74" weight = "0.4348982397019472" />
    <synapse sourceNeuronName = "65" targetNeuronName = "75" weight = "0.13284413815480267" />
    <synapse sourceNeuronName = "65" targetNeuronName = "76" weight = "-0.5185761081946987" />
    <synapse sourceNeuronName = "65" targetNeuronName = "77" weight = "-0.5273998016855339" />
    <synapse sourceNeuronName = "65" targetNeuronName = "78" weight = "0.16270259253154318" />
    <synapse sourceNeuronName = "65" targetNeuronName = "79" weight = "-0.6658431565857439" />
    <synapse sourceNeuronName = "65" targetNeuronName = "80" weight = "0.062387732215351904" />
    <synapse sourceNeuronName = "65" targetNeuronName = "81" weight = "-0.21119147343479744" />
    <synapse sourceNeuronName = "65" targetNeuronName = "82" weight = "-0.29221546907053386" />
    <synapse sourceNeuronName = "65" targetNeuronName = "83" weight = "0.14955413309532256" />
    <synapse sourceNeuronName = "66" targetNeuronName = "72" weight = "-0.09937508866424355" />
    <synapse sourceNeuronName = "66" targetNeuronName = "73" weight = "0.2778653555587303" />
    <synapse sourceNeuronName = "66" targetNeuronName = "74" weight = "-0.23459486492377501" />
    <synapse sourceNeuronName = "66" targetNeuronName = "75" weight = "-0.44975789881946515" />
    <synapse sourceNeuronName = "66" targetNeuronName = "76" weight = "-0.31044651972233317" />
    <synapse sourceNeuronName = "66" targetNeuronName = "77" weight = "-0.24011102026500958" />
    <synapse sourceNeuronName = "66" targetNeuronName = "78" weight = "-0.3054080724654618" />
    <synapse sourceNeuronName = "66" targetNeuronName = "79" weight = "0.023607124318696097" />
    <synapse sourceNeuronName = "66" targetNeuronName = "80" weight = "0.07213027146578938" />
    <synapse sourceNeuronName = "66" targetNeuronName = "81" weight = "-0.04904314691182042" />
    <synapse sourceNeuronName = "66" targetNeuronName = "82" weight = "0.15978120166375526" />
    <synapse sourceNeuronName = "66" targetNeuronName = "83" weight = "0.18058763134309644" />
    <synapse sourceNeuronName = "67" targetNeuronName = "72" weight = "-0.3402948741158678" />
    <synapse sourceNeuronName = "67" targetNeuronName = "73" weight = "-0.2393868434097496" />
    <synapse sourceNeuronName = "67" targetNeuronName = "74" weight = "0.39201203674012686" />
    <synapse sourceNeuronName = "67" targetNeuronName = "75" weight = "-0.005495344074385168" />
    <synapse sourceNeuronName = "67" targetNeuronName = "76" weight = "-0.03537907217100477" />
    <synapse sourceNeuronName = "67" targetNeuronName = "77" weight = "0.7563997995291618" />
    <synapse sourceNeuronName = "67" targetNeuronName = "78" weight = "0.06030622472798398" />
    <synapse sourceNeuronName = "67" targetNeuronName = "79" weight = "0.03385356006970941" />
    <synapse sourceNeuronName = "67" targetNeuronName = "80" weight = "-0.47773456038783185" />
    <synapse sourceNeuronName = "67" targetNeuronName = "81" weight = "-0.617551816065024" />
    <synapse sourceNeuronName = "67" targetNeuronName = "82" weight = "-0.035240912198381616" />
    <synapse sourceNeuronName = "67" targetNeuronName = "83" weight = "0.29464913196402026" />
    <synapse sourceNeuronName = "68" targetNeuronName = "72" weight = "-0.5222809445650907" />
    <synapse sourceNeuronName = "68" targetNeuronName = "73" weight = "0.2259081280844655" />
    <synapse sourceNeuronName = "68" targetNeuronName = "74" weight = "-0.17510902706241285" />
    <synapse sourceNeuronName = "68" targetNeuronName = "75" weight = "-0.8299437809429062" />
    <synapse sourceNeuronName = "68" targetNeuronName = "76" weight = "0.1474045110241176" />
    <synapse sourceNeuronName = "68" targetNeuronName = "77" weight = "0.3767073678808608" />
    <synapse sourceNeuronName = "68" targetNeuronName = "78" weight = "-0.044364155181453264" />
    <synapse sourceNeuronName = "68" targetNeuronName = "79" weight = "0.18046039239863776" />
    <synapse sourceNeuronName = "68" targetNeuronName = "80" weight = "-0.27994144598530957" />
    <synapse sourceNeuronName = "68" targetNeuronName = "81" weight = "0.17261105438465754" />
    <synapse sourceNeuronName = "68" targetNeuronName = "82" weight = "-0.013065587764415418" />
    <synapse sourceNeuronName = "68" targetNeuronName = "83" weight = "-0.04628212640698249" />
    <synapse sourceNeuronName = "69" targetNeuronName = "72" weight = "-0.19951935277844862" />
    <synapse sourceNeuronName = "69" targetNeuronName = "73" weight = "-0.46874490214819464" />
    <synapse sourceNeuronName = "69" targetNeuronName = "74" weight = "0.21316976450276998" />
    <synapse sourceNeuronName = "69" targetNeuronName = "75" weight = "-0.6396431865770906" />
    <synapse sourceNeuronName = "69" targetNeuronName = "76" weight = "-0.06455393643490481" />
    <synapse sourceNeuronName = "69" targetNeuronName = "77" weight = "0.15536091851558967" />
    <synapse sourceNeuronName = "69" targetNeuronName = "78" weight = "-0.5612313695745283" />
    <synapse sourceNeuronName = "69" targetNeuronName = "79" weight = "0.4568750062924858" />
    <synapse sourceNeuronName = "69" targetNeuronName = "80" weight = "0.38896689811716045" />
    <synapse sourceNeuronName = "69" targetNeuronName = "81" weight = "-0.01242984792589908" />
    <synapse sourceNeuronName = "69" targetNeuronName = "82" weight = "-0.36106969178885684" />
    <synapse sourceNeuronName = "69" targetNeuronName = "83" weight = "0.3314244243286756" />
    <synapse sourceNeuronName = "70" targetNeuronName = "72" weight = "-0.0409899556450799" />
    <synapse sourceNeuronName = "70" targetNeuronName = "73" weight = "-0.4051742503981208" />
    <synapse sourceNeuronName = "70" targetNeuronName = "74" weight = "0.3996410972405444" />
    <synapse sourceNeuronName = "70" targetNeuronName = "75" weight = "0.12244112767737075" />
    <synapse sourceNeuronName = "70" targetNeuronName = "76" weight = "0.37319002464127493" />
    <synapse sourceNeuronName = "70" targetNeuronName = "77" weight = "0.48497871827774464" />
    <synapse sourceNeuronName = "70" targetNeuronName = "78" weight = "0.343042087615034" />
    <synapse sourceNeuronName = "70" targetNeuronName = "79" weight = "-0.1450309181555241" />
    <synapse sourceNeuronName = "70" targetNeuronName = "80" weight = "0.6864182915544785" />
    <synapse sourceNeuronName = "70" targetNeuronName = "81" weight = "0.1251966262194319" />
    <synapse sourceNeuronName = "70" targetNeuronName = "82" weight = "-0.7362586765180676" />
    <synapse sourceNeuronName = "70" targetNeuronName = "83" weight = "0.11680309976710414" />
    <synapse sourceNeuronName = "71" targetNeuronName = "72" weight = "0.13276965891785458" />
    <synapse sourceNeuronName = "71" targetNeuronName = "73" weight = "0.23612728570567112" />
    <synapse sourceNeuronName = "71" targetNeuronName = "74" weight = "-0.14518490115006766" />
    <synapse sourceNeuronName = "71" targetNeuronName = "75" weight = "0.24235475850839672" />
    <synapse sourceNeuronName = "71" targetNeuronName = "76" weight = "0.2941484749691553" />
    <synapse sourceNeuronName = "71" targetNeuronName = "77" weight = "-0.5944099885533014" />
    <synapse sourceNeuronName = "71" targetNeuronName = "78" weight = "-0.3519302262227293" />
    <synapse sourceNeuronName = "71" targetNeuronName = "79" weight = "-0.3530392226136261" />
    <synapse sourceNeuronName = "71" targetNeuronName = "80" weight = "-0.31551421227552723" />
    <synapse sourceNeuronName = "71" targetNeuronName = "81" weight = "-0.5113777388940363" />
    <synapse sourceNeuronName = "71" targetNeuronName = "82" weight = "-0.21829018987956433" />
    <synapse sourceNeuronName = "71" targetNeuronName = "83" weight = "-0.018465836949777478" />
    <synapse sourceNeuronName = "62" targetNeuronName = "62" weight = "-0.012971047755426159" />
    <synapse sourceNeuronName = "63" targetNeuronName = "63" weight = "-0.2436408282440754" />
    <synapse sourceNeuronName = "64" targetNeuronName = "64" weight = "-0.5329546150638806" />
    <synapse sourceNeuronName = "65" targetNeuronName = "65" weight = "0.21021690134464158" />
    <synapse sourceNeuronName = "66" targetNeuronName = "66" weight = "-0.12299341631075497" />
    <synapse sourceNeuronName = "67" targetNeuronName = "67" weight = "0.37704033418627003" />
    <synapse sourceNeuronName = "68" targetNeuronName = "68" weight = "0.6539295592554311" />
    <synapse sourceNeuronName = "69" targetNeuronName = "69" weight = "-0.2594723119786717" />
    <synapse sourceNeuronName = "70" targetNeuronName = "70" weight = "0.22711063055335812" />
    <synapse sourceNeuronName = "71" targetNeuronName = "71" weight = "-0.6231636810396234" />
</neuralNetwork>