<neuralNetwork>
    <neuron name = "28" type = "sensor" linkName = "1TopSensor" />
    <neuron name = "29" type = "sensor" linkName = "1BottomSensor" />
    <neuron name = "30" type = "sensor" linkName = "1URBottomLeg" />
    <neuron name = "31" type = "sensor" linkName = "1ULBottomLeg" />
    <neuron name = "32" type = "sensor" linkName = "1BRBottomLeg" />
    <neuron name = "33" type = "sensor" linkName = "1BLBottomLeg" />
    <neuron name = "34" type = "hidden" />
    <neuron name = "35" type = "hidden" />
    <neuron name = "36" type = "hidden" />
    <neuron name = "37" type = "hidden" />
    <neuron name = "38" type = "hidden" />
    <neuron name = "39" type = "hidden" />
    <neuron name = "40" type = "hidden" />
    <neuron name = "41" type = "hidden" />
    <neuron name = "42" type = "hidden" />
    <neuron name = "43" type = "hidden" />
    <neuron name = "44" type = "motor"  jointName = "1Torso_1URRotate" />
    <neuron name = "45" type = "motor"  jointName = "1URRotate_1URTopLeg" />
    <neuron name = "46" type = "motor"  jointName = "1URTopLeg_1URBottomLeg" />
    <neuron name = "47" type = "motor"  jointName = "1Torso_1ULRotate" />
    <neuron name = "48" type = "motor"  jointName = "1ULRotate_1ULTopLeg" />
    <neuron name = "49" type = "motor"  jointName = "1ULTopLeg_1ULBottomLeg" />
    <neuron name = "50" type = "motor"  jointName = "1Torso_1BRRotate" />
    <neuron name = "51" type = "motor"  jointName = "1BRRotate_1BRTopLeg" />
    <neuron name = "52" type = "motor"  jointName = "1BRTopLeg_1BRBottomLeg" />
    <neuron name = "53" type = "motor"  jointName = "1Torso_1BLRotate" />
    <neuron name = "54" type = "motor"  jointName = "1BLRotate_1BLTopLeg" />
    <neuron name = "55" type = "motor"  jointName = "1BLTopLeg_1BLBottomLeg" />
    <synapse sourceNeuronName = "28" targetNeuronName = "34" weight = "0.25504877733973286" />
    <synapse sourceNeuronName = "28" targetNeuronName = "35" weight = "0.4540371432850252" />
    <synapse sourceNeuronName = "28" targetNeuronName = "36" weight = "0.08966678645436618" />
    <synapse sourceNeuronName = "28" targetNeuronName = "37" weight = "0.2235430695765927" />
    <synapse sourceNeuronName = "28" targetNeuronName = "38" weight = "0.5312401094701713" />
    <synapse sourceNeuronName = "28" targetNeuronName = "39" weight = "0.21723711293119125" />
    <synapse sourceNeuronName = "28" targetNeuronName = "40" weight = "0.24363752509136893" />
    <synapse sourceNeuronName = "28" targetNeuronName = "41" weight = "0.4668609442267081" />
    <synapse sourceNeuronName = "28" targetNeuronName = "42" weight = "-0.13681252217558448" />
    <synapse sourceNeuronName = "28" targetNeuronName = "43" weight = "0.2247314898214964" />
    <synapse sourceNeuronName = "29" targetNeuronName = "34" weight = "0.23704215862499528" />
    <synapse sourceNeuronName = "29" targetNeuronName = "35" weight = "-0.1554360045068596" />
    <synapse sourceNeuronName = "29" targetNeuronName = "36" weight = "-0.4525430033715493" />
    <synapse sourceNeuronName = "29" targetNeuronName = "37" weight = "-0.7987741474126537" />
    <synapse sourceNeuronName = "29" targetNeuronName = "38" weight = "-0.12473035214121084" />
    <synapse sourceNeuronName = "29" targetNeuronName = "39" weight = "-0.1938933793709242" />
    <synapse sourceNeuronName = "29" targetNeuronName = "40" weight = "0.35434503518807664" />
    <synapse sourceNeuronName = "29" targetNeuronName = "41" weight = "-0.12801545950934992" />
    <synapse sourceNeuronName = "29" targetNeuronName = "42" weight = "-0.21873318184830787" />
    <synapse sourceNeuronName = "29" targetNeuronName = "43" weight = "-0.4111901264688472" />
    <synapse sourceNeuronName = "30" targetNeuronName = "34" weight = "0.2030135101013767" />
    <synapse sourceNeuronName = "30" targetNeuronName = "35" weight = "0.1231828536887713" />
    <synapse sourceNeuronName = "30" targetNeuronName = "36" weight = "-0.44940144967689777" />
    <synapse sourceNeuronName = "30" targetNeuronName = "37" weight = "0.15503676920717413" />
    <synapse sourceNeuronName = "30" targetNeuronName = "38" weight = "0.03274811919146969" />
    <synapse sourceNeuronName = "30" targetNeuronName = "39" weight = "-0.14389424902104883" />
    <synapse sourceNeuronName = "30" targetNeuronName = "40" weight = "-0.5044910933635116" />
    <synapse sourceNeuronName = "30" targetNeuronName = "41" weight = "0.024635687183407577" />
    <synapse sourceNeuronName = "30" targetNeuronName = "42" weight = "0.09672041411084897" />
    <synapse sourceNeuronName = "30" targetNeuronName = "43" weight = "0.05554328674963713" />
    <synapse sourceNeuronName = "31" targetNeuronName = "34" weight = "-0.2214943064627011" />
    <synapse sourceNeuronName = "31" targetNeuronName = "35" weight = "0.07808022595770664" />
    <synapse sourceNeuronName = "31" targetNeuronName = "36" weight = "-0.11834484491940153" />
    <synapse sourceNeuronName = "31" targetNeuronName = "37" weight = "0.6496241959829174" />
    <synapse sourceNeuronName = "31" targetNeuronName = "38" weight = "0.20446875318831387" />
    <synapse sourceNeuronName = "31" targetNeuronName = "39" weight = "0.019196992601240942" />
    <synapse sourceNeuronName = "31" targetNeuronName = "40" weight = "0.6419007898045654" />
    <synapse sourceNeuronName = "31" targetNeuronName = "41" weight = "-0.29004389156011334" />
    <synapse sourceNeuronName = "31" targetNeuronName = "42" weight = "0.11262997117042346" />
    <synapse sourceNeuronName = "31" targetNeuronName = "43" weight = "-0.17365273865343048" />
    <synapse sourceNeuronName = "32" targetNeuronName = "34" weight = "0.2850202565448573" />
    <synapse sourceNeuronName = "32" targetNeuronName = "35" weight = "0.12453623796155268" />
    <synapse sourceNeuronName = "32" targetNeuronName = "36" weight = "-0.4053313095113063" />
    <synapse sourceNeuronName = "32" targetNeuronName = "37" weight = "0.05403640842785055" />
    <synapse sourceNeuronName = "32" targetNeuronName = "38" weight = "0.28015992344423124" />
    <synapse sourceNeuronName = "32" targetNeuronName = "39" weight = "-0.6359136364383886" />
    <synapse sourceNeuronName = "32" targetNeuronName = "40" weight = "-0.05172856183626412" />
    <synapse sourceNeuronName = "32" targetNeuronName = "41" weight = "-0.6183210277214792" />
    <synapse sourceNeuronName = "32" targetNeuronName = "42" weight = "0.2967377721021746" />
    <synapse sourceNeuronName = "32" targetNeuronName = "43" weight = "0.2971017136154434" />
    <synapse sourceNeuronName = "33" targetNeuronName = "34" weight = "0.02175516832718862" />
    <synapse sourceNeuronName = "33" targetNeuronName = "35" weight = "0.1920618675736654" />
    <synapse sourceNeuronName = "33" targetNeuronName = "36" weight = "-0.37443768711856157" />
    <synapse sourceNeuronName = "33" targetNeuronName = "37" weight = "0.03765835374023839" />
    <synapse sourceNeuronName = "33" targetNeuronName = "38" weight = "-0.10097459059593811" />
    <synapse sourceNeuronName = "33" targetNeuronName = "39" weight = "-0.0966017472706835" />
    <synapse sourceNeuronName = "33" targetNeuronName = "40" weight = "-0.06249487649101965" />
    <synapse sourceNeuronName = "33" targetNeuronName = "41" weight = "0.11459360415706343" />
    <synapse sourceNeuronName = "33" targetNeuronName = "42" weight = "-0.4539183410046388" />
    <synapse sourceNeuronName = "33" targetNeuronName = "43" weight = "-0.0004281468624897753" />
    <synapse sourceNeuronName = "34" targetNeuronName = "44" weight = "0.28418960430500106" />
    <synapse sourceNeuronName = "34" targetNeuronName = "45" weight = "0.2589915737417351" />
    <synapse sourceNeuronName = "34" targetNeuronName = "46" weight = "0.2787775100328819" />
    <synapse sourceNeuronName = "34" targetNeuronName = "47" weight = "-0.197969607615467" />
    <synapse sourceNeuronName = "34" targetNeuronName = "48" weight = "0.5540513406476298" />
    <synapse sourceNeuronName = "34" targetNeuronName = "49" weight = "0.003464254481386304" />
    <synapse sourceNeuronName = "34" targetNeuronName = "50" weight = "0.1305217362132418" />
    <synapse sourceNeuronName = "34" targetNeuronName = "51" weight = "-0.04324347168937272" />
    <synapse sourceNeuronName = "34" targetNeuronName = "52" weight = "-0.46260269448099695" />
    <synapse sourceNeuronName = "34" targetNeuronName = "53" weight = "-0.06049983236189625" />
    <synapse sourceNeuronName = "34" targetNeuronName = "54" weight = "0.22795196807311807" />
    <synapse sourceNeuronName = "34" targetNeuronName = "55" weight = "-0.7703048238109278" />
    <synapse sourceNeuronName = "35" targetNeuronName = "44" weight = "-0.13805631746325714" />
    <synapse sourceNeuronName = "35" targetNeuronName = "45" weight = "0.3455801116902038" />
    <synapse sourceNeuronName = "35" targetNeuronName = "46" weight = "0.2530153892564725" />
    <synapse sourceNeuronName = "35" targetNeuronName = "47" weight = "-0.21259947588389405" />
    <synapse sourceNeuronName = "35" targetNeuronName = "48" weight = "0.5473807464399213" />
    <synapse sourceNeuronName = "35" targetNeuronName = "49" weight = "-0.20188507969830982" />
    <synapse sourceNeuronName = "35" targetNeuronName = "50" weight = "-0.11332194337536163" />
    <synapse sourceNeuronName = "35" targetNeuronName = "51" weight = "-0.051468065978044" />
    <synapse sourceNeuronName = "35" targetNeuronName = "52" weight = "0.6242892706857157" />
    <synapse sourceNeuronName = "35" targetNeuronName = "53" weight = "0.14013138848596157" />
    <synapse sourceNeuronName = "35" targetNeuronName = "54" weight = "0.12223822951966129" />
    <synapse sourceNeuronName = "35" targetNeuronName = "55" weight = "0.9377027422314407" />
    <synapse sourceNeuronName = "36" targetNeuronName = "44" weight = "-0.06132950393188261" />
    <synapse sourceNeuronName = "36" targetNeuronName = "45" weight = "0.11385732195152433" />
    <synapse sourceNeuronName = "36" targetNeuronName = "46" weight = "-0.14472999634877065" />
    <synapse sourceNeuronName = "36" targetNeuronName = "47" weight = "0.17183396298194925" />
    <synapse sourceNeuronName = "36" targetNeuronName = "48" weight = "0.3305658820720928" />
    <synapse sourceNeuronName = "36" targetNeuronName = "49" weight = "0.612636724761195" />
    <synapse sourceNeuronName = "36" targetNeuronName = "50" weight = "0.3705487958626779" />
    <synapse sourceNeuronName = "36" targetNeuronName = "51" weight = "-0.10540602168370358" />
    <synapse sourceNeuronName = "36" targetNeuronName = "52" weight = "0.6361788590090908" />
    <synapse sourceNeuronName = "36" targetNeuronName = "53" weight = "-0.28061164634077695" />
    <synapse sourceNeuronName = "36" targetNeuronName = "54" weight = "0.22853641035258476" />
    <synapse sourceNeuronName = "36" targetNeuronName = "55" weight = "-0.2718355139895409" />
    <synapse sourceNeuronName = "37" targetNeuronName = "44" weight = "-0.2911337552665256" />
    <synapse sourceNeuronName = "37" targetNeuronName = "45" weight = "0.03365601813387686" />
    <synapse sourceNeuronName = "37" targetNeuronName = "46" weight = "-0.6767540086532071" />
    <synapse sourceNeuronName = "37" targetNeuronName = "47" weight = "0.36147549830542897" />
    <synapse sourceNeuronName = "37" targetNeuronName = "48" weight = "0.2786464196258326" />
    <synapse sourceNeuronName = "37" targetNeuronName = "49" weight = "0.018263804316354416" />
    <synapse sourceNeuronName = "37" targetNeuronName = "50" weight = "0.2563392747255373" />
    <synapse sourceNeuronName = "37" targetNeuronName = "51" weight = "-0.1746380307989684" />
    <synapse sourceNeuronName = "37" targetNeuronName = "52" weight = "-0.3667998788458926" />
    <synapse sourceNeuronName = "37" targetNeuronName = "53" weight = "-0.11623822837385475" />
    <synapse sourceNeuronName = "37" targetNeuronName = "54" weight = "0.38600668126289883" />
    <synapse sourceNeuronName = "37" targetNeuronName = "55" weight = "0.35453112522985464" />
    <synapse sourceNeuronName = "38" targetNeuronName = "44" weight = "-0.5023101737671578" />
    <synapse sourceNeuronName = "38" targetNeuronName = "45" weight = "0.14122640651387497" />
    <synapse sourceNeuronName = "38" targetNeuronName = "46" weight = "0.16125390098098033" />
    <synapse sourceNeuronName = "38" targetNeuronName = "47" weight = "0.03665406590516897" />
    <synapse sourceNeuronName = "38" targetNeuronName = "48" weight = "0.02801859367187726" />
    <synapse sourceNeuronName = "38" targetNeuronName = "49" weight = "-0.16341728277506035" />
    <synapse sourceNeuronName = "38" targetNeuronName = "50" weight = "0.20235347212745164" />
    <synapse sourceNeuronName = "38" targetNeuronName = "51" weight = "-0.2246011403593741" />
    <synapse sourceNeuronName = "38" targetNeuronName = "52" weight = "0.4447266295410368" />
    <synapse sourceNeuronName = "38" targetNeuronName = "53" weight = "-0.18074530618367526" />
    <synapse sourceNeuronName = "38" targetNeuronName = "54" weight = "0.31358432313112466" />
    <synapse sourceNeuronName = "38" targetNeuronName = "55" weight = "-0.3595178438141736" />
    <synapse sourceNeuronName = "39" targetNeuronName = "44" weight = "0.08279931772342425" />
    <synapse sourceNeuronName = "39" targetNeuronName = "45" weight = "-0.4715569100405095" />
    <synapse sourceNeuronName = "39" targetNeuronName = "46" weight = "-0.012936068781328053" />
    <synapse sourceNeuronName = "39" targetNeuronName = "47" weight = "0.22182959228390267" />
    <synapse sourceNeuronName = "39" targetNeuronName = "48" weight = "-0.48218659067563296" />
    <synapse sourceNeuronName = "39" targetNeuronName = "49" weight = "0.43629934196442965" />
    <synapse sourceNeuronName = "39" targetNeuronName = "50" weight = "0.3338486850927229" />
    <synapse sourceNeuronName = "39" targetNeuronName = "51" weight = "-0.14901281916868261" />
    <synapse sourceNeuronName = "39" targetNeuronName = "52" weight = "0.5373912783730157" />
    <synapse sourceNeuronName = "39" targetNeuronName = "53" weight = "0.3329321280594163" />
    <synapse sourceNeuronName = "39" targetNeuronName = "54" weight = "-0.1762339999574626" />
    <synapse sourceNeuronName = "39" targetNeuronName = "55" weight = "0.432152132157218" />
    <synapse sourceNeuronName = "40" targetNeuronName = "44" weight = "0.37661732587231894" />
    <synapse sourceNeuronName = "40" targetNeuronName = "45" weight = "-0.02934778249200553" />
    <synapse sourceNeuronName = "40" targetNeuronName = "46" weight = "0.3610704942053935" />
    <synapse sourceNeuronName = "40" targetNeuronName = "47" weight = "0.27613098320557" />
    <synapse sourceNeuronName = "40" targetNeuronName = "48" weight = "-0.30632516826119827" />
    <synapse sourceNeuronName = "40" targetNeuronName = "49" weight = "-0.1229773523579948" />
    <synapse sourceNeuronName = "40" targetNeuronName = "50" weight = "0.226404455334031" />
    <synapse sourceNeuronName = "40" targetNeuronName = "51" weight = "-0.046619241527064856" />
    <synapse sourceNeuronName = "40" targetNeuronName = "52" weight = "0.5775044276047729" />
    <synapse sourceNeuronName = "40" targetNeuronName = "53" weight = "0.21313460181587976" />
    <synapse sourceNeuronName = "40" targetNeuronName = "54" weight = "-0.2311873441031882" />
    <synapse sourceNeuronName = "40" targetNeuronName = "55" weight = "-0.018839564725590403" />
    <synapse sourceNeuronName = "41" targetNeuronName = "44" weight = "0.07684359992791455" />
    <synapse sourceNeuronName = "41" targetNeuronName = "45" weight = "0.4358133159244174" />
    <synapse sourceNeuronName = "41" targetNeuronName = "46" weight = "-0.018777579407952466" />
    <synapse sourceNeuronName = "41" targetNeuronName = "47" weight = "0.41136429508260774" />
    <synapse sourceNeuronName = "41" targetNeuronName = "48" weight = "0.18949194992352109" />
    <synapse sourceNeuronName = "41" targetNeuronName = "49" weight = "-0.490145028977813" />
    <synapse sourceNeuronName = "41" targetNeuronName = "50" weight = "-0.5139643030207941" />
    <synapse sourceNeuronName = "41" targetNeuronName = "51" weight = "0.4360822939227369" />
    <synapse sourceNeuronName = "41" targetNeuronName = "52" weight = "-0.005670803503711638" />
    <synapse sourceNeuronName = "41" targetNeuronName = "53" weight = "0.11306678307146667" />
    <synapse sourceNeuronName = "41" targetNeuronName = "54" weight = "0.3459404996522731" />
    <synapse sourceNeuronName = "41" targetNeuronName = "55" weight = "-0.17035957649367675" />
    <synapse sourceNeuronName = "42" targetNeuronName = "44" weight = "0.09934287075926926" />
    <synapse sourceNeuronName = "42" targetNeuronName = "45" weight = "0.5139615412008471" />
    <synapse sourceNeuronName = "42" targetNeuronName = "46" weight = "-0.07978666044390526" />
    <synapse sourceNeuronName = "42" targetNeuronName = "47" weight = "0.25608459578163384" />
    <synapse sourceNeuronName = "42" targetNeuronName = "48" weight = "0.26407954596036187" />
    <synapse sourceNeuronName = "42" targetNeuronName = "49" weight = "0.25651035731626604" />
    <synapse sourceNeuronName = "42" targetNeuronName = "50" weight = "0.09590544752113336" />
    <synapse sourceNeuronName = "42" targetNeuronName = "51" weight = "-0.20801828272189873" />
    <synapse sourceNeuronName = "42" targetNeuronName = "52" weight = "-0.44207065233581955" />
    <synapse sourceNeuronName = "42" targetNeuronName = "53" weight = "0.0747689683360665" />
    <synapse sourceNeuronName = "42" targetNeuronName = "54" weight = "-0.42599997310749904" />
    <synapse sourceNeuronName = "42" targetNeuronName = "55" weight = "0.06279477016435439" />
    <synapse sourceNeuronName = "43" targetNeuronName = "44" weight = "-0.24345303684032385" />
    <synapse sourceNeuronName = "43" targetNeuronName = "45" weight = "-0.2455036369449526" />
    <synapse sourceNeuronName = "43" targetNeuronName = "46" weight = "-0.05895653268541024" />
    <synapse sourceNeuronName = "43" targetNeuronName = "47" weight = "-0.1354820023460959" />
    <synapse sourceNeuronName = "43" targetNeuronName = "48" weight = "0.6672724471347176" />
    <synapse sourceNeuronName = "43" targetNeuronName = "49" weight = "0.048188749800830655" />
    <synapse sourceNeuronName = "43" targetNeuronName = "50" weight = "0.21564366198264623" />
    <synapse sourceNeuronName = "43" targetNeuronName = "51" weight = "-0.12401541058872698" />
    <synapse sourceNeuronName = "43" targetNeuronName = "52" weight = "0.6871600599496674" />
    <synapse sourceNeuronName = "43" targetNeuronName = "53" weight = "0.6378037195189665" />
    <synapse sourceNeuronName = "43" targetNeuronName = "54" weight = "-0.4079197716439421" />
    <synapse sourceNeuronName = "43" targetNeuronName = "55" weight = "-0.3456903987413732" />
    <synapse sourceNeuronName = "34" targetNeuronName = "34" weight = "-0.29526397715578" />
    <synapse sourceNeuronName = "35" targetNeuronName = "35" weight = "-0.6414414660981389" />
    <synapse sourceNeuronName = "36" targetNeuronName = "36" weight = "-0.13450054337536688" />
    <synapse sourceNeuronName = "37" targetNeuronName = "37" weight = "0.3121863614360418" />
    <synapse sourceNeuronName = "38" targetNeuronName = "38" weight = "0.3315941921394323" />
    <synapse sourceNeuronName = "39" targetNeuronName = "39" weight = "-0.13564334140086381" />
    <synapse sourceNeuronName = "40" targetNeuronName = "40" weight = "0.6362529523899401" />
    <synapse sourceNeuronName = "41" targetNeuronName = "41" weight = "0.0266563896507767" />
    <synapse sourceNeuronName = "42" targetNeuronName = "42" weight = "-0.23336309239935532" />
    <synapse sourceNeuronName = "43" targetNeuronName = "43" weight = "-0.24011779941949687" />
</neuralNetwork>