<neuralNetwork>
    <neuron name = "0" type = "sensor" linkName = "0TopSensor" />
    <neuron name = "1" type = "sensor" linkName = "0BottomSensor" />
    <neuron name = "2" type = "sensor" linkName = "0URBottomLeg" />
    <neuron name = "3" type = "sensor" linkName = "0ULBottomLeg" />
    <neuron name = "4" type = "sensor" linkName = "0BRBottomLeg" />
    <neuron name = "5" type = "sensor" linkName = "0BLBottomLeg" />
    <neuron name = "6" type = "hidden" />
    <neuron name = "7" type = "hidden" />
    <neuron name = "8" type = "hidden" />
    <neuron name = "9" type = "hidden" />
    <neuron name = "10" type = "hidden" />
    <neuron name = "11" type = "hidden" />
    <neuron name = "12" type = "hidden" />
    <neuron name = "13" type = "hidden" />
    <neuron name = "14" type = "hidden" />
    <neuron name = "15" type = "hidden" />
    <neuron name = "16" type = "motor"  jointName = "0Torso_0URRotate" />
    <neuron name = "17" type = "motor"  jointName = "0URRotate_0URTopLeg" />
    <neuron name = "18" type = "motor"  jointName = "0URTopLeg_0URBottomLeg" />
    <neuron name = "19" type = "motor"  jointName = "0Torso_0ULRotate" />
    <neuron name = "20" type = "motor"  jointName = "0ULRotate_0ULTopLeg" />
    <neuron name = "21" type = "motor"  jointName = "0ULTopLeg_0ULBottomLeg" />
    <neuron name = "22" type = "motor"  jointName = "0Torso_0BRRotate" />
    <neuron name = "23" type = "motor"  jointName = "0BRRotate_0BRTopLeg" />
    <neuron name = "24" type = "motor"  jointName = "0BRTopLeg_0BRBottomLeg" />
    <neuron name = "25" type = "motor"  jointName = "0Torso_0BLRotate" />
    <neuron name = "26" type = "motor"  jointName = "0BLRotate_0BLTopLeg" />
    <neuron name = "27" type = "motor"  jointName = "0BLTopLeg_0BLBottomLeg" />
    <synapse sourceNeuronName = "0" targetNeuronName = "6" weight = "0.05753044806137113" />
    <synapse sourceNeuronName = "0" targetNeuronName = "7" weight = "-0.7591843298070513" />
    <synapse sourceNeuronName = "0" targetNeuronName = "8" weight = "0.37348119075558756" />
    <synapse sourceNeuronName = "0" targetNeuronName = "9" weight = "0.15699726509850398" />
    <synapse sourceNeuronName = "0" targetNeuronName = "10" weight = "-0.369642778566207" />
    <synapse sourceNeuronName = "0" targetNeuronName = "11" weight = "-0.20681285442432532" />
    <synapse sourceNeuronName = "0" targetNeuronName = "12" weight = "0.20557478668261137" />
    <synapse sourceNeuronName = "0" targetNeuronName = "13" weight = "0.6307723968244" />
    <synapse sourceNeuronName = "0" targetNeuronName = "14" weight = "-0.318512031917638" />
    <synapse sourceNeuronName = "0" targetNeuronName = "15" weight = "-0.14348354411879558" />
    <synapse sourceNeuronName = "1" targetNeuronName = "6" weight = "0.46223335844419855" />
    <synapse sourceNeuronName = "1" targetNeuronName = "7" weight = "0.20204673147765773" />
    <synapse sourceNeuronName = "1" targetNeuronName = "8" weight = "-0.006777163131546193" />
    <synapse sourceNeuronName = "1" targetNeuronName = "9" weight = "-0.6744704269350206" />
    <synapse sourceNeuronName = "1" targetNeuronName = "10" weight = "0.11333548893143808" />
    <synapse sourceNeuronName = "1" targetNeuronName = "11" weight = "0.6304608352065031" />
    <synapse sourceNeuronName = "1" targetNeuronName = "12" weight = "0.3623115353239911" />
    <synapse sourceNeuronName = "1" targetNeuronName = "13" weight = "0.32157296089691767" />
    <synapse sourceNeuronName = "1" targetNeuronName = "14" weight = "0.5609243298296471" />
    <synapse sourceNeuronName = "1" targetNeuronName = "15" weight = "-0.29581981097263665" />
    <synapse sourceNeuronName = "2" targetNeuronName = "6" weight = "-0.22594087480206596" />
    <synapse sourceNeuronName = "2" targetNeuronName = "7" weight = "-0.2231998581122178" />
    <synapse sourceNeuronName = "2" targetNeuronName = "8" weight = "-0.009778085041356362" />
    <synapse sourceNeuronName = "2" targetNeuronName = "9" weight = "0.0810943616957181" />
    <synapse sourceNeuronName = "2" targetNeuronName = "10" weight = "0.46312466152710474" />
    <synapse sourceNeuronName = "2" targetNeuronName = "11" weight = "0.12174222526970202" />
    <synapse sourceNeuronName = "2" targetNeuronName = "12" weight = "-0.1552776856438849" />
    <synapse sourceNeuronName = "2" targetNeuronName = "13" weight = "-0.01071769085387213" />
    <synapse sourceNeuronName = "2" targetNeuronName = "14" weight = "0.010676747169027126" />
    <synapse sourceNeuronName = "2" targetNeuronName = "15" weight = "-0.03159183397846149" />
    <synapse sourceNeuronName = "3" targetNeuronName = "6" weight = "-0.2816098164721663" />
    <synapse sourceNeuronName = "3" targetNeuronName = "7" weight = "-0.5115807796618227" />
    <synapse sourceNeuronName = "3" targetNeuronName = "8" weight = "-0.0061507607858071" />
    <synapse sourceNeuronName = "3" targetNeuronName = "9" weight = "-0.3073162692639281" />
    <synapse sourceNeuronName = "3" targetNeuronName = "10" weight = "-0.1557386629869245" />
    <synapse sourceNeuronName = "3" targetNeuronName = "11" weight = "-0.22444928285034071" />
    <synapse sourceNeuronName = "3" targetNeuronName = "12" weight = "0.02234446753691892" />
    <synapse sourceNeuronName = "3" targetNeuronName = "13" weight = "-0.5633190452616863" />
    <synapse sourceNeuronName = "3" targetNeuronName = "14" weight = "0.08872110167271502" />
    <synapse sourceNeuronName = "3" targetNeuronName = "15" weight = "0.23554343477960762" />
    <synapse sourceNeuronName = "4" targetNeuronName = "6" weight = "0.12836331530568787" />
    <synapse sourceNeuronName = "4" targetNeuronName = "7" weight = "0.07658274262624394" />
    <synapse sourceNeuronName = "4" targetNeuronName = "8" weight = "-0.2367701392835535" />
    <synapse sourceNeuronName = "4" targetNeuronName = "9" weight = "0.12838440199754603" />
    <synapse sourceNeuronName = "4" targetNeuronName = "10" weight = "-0.1195422253437265" />
    <synapse sourceNeuronName = "4" targetNeuronName = "11" weight = "-0.54936359372786" />
    <synapse sourceNeuronName = "4" targetNeuronName = "12" weight = "-0.860611254647597" />
    <synapse sourceNeuronName = "4" targetNeuronName = "13" weight = "0.6223967932436136" />
    <synapse sourceNeuronName = "4" targetNeuronName = "14" weight = "0.3765426847513995" />
    <synapse sourceNeuronName = "4" targetNeuronName = "15" weight = "0.09258358653369" />
    <synapse sourceNeuronName = "5" targetNeuronName = "6" weight = "0.46163209903731645" />
    <synapse sourceNeuronName = "5" targetNeuronName = "7" weight = "0.7825980906171639" />
    <synapse sourceNeuronName = "5" targetNeuronName = "8" weight = "-0.035005747743527195" />
    <synapse sourceNeuronName = "5" targetNeuronName = "9" weight = "0.2188308693938253" />
    <synapse sourceNeuronName = "5" targetNeuronName = "10" weight = "-0.22351601460309356" />
    <synapse sourceNeuronName = "5" targetNeuronName = "11" weight = "0.18113027229499057" />
    <synapse sourceNeuronName = "5" targetNeuronName = "12" weight = "-0.649347392937061" />
    <synapse sourceNeuronName = "5" targetNeuronName = "13" weight = "0.04087874913377676" />
    <synapse sourceNeuronName = "5" targetNeuronName = "14" weight = "0.15408216665379892" />
    <synapse sourceNeuronName = "5" targetNeuronName = "15" weight = "-0.027163958817969097" />
    <synapse sourceNeuronName = "6" targetNeuronName = "16" weight = "-0.10459985554515952" />
    <synapse sourceNeuronName = "6" targetNeuronName = "17" weight = "0.21520894772429036" />
    <synapse sourceNeuronName = "6" targetNeuronName = "18" weight = "-0.10792543979006892" />
    <synapse sourceNeuronName = "6" targetNeuronName = "19" weight = "-0.13632743354610072" />
    <synapse sourceNeuronName = "6" targetNeuronName = "20" weight = "-0.19560463507239245" />
    <synapse sourceNeuronName = "6" targetNeuronName = "21" weight = "0.199136033825161" />
    <synapse sourceNeuronName = "6" targetNeuronName = "22" weight = "-0.15684163088390432" />
    <synapse sourceNeuronName = "6" targetNeuronName = "23" weight = "0.12494493736316617" />
    <synapse sourceNeuronName = "6" targetNeuronName = "24" weight = "-0.281674279201736" />
    <synapse sourceNeuronName = "6" targetNeuronName = "25" weight = "-0.004813280068580958" />
    <synapse sourceNeuronName = "6" targetNeuronName = "26" weight = "-0.5219230625786255" />
    <synapse sourceNeuronName = "6" targetNeuronName = "27" weight = "-0.18893256476277215" />
    <synapse sourceNeuronName = "7" targetNeuronName = "16" weight = "0.186910496642336" />
    <synapse sourceNeuronName = "7" targetNeuronName = "17" weight = "0.1472958860020631" />
    <synapse sourceNeuronName = "7" targetNeuronName = "18" weight = "0.6456385063371894" />
    <synapse sourceNeuronName = "7" targetNeuronName = "19" weight = "-0.12575495014921068" />
    <synapse sourceNeuronName = "7" targetNeuronName = "20" weight = "-0.17687922601376843" />
    <synapse sourceNeuronName = "7" targetNeuronName = "21" weight = "-0.39667551108603927" />
    <synapse sourceNeuronName = "7" targetNeuronName = "22" weight = "-0.6623335452793488" />
    <synapse sourceNeuronName = "7" targetNeuronName = "23" weight = "0.7333719765832951" />
    <synapse sourceNeuronName = "7" targetNeuronName = "24" weight = "-0.19911490771458953" />
    <synapse sourceNeuronName = "7" targetNeuronName = "25" weight = "0.21119487737446657" />
    <synapse sourceNeuronName = "7" targetNeuronName = "26" weight = "0.293751281616508" />
    <synapse sourceNeuronName = "7" targetNeuronName = "27" weight = "0.39263958190336395" />
    <synapse sourceNeuronName = "8" targetNeuronName = "16" weight = "-0.48442374107051966" />
    <synapse sourceNeuronName = "8" targetNeuronName = "17" weight = "-0.2496980170770914" />
    <synapse sourceNeuronName = "8" targetNeuronName = "18" weight = "0.04095502970315819" />
    <synapse sourceNeuronName = "8" targetNeuronName = "19" weight = "0.07722612103237597" />
    <synapse sourceNeuronName = "8" targetNeuronName = "20" weight = "0.05077432757538073" />
    <synapse sourceNeuronName = "8" targetNeuronName = "21" weight = "0.006069749371027765" />
    <synapse sourceNeuronName = "8" targetNeuronName = "22" weight = "0.0697071217044305" />
    <synapse sourceNeuronName = "8" targetNeuronName = "23" weight = "-0.25555435845594043" />
    <synapse sourceNeuronName = "8" targetNeuronName = "24" weight = "0.03364345958493533" />
    <synapse sourceNeuronName = "8" targetNeuronName = "25" weight = "-0.11210254828713048" />
    <synapse sourceNeuronName = "8" targetNeuronName = "26" weight = "0.19149719229445308" />
    <synapse sourceNeuronName = "8" targetNeuronName = "27" weight = "-0.062068011741665624" />
    <synapse sourceNeuronName = "9" targetNeuronName = "16" weight = "0.14860432747078278" />
    <synapse sourceNeuronName = "9" targetNeuronName = "17" weight = "-0.1484587063110779" />
    <synapse sourceNeuronName = "9" targetNeuronName = "18" weight = "-0.07160866954980535" />
    <synapse sourceNeuronName = "9" targetNeuronName = "19" weight = "-0.3674358086237992" />
    <synapse sourceNeuronName = "9" targetNeuronName = "20" weight = "0.6616594163226215" />
    <synapse sourceNeuronName = "9" targetNeuronName = "21" weight = "-0.0909738012400529" />
    <synapse sourceNeuronName = "9" targetNeuronName = "22" weight = "-0.2825121684196021" />
    <synapse sourceNeuronName = "9" targetNeuronName = "23" weight = "0.0026767661765990424" />
    <synapse sourceNeuronName = "9" targetNeuronName = "24" weight = "-0.28695204536454155" />
    <synapse sourceNeuronName = "9" targetNeuronName = "25" weight = "0.11070589020412205" />
    <synapse sourceNeuronName = "9" targetNeuronName = "26" weight = "-0.7449881203765845" />
    <synapse sourceNeuronName = "9" targetNeuronName = "27" weight = "0.5102900231604561" />
    <synapse sourceNeuronName = "10" targetNeuronName = "16" weight = "0.20299362169662705" />
    <synapse sourceNeuronName = "10" targetNeuronName = "17" weight = "-0.8461068738120346" />
    <synapse sourceNeuronName = "10" targetNeuronName = "18" weight = "0.3462157025729199" />
    <synapse sourceNeuronName = "10" targetNeuronName = "19" weight = "0.3772902264691061" />
    <synapse sourceNeuronName = "10" targetNeuronName = "20" weight = "0.2143389533586803" />
    <synapse sourceNeuronName = "10" targetNeuronName = "21" weight = "0.40395359734460623" />
    <synapse sourceNeuronName = "10" targetNeuronName = "22" weight = "0.48917527246251297" />
    <synapse sourceNeuronName = "10" targetNeuronName = "23" weight = "-0.2367933748050355" />
    <synapse sourceNeuronName = "10" targetNeuronName = "24" weight = "-0.13977340563536153" />
    <synapse sourceNeuronName = "10" targetNeuronName = "25" weight = "-0.058347598243714896" />
    <synapse sourceNeuronName = "10" targetNeuronName = "26" weight = "-0.16449419359656614" />
    <synapse sourceNeuronName = "10" targetNeuronName = "27" weight = "0.3105146663199032" />
    <synapse sourceNeuronName = "11" targetNeuronName = "16" weight = "-0.16982687414926848" />
    <synapse sourceNeuronName = "11" targetNeuronName = "17" weight = "-0.15879099497581456" />
    <synapse sourceNeuronName = "11" targetNeuronName = "18" weight = "0.2555194715689765" />
    <synapse sourceNeuronName = "11" targetNeuronName = "19" weight = "-0.43158782017299824" />
    <synapse sourceNeuronName = "11" targetNeuronName = "20" weight = "0.5371993609467833" />
    <synapse sourceNeuronName = "11" targetNeuronName = "21" weight = "0.5552248324107996" />
    <synapse sourceNeuronName = "11" targetNeuronName = "22" weight = "-0.05128191566259644" />
    <synapse sourceNeuronName = "11" targetNeuronName = "23" weight = "-0.42882741331592045" />
    <synapse sourceNeuronName = "11" targetNeuronName = "24" weight = "-0.37737016800537365" />
    <synapse sourceNeuronName = "11" targetNeuronName = "25" weight = "0.06126189624069784" />
    <synapse sourceNeuronName = "11" targetNeuronName = "26" weight = "0.15049652086081178" />
    <synapse sourceNeuronName = "11" targetNeuronName = "27" weight = "-0.3605143088648195" />
    <synapse sourceNeuronName = "12" targetNeuronName = "16" weight = "-0.22118997149899577" />
    <synapse sourceNeuronName = "12" targetNeuronName = "17" weight = "-0.11829632035099166" />
    <synapse sourceNeuronName = "12" targetNeuronName = "18" weight = "0.018603068795416743" />
    <synapse sourceNeuronName = "12" targetNeuronName = "19" weight = "0.2494841470800092" />
    <synapse sourceNeuronName = "12" targetNeuronName = "20" weight = "-0.4379746118882991" />
    <synapse sourceNeuronName = "12" targetNeuronName = "21" weight = "0.38223043745841134" />
    <synapse sourceNeuronName = "12" targetNeuronName = "22" weight = "-0.10365479819162474" />
    <synapse sourceNeuronName = "12" targetNeuronName = "23" weight = "-0.00030070999096760867" />
    <synapse sourceNeuronName = "12" targetNeuronName = "24" weight = "0.04963414997045863" />
    <synapse sourceNeuronName = "12" targetNeuronName = "25" weight = "0.08056963718488369" />
    <synapse sourceNeuronName = "12" targetNeuronName = "26" weight = "-0.18158539381739686" />
    <synapse sourceNeuronName = "12" targetNeuronName = "27" weight = "-0.19690551230755332" />
    <synapse sourceNeuronName = "13" targetNeuronName = "16" weight = "-0.07795982316373334" />
    <synapse sourceNeuronName = "13" targetNeuronName = "17" weight = "0.14443624357383436" />
    <synapse sourceNeuronName = "13" targetNeuronName = "18" weight = "0.14411798964111194" />
    <synapse sourceNeuronName = "13" targetNeuronName = "19" weight = "-0.07050615468497647" />
    <synapse sourceNeuronName = "13" targetNeuronName = "20" weight = "0.03672509727404424" />
    <synapse sourceNeuronName = "13" targetNeuronName = "21" weight = "-0.08050690564976366" />
    <synapse sourceNeuronName = "13" targetNeuronName = "22" weight = "-0.08091253677569635" />
    <synapse sourceNeuronName = "13" targetNeuronName = "23" weight = "0.2906162034928731" />
    <synapse sourceNeuronName = "13" targetNeuronName = "24" weight = "0.17221800290081707" />
    <synapse sourceNeuronName = "13" targetNeuronName = "25" weight = "-0.25003225983272603" />
    <synapse sourceNeuronName = "13" targetNeuronName = "26" weight = "0.11497066437538625" />
    <synapse sourceNeuronName = "13" targetNeuronName = "27" weight = "0.21212108217320902" />
    <synapse sourceNeuronName = "14" targetNeuronName = "16" weight = "-0.2588672826078011" />
    <synapse sourceNeuronName = "14" targetNeuronName = "17" weight = "0.15176481950319468" />
    <synapse sourceNeuronName = "14" targetNeuronName = "18" weight = "-0.08272070636733174" />
    <synapse sourceNeuronName = "14" targetNeuronName = "19" weight = "-0.21095499269573226" />
    <synapse sourceNeuronName = "14" targetNeuronName = "20" weight = "-0.02932506365916253" />
    <synapse sourceNeuronName = "14" targetNeuronName = "21" weight = "0.4401855511225976" />
    <synapse sourceNeuronName = "14" targetNeuronName = "22" weight = "0.17347458538755978" />
    <synapse sourceNeuronName = "14" targetNeuronName = "23" weight = "0.5301374679573526" />
    <synapse sourceNeuronName = "14" targetNeuronName = "24" weight = "0.34263099916470685" />
    <synapse sourceNeuronName = "14" targetNeuronName = "25" weight = "-0.3220417741737236" />
    <synapse sourceNeuronName = "14" targetNeuronName = "26" weight = "0.4192706598663919" />
    <synapse sourceNeuronName = "14" targetNeuronName = "27" weight = "0.2555866266140399" />
    <synapse sourceNeuronName = "15" targetNeuronName = "16" weight = "-0.004765355062271939" />
    <synapse sourceNeuronName = "15" targetNeuronName = "17" weight = "-0.17956799248924893" />
    <synapse sourceNeuronName = "15" targetNeuronName = "18" weight = "0.37644238224462484" />
    <synapse sourceNeuronName = "15" targetNeuronName = "19" weight = "0.558302692613238" />
    <synapse sourceNeuronName = "15" targetNeuronName = "20" weight = "0.23907015654099753" />
    <synapse sourceNeuronName = "15" targetNeuronName = "21" weight = "-0.05728506732081198" />
    <synapse sourceNeuronName = "15" targetNeuronName = "22" weight = "0.4155641701974003" />
    <synapse sourceNeuronName = "15" targetNeuronName = "23" weight = "-0.3003119898984584" />
    <synapse sourceNeuronName = "15" targetNeuronName = "24" weight = "-0.15290226826485767" />
    <synapse sourceNeuronName = "15" targetNeuronName = "25" weight = "-0.2026575798511313" />
    <synapse sourceNeuronName = "15" targetNeuronName = "26" weight = "-0.030184885431630608" />
    <synapse sourceNeuronName = "15" targetNeuronName = "27" weight = "0.008408904147164237" />
    <synapse sourceNeuronName = "6" targetNeuronName = "6" weight = "-0.5177572690944492" />
    <synapse sourceNeuronName = "7" targetNeuronName = "7" weight = "0.12776054899459402" />
    <synapse sourceNeuronName = "8" targetNeuronName = "8" weight = "0.8181294427114462" />
    <synapse sourceNeuronName = "9" targetNeuronName = "9" weight = "0.07540308966849583" />
    <synapse sourceNeuronName = "10" targetNeuronName = "10" weight = "0.16548164536919804" />
    <synapse sourceNeuronName = "11" targetNeuronName = "11" weight = "0.4222197916007172" />
    <synapse sourceNeuronName = "12" targetNeuronName = "12" weight = "0.32599920961905193" />
    <synapse sourceNeuronName = "13" targetNeuronName = "13" weight = "-0.006375423268123473" />
    <synapse sourceNeuronName = "14" targetNeuronName = "14" weight = "-0.32817795659257243" />
    <synapse sourceNeuronName = "15" targetNeuronName = "15" weight = "-0.23121620570457202" />
</neuralNetwork>