<neuralNetwork>
    <neuron name = "28" type = "sensor" linkName = "1TopSensor" />
    <neuron name = "29" type = "sensor" linkName = "1BottomSensor" />
    <neuron name = "30" type = "sensor" linkName = "1URBottomLeg" />
    <neuron name = "31" type = "sensor" linkName = "1ULBottomLeg" />
    <neuron name = "32" type = "sensor" linkName = "1BRBottomLeg" />
    <neuron name = "33" type = "sensor" linkName = "1BLBottomLeg" />
    <neuron name = "34" type = "hidden" />
    <neuron name = "35" type = "hidden" />
    <neuron name = "36" type = "hidden" />
    <neuron name = "37" type = "hidden" />
    <neuron name = "38" type = "hidden" />
    <neuron name = "39" type = "hidden" />
    <neuron name = "40" type = "hidden" />
    <neuron name = "41" type = "hidden" />
    <neuron name = "42" type = "hidden" />
    <neuron name = "43" type = "hidden" />
    <neuron name = "44" type = "motor"  jointName = "1Torso_1URRotate" />
    <neuron name = "45" type = "motor"  jointName = "1URRotate_1URTopLeg" />
    <neuron name = "46" type = "motor"  jointName = "1URTopLeg_1URBottomLeg" />
    <neuron name = "47" type = "motor"  jointName = "1Torso_1ULRotate" />
    <neuron name = "48" type = "motor"  jointName = "1ULRotate_1ULTopLeg" />
    <neuron name = "49" type = "motor"  jointName = "1ULTopLeg_1ULBottomLeg" />
    <neuron name = "50" type = "motor"  jointName = "1Torso_1BRRotate" />
    <neuron name = "51" type = "motor"  jointName = "1BRRotate_1BRTopLeg" />
    <neuron name = "52" type = "motor"  jointName = "1BRTopLeg_1BRBottomLeg" />
    <neuron name = "53" type = "motor"  jointName = "1Torso_1BLRotate" />
    <neuron name = "54" type = "motor"  jointName = "1BLRotate_1BLTopLeg" />
    <neuron name = "55" type = "motor"  jointName = "1BLTopLeg_1BLBottomLeg" />
    <synapse sourceNeuronName = "28" targetNeuronName = "34" weight = "-0.2581421778197054" />
    <synapse sourceNeuronName = "28" targetNeuronName = "35" weight = "-0.910688245973235" />
    <synapse sourceNeuronName = "28" targetNeuronName = "36" weight = "0.1611792346202337" />
    <synapse sourceNeuronName = "28" targetNeuronName = "37" weight = "-0.870727911237442" />
    <synapse sourceNeuronName = "28" targetNeuronName = "38" weight = "-0.4046722234165956" />
    <synapse sourceNeuronName = "28" targetNeuronName = "39" weight = "0.553008147431543" />
    <synapse sourceNeuronName = "28" targetNeuronName = "40" weight = "-0.2321506372790391" />
    <synapse sourceNeuronName = "28" targetNeuronName = "41" weight = "-0.31812065962642155" />
    <synapse sourceNeuronName = "28" targetNeuronName = "42" weight = "-0.01886182010664121" />
    <synapse sourceNeuronName = "28" targetNeuronName = "43" weight = "0.2329300961665629" />
    <synapse sourceNeuronName = "29" targetNeuronName = "34" weight = "0.11417318907413011" />
    <synapse sourceNeuronName = "29" targetNeuronName = "35" weight = "-0.06872931477924513" />
    <synapse sourceNeuronName = "29" targetNeuronName = "36" weight = "0.38267816846982666" />
    <synapse sourceNeuronName = "29" targetNeuronName = "37" weight = "0.0598895510472911" />
    <synapse sourceNeuronName = "29" targetNeuronName = "38" weight = "0.1877997834158328" />
    <synapse sourceNeuronName = "29" targetNeuronName = "39" weight = "0.040305545837606455" />
    <synapse sourceNeuronName = "29" targetNeuronName = "40" weight = "0.8966927104752795" />
    <synapse sourceNeuronName = "29" targetNeuronName = "41" weight = "0.2910074483750509" />
    <synapse sourceNeuronName = "29" targetNeuronName = "42" weight = "0.07087468770980329" />
    <synapse sourceNeuronName = "29" targetNeuronName = "43" weight = "-0.01787557022278753" />
    <synapse sourceNeuronName = "30" targetNeuronName = "34" weight = "0.019685082845280137" />
    <synapse sourceNeuronName = "30" targetNeuronName = "35" weight = "0.35240976371501415" />
    <synapse sourceNeuronName = "30" targetNeuronName = "36" weight = "-0.8801557287399914" />
    <synapse sourceNeuronName = "30" targetNeuronName = "37" weight = "-0.445804184998029" />
    <synapse sourceNeuronName = "30" targetNeuronName = "38" weight = "0.1950032283436536" />
    <synapse sourceNeuronName = "30" targetNeuronName = "39" weight = "0.28583058990144605" />
    <synapse sourceNeuronName = "30" targetNeuronName = "40" weight = "-0.02830103532663751" />
    <synapse sourceNeuronName = "30" targetNeuronName = "41" weight = "-0.5813993735854683" />
    <synapse sourceNeuronName = "30" targetNeuronName = "42" weight = "0.323927476784304" />
    <synapse sourceNeuronName = "30" targetNeuronName = "43" weight = "0.9285309071540404" />
    <synapse sourceNeuronName = "31" targetNeuronName = "34" weight = "0.10569695827950566" />
    <synapse sourceNeuronName = "31" targetNeuronName = "35" weight = "0.020900196597043515" />
    <synapse sourceNeuronName = "31" targetNeuronName = "36" weight = "0.1228979507364159" />
    <synapse sourceNeuronName = "31" targetNeuronName = "37" weight = "0.19252583603939927" />
    <synapse sourceNeuronName = "31" targetNeuronName = "38" weight = "-0.1681935787818164" />
    <synapse sourceNeuronName = "31" targetNeuronName = "39" weight = "-0.015797425058477883" />
    <synapse sourceNeuronName = "31" targetNeuronName = "40" weight = "-0.16539032775103263" />
    <synapse sourceNeuronName = "31" targetNeuronName = "41" weight = "0.22874795849691748" />
    <synapse sourceNeuronName = "31" targetNeuronName = "42" weight = "0.002168317959491131" />
    <synapse sourceNeuronName = "31" targetNeuronName = "43" weight = "0.15569084580947606" />
    <synapse sourceNeuronName = "32" targetNeuronName = "34" weight = "0.1719838398090029" />
    <synapse sourceNeuronName = "32" targetNeuronName = "35" weight = "-0.10824499928454909" />
    <synapse sourceNeuronName = "32" targetNeuronName = "36" weight = "-0.2156338711667172" />
    <synapse sourceNeuronName = "32" targetNeuronName = "37" weight = "0.9501989682865922" />
    <synapse sourceNeuronName = "32" targetNeuronName = "38" weight = "0.47170208889759735" />
    <synapse sourceNeuronName = "32" targetNeuronName = "39" weight = "0.1808347585114064" />
    <synapse sourceNeuronName = "32" targetNeuronName = "40" weight = "0.34347192132058735" />
    <synapse sourceNeuronName = "32" targetNeuronName = "41" weight = "-0.20836768048932292" />
    <synapse sourceNeuronName = "32" targetNeuronName = "42" weight = "-0.461381465160887" />
    <synapse sourceNeuronName = "32" targetNeuronName = "43" weight = "0.15122382179344557" />
    <synapse sourceNeuronName = "33" targetNeuronName = "34" weight = "0.5244463270750837" />
    <synapse sourceNeuronName = "33" targetNeuronName = "35" weight = "-0.4266130910745472" />
    <synapse sourceNeuronName = "33" targetNeuronName = "36" weight = "-0.1420083951704412" />
    <synapse sourceNeuronName = "33" targetNeuronName = "37" weight = "-0.2786446946902562" />
    <synapse sourceNeuronName = "33" targetNeuronName = "38" weight = "0.05006640446148978" />
    <synapse sourceNeuronName = "33" targetNeuronName = "39" weight = "0.4440003561363254" />
    <synapse sourceNeuronName = "33" targetNeuronName = "40" weight = "-0.007981248273062914" />
    <synapse sourceNeuronName = "33" targetNeuronName = "41" weight = "0.007364390569000769" />
    <synapse sourceNeuronName = "33" targetNeuronName = "42" weight = "0.4038843985718754" />
    <synapse sourceNeuronName = "33" targetNeuronName = "43" weight = "0.1826803460967659" />
    <synapse sourceNeuronName = "34" targetNeuronName = "44" weight = "0.20789403311228716" />
    <synapse sourceNeuronName = "34" targetNeuronName = "45" weight = "-0.12265733839869603" />
    <synapse sourceNeuronName = "34" targetNeuronName = "46" weight = "-0.09004731206217155" />
    <synapse sourceNeuronName = "34" targetNeuronName = "47" weight = "-0.4125718707592617" />
    <synapse sourceNeuronName = "34" targetNeuronName = "48" weight = "-0.0031187423842300535" />
    <synapse sourceNeuronName = "34" targetNeuronName = "49" weight = "-0.00023023228625602125" />
    <synapse sourceNeuronName = "34" targetNeuronName = "50" weight = "-0.11946987429716535" />
    <synapse sourceNeuronName = "34" targetNeuronName = "51" weight = "-0.9668749517769817" />
    <synapse sourceNeuronName = "34" targetNeuronName = "52" weight = "0.27548385608463155" />
    <synapse sourceNeuronName = "34" targetNeuronName = "53" weight = "-0.21864500512765542" />
    <synapse sourceNeuronName = "34" targetNeuronName = "54" weight = "0.10968198101729026" />
    <synapse sourceNeuronName = "34" targetNeuronName = "55" weight = "0.12794760320813572" />
    <synapse sourceNeuronName = "35" targetNeuronName = "44" weight = "0.01964123128897057" />
    <synapse sourceNeuronName = "35" targetNeuronName = "45" weight = "0.1067192834289086" />
    <synapse sourceNeuronName = "35" targetNeuronName = "46" weight = "0.1529456905333042" />
    <synapse sourceNeuronName = "35" targetNeuronName = "47" weight = "0.5656486911633427" />
    <synapse sourceNeuronName = "35" targetNeuronName = "48" weight = "0.2362168126142135" />
    <synapse sourceNeuronName = "35" targetNeuronName = "49" weight = "0.09311047129427871" />
    <synapse sourceNeuronName = "35" targetNeuronName = "50" weight = "-0.12483895952184083" />
    <synapse sourceNeuronName = "35" targetNeuronName = "51" weight = "0.28267684774392654" />
    <synapse sourceNeuronName = "35" targetNeuronName = "52" weight = "0.7447535332358136" />
    <synapse sourceNeuronName = "35" targetNeuronName = "53" weight = "0.7143262398650428" />
    <synapse sourceNeuronName = "35" targetNeuronName = "54" weight = "0.33154391316287524" />
    <synapse sourceNeuronName = "35" targetNeuronName = "55" weight = "-0.3564628235346534" />
    <synapse sourceNeuronName = "36" targetNeuronName = "44" weight = "0.1832155450270369" />
    <synapse sourceNeuronName = "36" targetNeuronName = "45" weight = "0.37189368389673977" />
    <synapse sourceNeuronName = "36" targetNeuronName = "46" weight = "-0.2763852187479501" />
    <synapse sourceNeuronName = "36" targetNeuronName = "47" weight = "-0.38098381646359925" />
    <synapse sourceNeuronName = "36" targetNeuronName = "48" weight = "-0.36809109840233917" />
    <synapse sourceNeuronName = "36" targetNeuronName = "49" weight = "-0.4221679559008085" />
    <synapse sourceNeuronName = "36" targetNeuronName = "50" weight = "0.24195129899209225" />
    <synapse sourceNeuronName = "36" targetNeuronName = "51" weight = "0.3827430002581331" />
    <synapse sourceNeuronName = "36" targetNeuronName = "52" weight = "0.12649308849683177" />
    <synapse sourceNeuronName = "36" targetNeuronName = "53" weight = "0.0420320816204037" />
    <synapse sourceNeuronName = "36" targetNeuronName = "54" weight = "0.13925246838597188" />
    <synapse sourceNeuronName = "36" targetNeuronName = "55" weight = "0.12630343791647278" />
    <synapse sourceNeuronName = "37" targetNeuronName = "44" weight = "0.49480158195833873" />
    <synapse sourceNeuronName = "37" targetNeuronName = "45" weight = "-0.0035386003726305014" />
    <synapse sourceNeuronName = "37" targetNeuronName = "46" weight = "-0.1133301513390722" />
    <synapse sourceNeuronName = "37" targetNeuronName = "47" weight = "0.24916213873232756" />
    <synapse sourceNeuronName = "37" targetNeuronName = "48" weight = "-0.6524839158978881" />
    <synapse sourceNeuronName = "37" targetNeuronName = "49" weight = "0.427327675853061" />
    <synapse sourceNeuronName = "37" targetNeuronName = "50" weight = "0.05825911857327544" />
    <synapse sourceNeuronName = "37" targetNeuronName = "51" weight = "0.02464782926662278" />
    <synapse sourceNeuronName = "37" targetNeuronName = "52" weight = "0.0758115667748996" />
    <synapse sourceNeuronName = "37" targetNeuronName = "53" weight = "-0.1251877791212211" />
    <synapse sourceNeuronName = "37" targetNeuronName = "54" weight = "0.22517006148887356" />
    <synapse sourceNeuronName = "37" targetNeuronName = "55" weight = "-0.7488551450502593" />
    <synapse sourceNeuronName = "38" targetNeuronName = "44" weight = "-0.006470083652129002" />
    <synapse sourceNeuronName = "38" targetNeuronName = "45" weight = "0.15312399848934483" />
    <synapse sourceNeuronName = "38" targetNeuronName = "46" weight = "-0.3399578934108103" />
    <synapse sourceNeuronName = "38" targetNeuronName = "47" weight = "-0.09692746662172705" />
    <synapse sourceNeuronName = "38" targetNeuronName = "48" weight = "-0.4808722522909584" />
    <synapse sourceNeuronName = "38" targetNeuronName = "49" weight = "0.03570123380039267" />
    <synapse sourceNeuronName = "38" targetNeuronName = "50" weight = "-0.2786852138027348" />
    <synapse sourceNeuronName = "38" targetNeuronName = "51" weight = "-0.20224104470219217" />
    <synapse sourceNeuronName = "38" targetNeuronName = "52" weight = "0.33586404143958354" />
    <synapse sourceNeuronName = "38" targetNeuronName = "53" weight = "0.0029459364049993168" />
    <synapse sourceNeuronName = "38" targetNeuronName = "54" weight = "0.17690485005823722" />
    <synapse sourceNeuronName = "38" targetNeuronName = "55" weight = "0.2121065657580694" />
    <synapse sourceNeuronName = "39" targetNeuronName = "44" weight = "0.637507441038505" />
    <synapse sourceNeuronName = "39" targetNeuronName = "45" weight = "-0.09985172222344538" />
    <synapse sourceNeuronName = "39" targetNeuronName = "46" weight = "-0.6963329212948599" />
    <synapse sourceNeuronName = "39" targetNeuronName = "47" weight = "0.5529061472354846" />
    <synapse sourceNeuronName = "39" targetNeuronName = "48" weight = "0.5469044863044097" />
    <synapse sourceNeuronName = "39" targetNeuronName = "49" weight = "0.029414023029048122" />
    <synapse sourceNeuronName = "39" targetNeuronName = "50" weight = "0.7006371412915043" />
    <synapse sourceNeuronName = "39" targetNeuronName = "51" weight = "-0.26310988031130705" />
    <synapse sourceNeuronName = "39" targetNeuronName = "52" weight = "0.31133975631221766" />
    <synapse sourceNeuronName = "39" targetNeuronName = "53" weight = "-0.395937996792987" />
    <synapse sourceNeuronName = "39" targetNeuronName = "54" weight = "0.020076283091977128" />
    <synapse sourceNeuronName = "39" targetNeuronName = "55" weight = "-0.4032484579472778" />
    <synapse sourceNeuronName = "40" targetNeuronName = "44" weight = "0.182858151016872" />
    <synapse sourceNeuronName = "40" targetNeuronName = "45" weight = "0.40830631763468267" />
    <synapse sourceNeuronName = "40" targetNeuronName = "46" weight = "0.21355691834406676" />
    <synapse sourceNeuronName = "40" targetNeuronName = "47" weight = "-0.3612382972871455" />
    <synapse sourceNeuronName = "40" targetNeuronName = "48" weight = "-0.4921230846917697" />
    <synapse sourceNeuronName = "40" targetNeuronName = "49" weight = "-0.1042881916854024" />
    <synapse sourceNeuronName = "40" targetNeuronName = "50" weight = "0.2601598080930911" />
    <synapse sourceNeuronName = "40" targetNeuronName = "51" weight = "-0.24171008007815598" />
    <synapse sourceNeuronName = "40" targetNeuronName = "52" weight = "0.059653828576579096" />
    <synapse sourceNeuronName = "40" targetNeuronName = "53" weight = "0.3605979487707758" />
    <synapse sourceNeuronName = "40" targetNeuronName = "54" weight = "-0.10792537649438083" />
    <synapse sourceNeuronName = "40" targetNeuronName = "55" weight = "-0.04439667643427639" />
    <synapse sourceNeuronName = "41" targetNeuronName = "44" weight = "0.4029598728227636" />
    <synapse sourceNeuronName = "41" targetNeuronName = "45" weight = "-0.06073222879096604" />
    <synapse sourceNeuronName = "41" targetNeuronName = "46" weight = "-0.48761216661551826" />
    <synapse sourceNeuronName = "41" targetNeuronName = "47" weight = "0.05539602035966618" />
    <synapse sourceNeuronName = "41" targetNeuronName = "48" weight = "0.24015291119009965" />
    <synapse sourceNeuronName = "41" targetNeuronName = "49" weight = "0.7444382078481651" />
    <synapse sourceNeuronName = "41" targetNeuronName = "50" weight = "0.176520038418061" />
    <synapse sourceNeuronName = "41" targetNeuronName = "51" weight = "-0.1445170208710017" />
    <synapse sourceNeuronName = "41" targetNeuronName = "52" weight = "0.16997720704775626" />
    <synapse sourceNeuronName = "41" targetNeuronName = "53" weight = "0.04494002598582764" />
    <synapse sourceNeuronName = "41" targetNeuronName = "54" weight = "-0.39280174605683726" />
    <synapse sourceNeuronName = "41" targetNeuronName = "55" weight = "-0.10641874263269971" />
    <synapse sourceNeuronName = "42" targetNeuronName = "44" weight = "0.2811821931633011" />
    <synapse sourceNeuronName = "42" targetNeuronName = "45" weight = "-0.01782767356332296" />
    <synapse sourceNeuronName = "42" targetNeuronName = "46" weight = "0.3768157639319286" />
    <synapse sourceNeuronName = "42" targetNeuronName = "47" weight = "-0.5424610398350728" />
    <synapse sourceNeuronName = "42" targetNeuronName = "48" weight = "0.5195369557795508" />
    <synapse sourceNeuronName = "42" targetNeuronName = "49" weight = "-0.3750799427981566" />
    <synapse sourceNeuronName = "42" targetNeuronName = "50" weight = "0.20911188432399366" />
    <synapse sourceNeuronName = "42" targetNeuronName = "51" weight = "-0.2958460731915723" />
    <synapse sourceNeuronName = "42" targetNeuronName = "52" weight = "0.08595996279495632" />
    <synapse sourceNeuronName = "42" targetNeuronName = "53" weight = "0.24260016601765122" />
    <synapse sourceNeuronName = "42" targetNeuronName = "54" weight = "-0.13307063450112097" />
    <synapse sourceNeuronName = "42" targetNeuronName = "55" weight = "-0.011319307813693742" />
    <synapse sourceNeuronName = "43" targetNeuronName = "44" weight = "0.18138080354794642" />
    <synapse sourceNeuronName = "43" targetNeuronName = "45" weight = "-0.17397041733857882" />
    <synapse sourceNeuronName = "43" targetNeuronName = "46" weight = "0.015113288566317249" />
    <synapse sourceNeuronName = "43" targetNeuronName = "47" weight = "0.2232938263238036" />
    <synapse sourceNeuronName = "43" targetNeuronName = "48" weight = "0.08672660241181268" />
    <synapse sourceNeuronName = "43" targetNeuronName = "49" weight = "-0.41172839582453463" />
    <synapse sourceNeuronName = "43" targetNeuronName = "50" weight = "-0.3579513413370291" />
    <synapse sourceNeuronName = "43" targetNeuronName = "51" weight = "-0.2386688707416053" />
    <synapse sourceNeuronName = "43" targetNeuronName = "52" weight = "-0.01962881574814763" />
    <synapse sourceNeuronName = "43" targetNeuronName = "53" weight = "-0.18295510929383263" />
    <synapse sourceNeuronName = "43" targetNeuronName = "54" weight = "-0.5133550376566023" />
    <synapse sourceNeuronName = "43" targetNeuronName = "55" weight = "-0.4295745956262047" />
    <synapse sourceNeuronName = "34" targetNeuronName = "34" weight = "0.0008874541013856902" />
    <synapse sourceNeuronName = "35" targetNeuronName = "35" weight = "-0.13023363713913233" />
    <synapse sourceNeuronName = "36" targetNeuronName = "36" weight = "0.12599309222846722" />
    <synapse sourceNeuronName = "37" targetNeuronName = "37" weight = "-0.35941524834470395" />
    <synapse sourceNeuronName = "38" targetNeuronName = "38" weight = "-0.02441395778892486" />
    <synapse sourceNeuronName = "39" targetNeuronName = "39" weight = "-0.4607302296878111" />
    <synapse sourceNeuronName = "40" targetNeuronName = "40" weight = "-0.2896999817830902" />
    <synapse sourceNeuronName = "41" targetNeuronName = "41" weight = "-0.08744629916200408" />
    <synapse sourceNeuronName = "42" targetNeuronName = "42" weight = "0.2426191436483784" />
    <synapse sourceNeuronName = "43" targetNeuronName = "43" weight = "0.07955390276605229" />
</neuralNetwork>