<neuralNetwork>
    <neuron name = "56" type = "sensor" linkName = "2TopSensor" />
    <neuron name = "57" type = "sensor" linkName = "2BottomSensor" />
    <neuron name = "58" type = "sensor" linkName = "2URBottomLeg" />
    <neuron name = "59" type = "sensor" linkName = "2ULBottomLeg" />
    <neuron name = "60" type = "sensor" linkName = "2BRBottomLeg" />
    <neuron name = "61" type = "sensor" linkName = "2BLBottomLeg" />
    <neuron name = "62" type = "hidden" />
    <neuron name = "63" type = "hidden" />
    <neuron name = "64" type = "hidden" />
    <neuron name = "65" type = "hidden" />
    <neuron name = "66" type = "hidden" />
    <neuron name = "67" type = "hidden" />
    <neuron name = "68" type = "hidden" />
    <neuron name = "69" type = "hidden" />
    <neuron name = "70" type = "hidden" />
    <neuron name = "71" type = "hidden" />
    <neuron name = "72" type = "motor"  jointName = "2Torso_2URRotate" />
    <neuron name = "73" type = "motor"  jointName = "2URRotate_2URTopLeg" />
    <neuron name = "74" type = "motor"  jointName = "2URTopLeg_2URBottomLeg" />
    <neuron name = "75" type = "motor"  jointName = "2Torso_2ULRotate" />
    <neuron name = "76" type = "motor"  jointName = "2ULRotate_2ULTopLeg" />
    <neuron name = "77" type = "motor"  jointName = "2ULTopLeg_2ULBottomLeg" />
    <neuron name = "78" type = "motor"  jointName = "2Torso_2BRRotate" />
    <neuron name = "79" type = "motor"  jointName = "2BRRotate_2BRTopLeg" />
    <neuron name = "80" type = "motor"  jointName = "2BRTopLeg_2BRBottomLeg" />
    <neuron name = "81" type = "motor"  jointName = "2Torso_2BLRotate" />
    <neuron name = "82" type = "motor"  jointName = "2BLRotate_2BLTopLeg" />
    <neuron name = "83" type = "motor"  jointName = "2BLTopLeg_2BLBottomLeg" />
    <synapse sourceNeuronName = "56" targetNeuronName = "62" weight = "0.013273805718048932" />
    <synapse sourceNeuronName = "56" targetNeuronName = "63" weight = "0.6484760858307741" />
    <synapse sourceNeuronName = "56" targetNeuronName = "64" weight = "0.27129546509147634" />
    <synapse sourceNeuronName = "56" targetNeuronName = "65" weight = "0.0034941108563108217" />
    <synapse sourceNeuronName = "56" targetNeuronName = "66" weight = "0.029896722972258014" />
    <synapse sourceNeuronName = "56" targetNeuronName = "67" weight = "-0.23310488703843715" />
    <synapse sourceNeuronName = "56" targetNeuronName = "68" weight = "0.14758367083889398" />
    <synapse sourceNeuronName = "56" targetNeuronName = "69" weight = "-0.17293675076965676" />
    <synapse sourceNeuronName = "56" targetNeuronName = "70" weight = "0.4354816286524179" />
    <synapse sourceNeuronName = "56" targetNeuronName = "71" weight = "0.18626052750068137" />
    <synapse sourceNeuronName = "57" targetNeuronName = "62" weight = "0.32474740432189686" />
    <synapse sourceNeuronName = "57" targetNeuronName = "63" weight = "-0.6410807615656235" />
    <synapse sourceNeuronName = "57" targetNeuronName = "64" weight = "0.43881534733058536" />
    <synapse sourceNeuronName = "57" targetNeuronName = "65" weight = "0.17541304852876766" />
    <synapse sourceNeuronName = "57" targetNeuronName = "66" weight = "0.17927066922783777" />
    <synapse sourceNeuronName = "57" targetNeuronName = "67" weight = "-0.07569333265576164" />
    <synapse sourceNeuronName = "57" targetNeuronName = "68" weight = "0.20882574414896177" />
    <synapse sourceNeuronName = "57" targetNeuronName = "69" weight = "-0.671554590264568" />
    <synapse sourceNeuronName = "57" targetNeuronName = "70" weight = "-0.5273594558578167" />
    <synapse sourceNeuronName = "57" targetNeuronName = "71" weight = "-0.36952269656681375" />
    <synapse sourceNeuronName = "58" targetNeuronName = "62" weight = "-0.3127076384535329" />
    <synapse sourceNeuronName = "58" targetNeuronName = "63" weight = "0.6151234539366436" />
    <synapse sourceNeuronName = "58" targetNeuronName = "64" weight = "-0.10745241208963233" />
    <synapse sourceNeuronName = "58" targetNeuronName = "65" weight = "-0.5136052290653095" />
    <synapse sourceNeuronName = "58" targetNeuronName = "66" weight = "-0.48858627432596424" />
    <synapse sourceNeuronName = "58" targetNeuronName = "67" weight = "-0.42204197208508437" />
    <synapse sourceNeuronName = "58" targetNeuronName = "68" weight = "0.20052649297968028" />
    <synapse sourceNeuronName = "58" targetNeuronName = "69" weight = "-0.2351261101424706" />
    <synapse sourceNeuronName = "58" targetNeuronName = "70" weight = "0.685668512492991" />
    <synapse sourceNeuronName = "58" targetNeuronName = "71" weight = "0.14704994785226838" />
    <synapse sourceNeuronName = "59" targetNeuronName = "62" weight = "-0.363415702245396" />
    <synapse sourceNeuronName = "59" targetNeuronName = "63" weight = "0.2768641298837703" />
    <synapse sourceNeuronName = "59" targetNeuronName = "64" weight = "0.19833500511139385" />
    <synapse sourceNeuronName = "59" targetNeuronName = "65" weight = "0.2540321926944669" />
    <synapse sourceNeuronName = "59" targetNeuronName = "66" weight = "0.022649656623748397" />
    <synapse sourceNeuronName = "59" targetNeuronName = "67" weight = "-0.7834845745520891" />
    <synapse sourceNeuronName = "59" targetNeuronName = "68" weight = "-0.04969960500172708" />
    <synapse sourceNeuronName = "59" targetNeuronName = "69" weight = "-0.6205039302692478" />
    <synapse sourceNeuronName = "59" targetNeuronName = "70" weight = "-0.2659228607146274" />
    <synapse sourceNeuronName = "59" targetNeuronName = "71" weight = "0.1543531485424701" />
    <synapse sourceNeuronName = "60" targetNeuronName = "62" weight = "0.1545454860967181" />
    <synapse sourceNeuronName = "60" targetNeuronName = "63" weight = "-0.29367185081985003" />
    <synapse sourceNeuronName = "60" targetNeuronName = "64" weight = "-0.006840676063482301" />
    <synapse sourceNeuronName = "60" targetNeuronName = "65" weight = "0.3112382337542987" />
    <synapse sourceNeuronName = "60" targetNeuronName = "66" weight = "0.38013913369602215" />
    <synapse sourceNeuronName = "60" targetNeuronName = "67" weight = "0.024953625576493305" />
    <synapse sourceNeuronName = "60" targetNeuronName = "68" weight = "-0.016120133270294854" />
    <synapse sourceNeuronName = "60" targetNeuronName = "69" weight = "0.35239534941104744" />
    <synapse sourceNeuronName = "60" targetNeuronName = "70" weight = "-0.23911860868126855" />
    <synapse sourceNeuronName = "60" targetNeuronName = "71" weight = "-0.5421023709275687" />
    <synapse sourceNeuronName = "61" targetNeuronName = "62" weight = "-0.31480591198451674" />
    <synapse sourceNeuronName = "61" targetNeuronName = "63" weight = "0.12703286593368202" />
    <synapse sourceNeuronName = "61" targetNeuronName = "64" weight = "-0.6221305438010626" />
    <synapse sourceNeuronName = "61" targetNeuronName = "65" weight = "-0.2514855153063484" />
    <synapse sourceNeuronName = "61" targetNeuronName = "66" weight = "-0.331648708273645" />
    <synapse sourceNeuronName = "61" targetNeuronName = "67" weight = "-0.331807536605382" />
    <synapse sourceNeuronName = "61" targetNeuronName = "68" weight = "-0.42051988707902327" />
    <synapse sourceNeuronName = "61" targetNeuronName = "69" weight = "0.0852569813980665" />
    <synapse sourceNeuronName = "61" targetNeuronName = "70" weight = "0.013830353976859458" />
    <synapse sourceNeuronName = "61" targetNeuronName = "71" weight = "0.9292624913026427" />
    <synapse sourceNeuronName = "62" targetNeuronName = "72" weight = "-0.35113115023477437" />
    <synapse sourceNeuronName = "62" targetNeuronName = "73" weight = "-0.1327704979283638" />
    <synapse sourceNeuronName = "62" targetNeuronName = "74" weight = "0.08788068157175123" />
    <synapse sourceNeuronName = "62" targetNeuronName = "75" weight = "0.29584802969819385" />
    <synapse sourceNeuronName = "62" targetNeuronName = "76" weight = "0.16462354756582526" />
    <synapse sourceNeuronName = "62" targetNeuronName = "77" weight = "0.32599334614859143" />
    <synapse sourceNeuronName = "62" targetNeuronName = "78" weight = "0.01436963319211566" />
    <synapse sourceNeuronName = "62" targetNeuronName = "79" weight = "-0.28793531899397407" />
    <synapse sourceNeuronName = "62" targetNeuronName = "80" weight = "0.4942287652879348" />
    <synapse sourceNeuronName = "62" targetNeuronName = "81" weight = "0.25100769363444986" />
    <synapse sourceNeuronName = "62" targetNeuronName = "82" weight = "0.027074313002245987" />
    <synapse sourceNeuronName = "62" targetNeuronName = "83" weight = "0.03845805277868765" />
    <synapse sourceNeuronName = "63" targetNeuronName = "72" weight = "0.05962878962494286" />
    <synapse sourceNeuronName = "63" targetNeuronName = "73" weight = "0.20521173207576732" />
    <synapse sourceNeuronName = "63" targetNeuronName = "74" weight = "-0.3496567964014603" />
    <synapse sourceNeuronName = "63" targetNeuronName = "75" weight = "-0.18444494259803718" />
    <synapse sourceNeuronName = "63" targetNeuronName = "76" weight = "-0.16849097725496603" />
    <synapse sourceNeuronName = "63" targetNeuronName = "77" weight = "-0.45644263373427907" />
    <synapse sourceNeuronName = "63" targetNeuronName = "78" weight = "0.4137209987933066" />
    <synapse sourceNeuronName = "63" targetNeuronName = "79" weight = "0.26543589003188817" />
    <synapse sourceNeuronName = "63" targetNeuronName = "80" weight = "-0.02413653298734395" />
    <synapse sourceNeuronName = "63" targetNeuronName = "81" weight = "0.5129475394076588" />
    <synapse sourceNeuronName = "63" targetNeuronName = "82" weight = "-0.17706321107712156" />
    <synapse sourceNeuronName = "63" targetNeuronName = "83" weight = "0.1366577277407466" />
    <synapse sourceNeuronName = "64" targetNeuronName = "72" weight = "0.7152056118689575" />
    <synapse sourceNeuronName = "64" targetNeuronName = "73" weight = "0.23549999435718952" />
    <synapse sourceNeuronName = "64" targetNeuronName = "74" weight = "-0.13931901544835187" />
    <synapse sourceNeuronName = "64" targetNeuronName = "75" weight = "0.3617890963710984" />
    <synapse sourceNeuronName = "64" targetNeuronName = "76" weight = "0.13221379593781468" />
    <synapse sourceNeuronName = "64" targetNeuronName = "77" weight = "-0.5123708247234913" />
    <synapse sourceNeuronName = "64" targetNeuronName = "78" weight = "-1.0290143190674694" />
    <synapse sourceNeuronName = "64" targetNeuronName = "79" weight = "0.2639979486331875" />
    <synapse sourceNeuronName = "64" targetNeuronName = "80" weight = "0.23022529432061895" />
    <synapse sourceNeuronName = "64" targetNeuronName = "81" weight = "-0.43492529418994536" />
    <synapse sourceNeuronName = "64" targetNeuronName = "82" weight = "-0.2000834007722196" />
    <synapse sourceNeuronName = "64" targetNeuronName = "83" weight = "-0.6393972782501796" />
    <synapse sourceNeuronName = "65" targetNeuronName = "72" weight = "-0.5541869362508631" />
    <synapse sourceNeuronName = "65" targetNeuronName = "73" weight = "0.3375380831040816" />
    <synapse sourceNeuronName = "65" targetNeuronName = "74" weight = "-0.17061856821002455" />
    <synapse sourceNeuronName = "65" targetNeuronName = "75" weight = "-0.07045177137807225" />
    <synapse sourceNeuronName = "65" targetNeuronName = "76" weight = "-0.11278498865481092" />
    <synapse sourceNeuronName = "65" targetNeuronName = "77" weight = "0.8992557333469591" />
    <synapse sourceNeuronName = "65" targetNeuronName = "78" weight = "-0.04405998335004285" />
    <synapse sourceNeuronName = "65" targetNeuronName = "79" weight = "0.023959518911280522" />
    <synapse sourceNeuronName = "65" targetNeuronName = "80" weight = "0.2861771958496651" />
    <synapse sourceNeuronName = "65" targetNeuronName = "81" weight = "-0.28346531702914457" />
    <synapse sourceNeuronName = "65" targetNeuronName = "82" weight = "-0.027420984891274564" />
    <synapse sourceNeuronName = "65" targetNeuronName = "83" weight = "-0.19748595354831247" />
    <synapse sourceNeuronName = "66" targetNeuronName = "72" weight = "-0.2589666736107916" />
    <synapse sourceNeuronName = "66" targetNeuronName = "73" weight = "-0.4702190021951503" />
    <synapse sourceNeuronName = "66" targetNeuronName = "74" weight = "-0.5894032136665657" />
    <synapse sourceNeuronName = "66" targetNeuronName = "75" weight = "0.3378957568589874" />
    <synapse sourceNeuronName = "66" targetNeuronName = "76" weight = "0.7988554081728674" />
    <synapse sourceNeuronName = "66" targetNeuronName = "77" weight = "0.4318100093113797" />
    <synapse sourceNeuronName = "66" targetNeuronName = "78" weight = "-0.4523894389284945" />
    <synapse sourceNeuronName = "66" targetNeuronName = "79" weight = "0.47673458813081193" />
    <synapse sourceNeuronName = "66" targetNeuronName = "80" weight = "-1.1900597560012978" />
    <synapse sourceNeuronName = "66" targetNeuronName = "81" weight = "-0.6373517437303537" />
    <synapse sourceNeuronName = "66" targetNeuronName = "82" weight = "0.09735126501632231" />
    <synapse sourceNeuronName = "66" targetNeuronName = "83" weight = "-0.7495780416337547" />
    <synapse sourceNeuronName = "67" targetNeuronName = "72" weight = "-0.6752300455825466" />
    <synapse sourceNeuronName = "67" targetNeuronName = "73" weight = "-0.5820844680800997" />
    <synapse sourceNeuronName = "67" targetNeuronName = "74" weight = "0.2505317510508896" />
    <synapse sourceNeuronName = "67" targetNeuronName = "75" weight = "-0.03716722185164488" />
    <synapse sourceNeuronName = "67" targetNeuronName = "76" weight = "-0.3183974533854517" />
    <synapse sourceNeuronName = "67" targetNeuronName = "77" weight = "0.055796704163132295" />
    <synapse sourceNeuronName = "67" targetNeuronName = "78" weight = "-0.1930676364717948" />
    <synapse sourceNeuronName = "67" targetNeuronName = "79" weight = "-0.28740489680080405" />
    <synapse sourceNeuronName = "67" targetNeuronName = "80" weight = "0.20697239048105792" />
    <synapse sourceNeuronName = "67" targetNeuronName = "81" weight = "-0.03866538163194587" />
    <synapse sourceNeuronName = "67" targetNeuronName = "82" weight = "-0.011165369350315913" />
    <synapse sourceNeuronName = "67" targetNeuronName = "83" weight = "0.4913002146325925" />
    <synapse sourceNeuronName = "68" targetNeuronName = "72" weight = "-0.0332605182468001" />
    <synapse sourceNeuronName = "68" targetNeuronName = "73" weight = "-0.2406342840902369" />
    <synapse sourceNeuronName = "68" targetNeuronName = "74" weight = "0.29363962698122725" />
    <synapse sourceNeuronName = "68" targetNeuronName = "75" weight = "0.2561844786179393" />
    <synapse sourceNeuronName = "68" targetNeuronName = "76" weight = "0.020139299967842972" />
    <synapse sourceNeuronName = "68" targetNeuronName = "77" weight = "-0.48073719363824374" />
    <synapse sourceNeuronName = "68" targetNeuronName = "78" weight = "-0.16801335071558526" />
    <synapse sourceNeuronName = "68" targetNeuronName = "79" weight = "-0.8615066507443241" />
    <synapse sourceNeuronName = "68" targetNeuronName = "80" weight = "-0.12447514626673069" />
    <synapse sourceNeuronName = "68" targetNeuronName = "81" weight = "-0.13580415239241372" />
    <synapse sourceNeuronName = "68" targetNeuronName = "82" weight = "-0.310397803957143" />
    <synapse sourceNeuronName = "68" targetNeuronName = "83" weight = "-0.13174088635853637" />
    <synapse sourceNeuronName = "69" targetNeuronName = "72" weight = "-0.29499854846438855" />
    <synapse sourceNeuronName = "69" targetNeuronName = "73" weight = "0.4953003274730733" />
    <synapse sourceNeuronName = "69" targetNeuronName = "74" weight = "-0.2951107152432155" />
    <synapse sourceNeuronName = "69" targetNeuronName = "75" weight = "-0.2881200918035891" />
    <synapse sourceNeuronName = "69" targetNeuronName = "76" weight = "-0.32962299953495633" />
    <synapse sourceNeuronName = "69" targetNeuronName = "77" weight = "-0.1811475330943782" />
    <synapse sourceNeuronName = "69" targetNeuronName = "78" weight = "0.8700092353745874" />
    <synapse sourceNeuronName = "69" targetNeuronName = "79" weight = "0.09899597826883434" />
    <synapse sourceNeuronName = "69" targetNeuronName = "80" weight = "-0.588753023501715" />
    <synapse sourceNeuronName = "69" targetNeuronName = "81" weight = "0.2370492288570232" />
    <synapse sourceNeuronName = "69" targetNeuronName = "82" weight = "-0.6063580748491115" />
    <synapse sourceNeuronName = "69" targetNeuronName = "83" weight = "-0.0438443594945667" />
    <synapse sourceNeuronName = "70" targetNeuronName = "72" weight = "0.13295479438580965" />
    <synapse sourceNeuronName = "70" targetNeuronName = "73" weight = "-0.07990153944127973" />
    <synapse sourceNeuronName = "70" targetNeuronName = "74" weight = "0.4895853164429789" />
    <synapse sourceNeuronName = "70" targetNeuronName = "75" weight = "-1.055454553505062" />
    <synapse sourceNeuronName = "70" targetNeuronName = "76" weight = "0.14862016440916814" />
    <synapse sourceNeuronName = "70" targetNeuronName = "77" weight = "0.05845570058962682" />
    <synapse sourceNeuronName = "70" targetNeuronName = "78" weight = "0.3971843807782669" />
    <synapse sourceNeuronName = "70" targetNeuronName = "79" weight = "-0.08562784569043402" />
    <synapse sourceNeuronName = "70" targetNeuronName = "80" weight = "0.08081130547612377" />
    <synapse sourceNeuronName = "70" targetNeuronName = "81" weight = "-0.8851048446123764" />
    <synapse sourceNeuronName = "70" targetNeuronName = "82" weight = "0.021541965220174573" />
    <synapse sourceNeuronName = "70" targetNeuronName = "83" weight = "-0.14775003515156387" />
    <synapse sourceNeuronName = "71" targetNeuronName = "72" weight = "-0.3606233695925464" />
    <synapse sourceNeuronName = "71" targetNeuronName = "73" weight = "-0.03182790678082501" />
    <synapse sourceNeuronName = "71" targetNeuronName = "74" weight = "0.8361415787100547" />
    <synapse sourceNeuronName = "71" targetNeuronName = "75" weight = "0.20338055298815444" />
    <synapse sourceNeuronName = "71" targetNeuronName = "76" weight = "0.019171575963737125" />
    <synapse sourceNeuronName = "71" targetNeuronName = "77" weight = "0.2880855165635275" />
    <synapse sourceNeuronName = "71" targetNeuronName = "78" weight = "0.4405136794903218" />
    <synapse sourceNeuronName = "71" targetNeuronName = "79" weight = "-0.4288413189038845" />
    <synapse sourceNeuronName = "71" targetNeuronName = "80" weight = "-0.25358456331776613" />
    <synapse sourceNeuronName = "71" targetNeuronName = "81" weight = "-0.09640142036542312" />
    <synapse sourceNeuronName = "71" targetNeuronName = "82" weight = "0.15748499650496783" />
    <synapse sourceNeuronName = "71" targetNeuronName = "83" weight = "0.42916480921906475" />
    <synapse sourceNeuronName = "62" targetNeuronName = "62" weight = "0.24901269789024066" />
    <synapse sourceNeuronName = "63" targetNeuronName = "63" weight = "0.14651918447551204" />
    <synapse sourceNeuronName = "64" targetNeuronName = "64" weight = "0.6634805874955152" />
    <synapse sourceNeuronName = "65" targetNeuronName = "65" weight = "-0.5299965181577797" />
    <synapse sourceNeuronName = "66" targetNeuronName = "66" weight = "-0.3910963158848282" />
    <synapse sourceNeuronName = "67" targetNeuronName = "67" weight = "0.13877330336534666" />
    <synapse sourceNeuronName = "68" targetNeuronName = "68" weight = "0.4153576836923539" />
    <synapse sourceNeuronName = "69" targetNeuronName = "69" weight = "0.1927682076060439" />
    <synapse sourceNeuronName = "70" targetNeuronName = "70" weight = "0.4460686223795443" />
    <synapse sourceNeuronName = "71" targetNeuronName = "71" weight = "0.24555872720025057" />
</neuralNetwork>