<neuralNetwork>
    <neuron name = "56" type = "sensor" linkName = "2TopSensor" />
    <neuron name = "57" type = "sensor" linkName = "2BottomSensor" />
    <neuron name = "58" type = "sensor" linkName = "2URBottomLeg" />
    <neuron name = "59" type = "sensor" linkName = "2ULBottomLeg" />
    <neuron name = "60" type = "sensor" linkName = "2BRBottomLeg" />
    <neuron name = "61" type = "sensor" linkName = "2BLBottomLeg" />
    <neuron name = "62" type = "hidden" />
    <neuron name = "63" type = "hidden" />
    <neuron name = "64" type = "hidden" />
    <neuron name = "65" type = "hidden" />
    <neuron name = "66" type = "hidden" />
    <neuron name = "67" type = "hidden" />
    <neuron name = "68" type = "hidden" />
    <neuron name = "69" type = "hidden" />
    <neuron name = "70" type = "hidden" />
    <neuron name = "71" type = "hidden" />
    <neuron name = "72" type = "motor"  jointName = "2Torso_2URRotate" />
    <neuron name = "73" type = "motor"  jointName = "2URRotate_2URTopLeg" />
    <neuron name = "74" type = "motor"  jointName = "2URTopLeg_2URBottomLeg" />
    <neuron name = "75" type = "motor"  jointName = "2Torso_2ULRotate" />
    <neuron name = "76" type = "motor"  jointName = "2ULRotate_2ULTopLeg" />
    <neuron name = "77" type = "motor"  jointName = "2ULTopLeg_2ULBottomLeg" />
    <neuron name = "78" type = "motor"  jointName = "2Torso_2BRRotate" />
    <neuron name = "79" type = "motor"  jointName = "2BRRotate_2BRTopLeg" />
    <neuron name = "80" type = "motor"  jointName = "2BRTopLeg_2BRBottomLeg" />
    <neuron name = "81" type = "motor"  jointName = "2Torso_2BLRotate" />
    <neuron name = "82" type = "motor"  jointName = "2BLRotate_2BLTopLeg" />
    <neuron name = "83" type = "motor"  jointName = "2BLTopLeg_2BLBottomLeg" />
    <synapse sourceNeuronName = "56" targetNeuronName = "62" weight = "0.18334648465990291" />
    <synapse sourceNeuronName = "56" targetNeuronName = "63" weight = "0.08443042516856641" />
    <synapse sourceNeuronName = "56" targetNeuronName = "64" weight = "0.20105353624663297" />
    <synapse sourceNeuronName = "56" targetNeuronName = "65" weight = "-0.18454973265103303" />
    <synapse sourceNeuronName = "56" targetNeuronName = "66" weight = "-0.27665239439123795" />
    <synapse sourceNeuronName = "56" targetNeuronName = "67" weight = "-0.4048910335621527" />
    <synapse sourceNeuronName = "56" targetNeuronName = "68" weight = "-0.23524687914501108" />
    <synapse sourceNeuronName = "56" targetNeuronName = "69" weight = "-0.3168116368511264" />
    <synapse sourceNeuronName = "56" targetNeuronName = "70" weight = "-0.2974645680643852" />
    <synapse sourceNeuronName = "56" targetNeuronName = "71" weight = "-0.6291608422095929" />
    <synapse sourceNeuronName = "57" targetNeuronName = "62" weight = "0.4021551863383715" />
    <synapse sourceNeuronName = "57" targetNeuronName = "63" weight = "-0.14177573733106463" />
    <synapse sourceNeuronName = "57" targetNeuronName = "64" weight = "-0.24796854870770757" />
    <synapse sourceNeuronName = "57" targetNeuronName = "65" weight = "0.2812456025955514" />
    <synapse sourceNeuronName = "57" targetNeuronName = "66" weight = "0.179184340486861" />
    <synapse sourceNeuronName = "57" targetNeuronName = "67" weight = "-0.07339525140414797" />
    <synapse sourceNeuronName = "57" targetNeuronName = "68" weight = "-0.10804290110357795" />
    <synapse sourceNeuronName = "57" targetNeuronName = "69" weight = "-0.7778929111947925" />
    <synapse sourceNeuronName = "57" targetNeuronName = "70" weight = "-0.29016351597373524" />
    <synapse sourceNeuronName = "57" targetNeuronName = "71" weight = "-0.451808816489368" />
    <synapse sourceNeuronName = "58" targetNeuronName = "62" weight = "0.04415193405354777" />
    <synapse sourceNeuronName = "58" targetNeuronName = "63" weight = "-0.16584260355151922" />
    <synapse sourceNeuronName = "58" targetNeuronName = "64" weight = "0.2806015699208286" />
    <synapse sourceNeuronName = "58" targetNeuronName = "65" weight = "0.867833264166346" />
    <synapse sourceNeuronName = "58" targetNeuronName = "66" weight = "-0.4144910107077323" />
    <synapse sourceNeuronName = "58" targetNeuronName = "67" weight = "0.3759055510948276" />
    <synapse sourceNeuronName = "58" targetNeuronName = "68" weight = "-0.46811466727667966" />
    <synapse sourceNeuronName = "58" targetNeuronName = "69" weight = "-0.37206109768364093" />
    <synapse sourceNeuronName = "58" targetNeuronName = "70" weight = "0.006271052315034114" />
    <synapse sourceNeuronName = "58" targetNeuronName = "71" weight = "-0.017193933355951898" />
    <synapse sourceNeuronName = "59" targetNeuronName = "62" weight = "-0.8737752569089428" />
    <synapse sourceNeuronName = "59" targetNeuronName = "63" weight = "-0.3932771187007425" />
    <synapse sourceNeuronName = "59" targetNeuronName = "64" weight = "-0.09314506689718907" />
    <synapse sourceNeuronName = "59" targetNeuronName = "65" weight = "0.29503780353836523" />
    <synapse sourceNeuronName = "59" targetNeuronName = "66" weight = "-0.11980112975151437" />
    <synapse sourceNeuronName = "59" targetNeuronName = "67" weight = "0.30271204219289477" />
    <synapse sourceNeuronName = "59" targetNeuronName = "68" weight = "0.17917740030694632" />
    <synapse sourceNeuronName = "59" targetNeuronName = "69" weight = "0.246145444445875" />
    <synapse sourceNeuronName = "59" targetNeuronName = "70" weight = "0.06538319312359833" />
    <synapse sourceNeuronName = "59" targetNeuronName = "71" weight = "0.21465186357355628" />
    <synapse sourceNeuronName = "60" targetNeuronName = "62" weight = "-0.5212209821725765" />
    <synapse sourceNeuronName = "60" targetNeuronName = "63" weight = "1.0256582121532125" />
    <synapse sourceNeuronName = "60" targetNeuronName = "64" weight = "-0.10002179865088803" />
    <synapse sourceNeuronName = "60" targetNeuronName = "65" weight = "0.18265485626908484" />
    <synapse sourceNeuronName = "60" targetNeuronName = "66" weight = "-0.19253775463586653" />
    <synapse sourceNeuronName = "60" targetNeuronName = "67" weight = "0.4499176168512131" />
    <synapse sourceNeuronName = "60" targetNeuronName = "68" weight = "0.5111726650300994" />
    <synapse sourceNeuronName = "60" targetNeuronName = "69" weight = "-0.38760442017068997" />
    <synapse sourceNeuronName = "60" targetNeuronName = "70" weight = "0.43328547051193367" />
    <synapse sourceNeuronName = "60" targetNeuronName = "71" weight = "-0.2992437033798815" />
    <synapse sourceNeuronName = "61" targetNeuronName = "62" weight = "-0.03972847617028022" />
    <synapse sourceNeuronName = "61" targetNeuronName = "63" weight = "0.19852107714234357" />
    <synapse sourceNeuronName = "61" targetNeuronName = "64" weight = "-0.07113791018306563" />
    <synapse sourceNeuronName = "61" targetNeuronName = "65" weight = "0.20781829344847513" />
    <synapse sourceNeuronName = "61" targetNeuronName = "66" weight = "0.11117673377087502" />
    <synapse sourceNeuronName = "61" targetNeuronName = "67" weight = "0.06481499987494166" />
    <synapse sourceNeuronName = "61" targetNeuronName = "68" weight = "0.05108157306770607" />
    <synapse sourceNeuronName = "61" targetNeuronName = "69" weight = "-0.03336828682821624" />
    <synapse sourceNeuronName = "61" targetNeuronName = "70" weight = "-0.855165865812099" />
    <synapse sourceNeuronName = "61" targetNeuronName = "71" weight = "-0.1815146206192874" />
    <synapse sourceNeuronName = "62" targetNeuronName = "72" weight = "-0.28670227698956596" />
    <synapse sourceNeuronName = "62" targetNeuronName = "73" weight = "-0.028982631939204813" />
    <synapse sourceNeuronName = "62" targetNeuronName = "74" weight = "0.024313948140598028" />
    <synapse sourceNeuronName = "62" targetNeuronName = "75" weight = "-0.06475456243776795" />
    <synapse sourceNeuronName = "62" targetNeuronName = "76" weight = "-0.12618883400450687" />
    <synapse sourceNeuronName = "62" targetNeuronName = "77" weight = "-0.5278018674347424" />
    <synapse sourceNeuronName = "62" targetNeuronName = "78" weight = "0.13978367613528375" />
    <synapse sourceNeuronName = "62" targetNeuronName = "79" weight = "-0.1815940278639703" />
    <synapse sourceNeuronName = "62" targetNeuronName = "80" weight = "0.31619311060534333" />
    <synapse sourceNeuronName = "62" targetNeuronName = "81" weight = "0.5987882545037972" />
    <synapse sourceNeuronName = "62" targetNeuronName = "82" weight = "0.14835445695773217" />
    <synapse sourceNeuronName = "62" targetNeuronName = "83" weight = "-0.39492900541100995" />
    <synapse sourceNeuronName = "63" targetNeuronName = "72" weight = "0.2894323487054733" />
    <synapse sourceNeuronName = "63" targetNeuronName = "73" weight = "0.12838557211414325" />
    <synapse sourceNeuronName = "63" targetNeuronName = "74" weight = "0.06959393702069915" />
    <synapse sourceNeuronName = "63" targetNeuronName = "75" weight = "-0.07189095623694651" />
    <synapse sourceNeuronName = "63" targetNeuronName = "76" weight = "0.3448456826993663" />
    <synapse sourceNeuronName = "63" targetNeuronName = "77" weight = "-0.6043390913170832" />
    <synapse sourceNeuronName = "63" targetNeuronName = "78" weight = "-0.04480429337601263" />
    <synapse sourceNeuronName = "63" targetNeuronName = "79" weight = "0.3855660286389635" />
    <synapse sourceNeuronName = "63" targetNeuronName = "80" weight = "-0.07850468885301223" />
    <synapse sourceNeuronName = "63" targetNeuronName = "81" weight = "0.20200563516979603" />
    <synapse sourceNeuronName = "63" targetNeuronName = "82" weight = "-0.17681848199263256" />
    <synapse sourceNeuronName = "63" targetNeuronName = "83" weight = "0.10695029082754089" />
    <synapse sourceNeuronName = "64" targetNeuronName = "72" weight = "0.6827824725170746" />
    <synapse sourceNeuronName = "64" targetNeuronName = "73" weight = "0.6603801229414288" />
    <synapse sourceNeuronName = "64" targetNeuronName = "74" weight = "0.23654559389952784" />
    <synapse sourceNeuronName = "64" targetNeuronName = "75" weight = "0.08120279784752683" />
    <synapse sourceNeuronName = "64" targetNeuronName = "76" weight = "0.42597410116943657" />
    <synapse sourceNeuronName = "64" targetNeuronName = "77" weight = "-0.02500535840041935" />
    <synapse sourceNeuronName = "64" targetNeuronName = "78" weight = "0.08605327532489115" />
    <synapse sourceNeuronName = "64" targetNeuronName = "79" weight = "0.7695512153343738" />
    <synapse sourceNeuronName = "64" targetNeuronName = "80" weight = "-0.2616693087081772" />
    <synapse sourceNeuronName = "64" targetNeuronName = "81" weight = "0.04648997373768755" />
    <synapse sourceNeuronName = "64" targetNeuronName = "82" weight = "-0.7041483626558548" />
    <synapse sourceNeuronName = "64" targetNeuronName = "83" weight = "-0.03417872126768782" />
    <synapse sourceNeuronName = "65" targetNeuronName = "72" weight = "-0.3446984915729414" />
    <synapse sourceNeuronName = "65" targetNeuronName = "73" weight = "-0.07805648693585468" />
    <synapse sourceNeuronName = "65" targetNeuronName = "74" weight = "0.1580511589970433" />
    <synapse sourceNeuronName = "65" targetNeuronName = "75" weight = "-0.06956479480728833" />
    <synapse sourceNeuronName = "65" targetNeuronName = "76" weight = "0.24446181754773658" />
    <synapse sourceNeuronName = "65" targetNeuronName = "77" weight = "-0.33191728680948995" />
    <synapse sourceNeuronName = "65" targetNeuronName = "78" weight = "0.34474277181051327" />
    <synapse sourceNeuronName = "65" targetNeuronName = "79" weight = "0.20725189028414254" />
    <synapse sourceNeuronName = "65" targetNeuronName = "80" weight = "-0.1308466117805522" />
    <synapse sourceNeuronName = "65" targetNeuronName = "81" weight = "0.16308539474374295" />
    <synapse sourceNeuronName = "65" targetNeuronName = "82" weight = "0.1392063121139472" />
    <synapse sourceNeuronName = "65" targetNeuronName = "83" weight = "0.15026318007239053" />
    <synapse sourceNeuronName = "66" targetNeuronName = "72" weight = "-0.10277870472802683" />
    <synapse sourceNeuronName = "66" targetNeuronName = "73" weight = "0.07521513812519817" />
    <synapse sourceNeuronName = "66" targetNeuronName = "74" weight = "-0.11696465347032571" />
    <synapse sourceNeuronName = "66" targetNeuronName = "75" weight = "-0.17386972060913874" />
    <synapse sourceNeuronName = "66" targetNeuronName = "76" weight = "-0.22150685063339107" />
    <synapse sourceNeuronName = "66" targetNeuronName = "77" weight = "0.2407391165585309" />
    <synapse sourceNeuronName = "66" targetNeuronName = "78" weight = "-0.16088226427669755" />
    <synapse sourceNeuronName = "66" targetNeuronName = "79" weight = "-0.29137824295032416" />
    <synapse sourceNeuronName = "66" targetNeuronName = "80" weight = "-0.2282675761470085" />
    <synapse sourceNeuronName = "66" targetNeuronName = "81" weight = "-0.26660594392131565" />
    <synapse sourceNeuronName = "66" targetNeuronName = "82" weight = "0.7316930684761136" />
    <synapse sourceNeuronName = "66" targetNeuronName = "83" weight = "0.4953538743895617" />
    <synapse sourceNeuronName = "67" targetNeuronName = "72" weight = "-0.5175466461279464" />
    <synapse sourceNeuronName = "67" targetNeuronName = "73" weight = "-0.20362954045284126" />
    <synapse sourceNeuronName = "67" targetNeuronName = "74" weight = "-0.10804549301038666" />
    <synapse sourceNeuronName = "67" targetNeuronName = "75" weight = "-0.19384857150233725" />
    <synapse sourceNeuronName = "67" targetNeuronName = "76" weight = "0.2057333637287283" />
    <synapse sourceNeuronName = "67" targetNeuronName = "77" weight = "0.537783405551927" />
    <synapse sourceNeuronName = "67" targetNeuronName = "78" weight = "-0.17270841223749483" />
    <synapse sourceNeuronName = "67" targetNeuronName = "79" weight = "-0.7398040511361497" />
    <synapse sourceNeuronName = "67" targetNeuronName = "80" weight = "0.24243676041237772" />
    <synapse sourceNeuronName = "67" targetNeuronName = "81" weight = "0.6644556842036752" />
    <synapse sourceNeuronName = "67" targetNeuronName = "82" weight = "0.00423540002016377" />
    <synapse sourceNeuronName = "67" targetNeuronName = "83" weight = "0.15018953702921095" />
    <synapse sourceNeuronName = "68" targetNeuronName = "72" weight = "0.3773130302555543" />
    <synapse sourceNeuronName = "68" targetNeuronName = "73" weight = "-0.5619996512578946" />
    <synapse sourceNeuronName = "68" targetNeuronName = "74" weight = "-0.6191468455252102" />
    <synapse sourceNeuronName = "68" targetNeuronName = "75" weight = "0.2331740740063004" />
    <synapse sourceNeuronName = "68" targetNeuronName = "76" weight = "-0.4277728874019213" />
    <synapse sourceNeuronName = "68" targetNeuronName = "77" weight = "0.0036893766426615068" />
    <synapse sourceNeuronName = "68" targetNeuronName = "78" weight = "-0.07973655057464109" />
    <synapse sourceNeuronName = "68" targetNeuronName = "79" weight = "0.1397437371064048" />
    <synapse sourceNeuronName = "68" targetNeuronName = "80" weight = "-0.3517675133356171" />
    <synapse sourceNeuronName = "68" targetNeuronName = "81" weight = "-0.33660492009109505" />
    <synapse sourceNeuronName = "68" targetNeuronName = "82" weight = "0.22110750432712292" />
    <synapse sourceNeuronName = "68" targetNeuronName = "83" weight = "-0.27336084981664455" />
    <synapse sourceNeuronName = "69" targetNeuronName = "72" weight = "-0.5304331741604479" />
    <synapse sourceNeuronName = "69" targetNeuronName = "73" weight = "-0.07439474604818416" />
    <synapse sourceNeuronName = "69" targetNeuronName = "74" weight = "0.25026639226856867" />
    <synapse sourceNeuronName = "69" targetNeuronName = "75" weight = "-0.24650224769015444" />
    <synapse sourceNeuronName = "69" targetNeuronName = "76" weight = "0.6352284455733296" />
    <synapse sourceNeuronName = "69" targetNeuronName = "77" weight = "-0.11956555331345393" />
    <synapse sourceNeuronName = "69" targetNeuronName = "78" weight = "0.33829901363659626" />
    <synapse sourceNeuronName = "69" targetNeuronName = "79" weight = "0.00043701649450589807" />
    <synapse sourceNeuronName = "69" targetNeuronName = "80" weight = "0.3047101612517103" />
    <synapse sourceNeuronName = "69" targetNeuronName = "81" weight = "-0.1618294890834685" />
    <synapse sourceNeuronName = "69" targetNeuronName = "82" weight = "-0.12572711087161623" />
    <synapse sourceNeuronName = "69" targetNeuronName = "83" weight = "0.3529307065113324" />
    <synapse sourceNeuronName = "70" targetNeuronName = "72" weight = "-0.051627092842921066" />
    <synapse sourceNeuronName = "70" targetNeuronName = "73" weight = "-0.9373877274733955" />
    <synapse sourceNeuronName = "70" targetNeuronName = "74" weight = "0.9228094819416017" />
    <synapse sourceNeuronName = "70" targetNeuronName = "75" weight = "0.31189664513359777" />
    <synapse sourceNeuronName = "70" targetNeuronName = "76" weight = "-0.2572012186438191" />
    <synapse sourceNeuronName = "70" targetNeuronName = "77" weight = "-0.12057061555302646" />
    <synapse sourceNeuronName = "70" targetNeuronName = "78" weight = "0.11088489130405917" />
    <synapse sourceNeuronName = "70" targetNeuronName = "79" weight = "-0.3823212207151305" />
    <synapse sourceNeuronName = "70" targetNeuronName = "80" weight = "-0.49506997872183295" />
    <synapse sourceNeuronName = "70" targetNeuronName = "81" weight = "0.4013734273962449" />
    <synapse sourceNeuronName = "70" targetNeuronName = "82" weight = "-0.0026170427629624076" />
    <synapse sourceNeuronName = "70" targetNeuronName = "83" weight = "0.6639827413130864" />
    <synapse sourceNeuronName = "71" targetNeuronName = "72" weight = "0.47686405705634627" />
    <synapse sourceNeuronName = "71" targetNeuronName = "73" weight = "-0.39831944608580616" />
    <synapse sourceNeuronName = "71" targetNeuronName = "74" weight = "-0.28381207844837264" />
    <synapse sourceNeuronName = "71" targetNeuronName = "75" weight = "0.5384591187458647" />
    <synapse sourceNeuronName = "71" targetNeuronName = "76" weight = "-0.20681399626291352" />
    <synapse sourceNeuronName = "71" targetNeuronName = "77" weight = "-0.25374008458974695" />
    <synapse sourceNeuronName = "71" targetNeuronName = "78" weight = "0.24722987940106567" />
    <synapse sourceNeuronName = "71" targetNeuronName = "79" weight = "0.3158923074253427" />
    <synapse sourceNeuronName = "71" targetNeuronName = "80" weight = "-0.2605511354054959" />
    <synapse sourceNeuronName = "71" targetNeuronName = "81" weight = "-0.13632723982950906" />
    <synapse sourceNeuronName = "71" targetNeuronName = "82" weight = "0.5623614066442151" />
    <synapse sourceNeuronName = "71" targetNeuronName = "83" weight = "-0.45211821342839686" />
    <synapse sourceNeuronName = "62" targetNeuronName = "62" weight = "-0.07210503441840704" />
    <synapse sourceNeuronName = "63" targetNeuronName = "63" weight = "0.12152691458854858" />
    <synapse sourceNeuronName = "64" targetNeuronName = "64" weight = "-0.4465347667281752" />
    <synapse sourceNeuronName = "65" targetNeuronName = "65" weight = "0.01321642396015501" />
    <synapse sourceNeuronName = "66" targetNeuronName = "66" weight = "0.4047074631215781" />
    <synapse sourceNeuronName = "67" targetNeuronName = "67" weight = "0.4892452592681277" />
    <synapse sourceNeuronName = "68" targetNeuronName = "68" weight = "0.39529188423363043" />
    <synapse sourceNeuronName = "69" targetNeuronName = "69" weight = "0.03827464280075828" />
    <synapse sourceNeuronName = "70" targetNeuronName = "70" weight = "0.21829491264516002" />
    <synapse sourceNeuronName = "71" targetNeuronName = "71" weight = "-0.03177138639655598" />
</neuralNetwork>