<neuralNetwork>
    <neuron name = "0" type = "sensor" linkName = "0TopSensor" />
    <neuron name = "1" type = "sensor" linkName = "0BottomSensor" />
    <neuron name = "2" type = "sensor" linkName = "0URBottomLeg" />
    <neuron name = "3" type = "sensor" linkName = "0ULBottomLeg" />
    <neuron name = "4" type = "sensor" linkName = "0BRBottomLeg" />
    <neuron name = "5" type = "sensor" linkName = "0BLBottomLeg" />
    <neuron name = "6" type = "hidden" />
    <neuron name = "7" type = "hidden" />
    <neuron name = "8" type = "hidden" />
    <neuron name = "9" type = "hidden" />
    <neuron name = "10" type = "hidden" />
    <neuron name = "11" type = "hidden" />
    <neuron name = "12" type = "hidden" />
    <neuron name = "13" type = "hidden" />
    <neuron name = "14" type = "hidden" />
    <neuron name = "15" type = "hidden" />
    <neuron name = "16" type = "motor"  jointName = "0Torso_0URRotate" />
    <neuron name = "17" type = "motor"  jointName = "0URRotate_0URTopLeg" />
    <neuron name = "18" type = "motor"  jointName = "0URTopLeg_0URBottomLeg" />
    <neuron name = "19" type = "motor"  jointName = "0Torso_0ULRotate" />
    <neuron name = "20" type = "motor"  jointName = "0ULRotate_0ULTopLeg" />
    <neuron name = "21" type = "motor"  jointName = "0ULTopLeg_0ULBottomLeg" />
    <neuron name = "22" type = "motor"  jointName = "0Torso_0BRRotate" />
    <neuron name = "23" type = "motor"  jointName = "0BRRotate_0BRTopLeg" />
    <neuron name = "24" type = "motor"  jointName = "0BRTopLeg_0BRBottomLeg" />
    <neuron name = "25" type = "motor"  jointName = "0Torso_0BLRotate" />
    <neuron name = "26" type = "motor"  jointName = "0BLRotate_0BLTopLeg" />
    <neuron name = "27" type = "motor"  jointName = "0BLTopLeg_0BLBottomLeg" />
    <synapse sourceNeuronName = "0" targetNeuronName = "6" weight = "0.42885626161544926" />
    <synapse sourceNeuronName = "0" targetNeuronName = "7" weight = "-0.029285426613195463" />
    <synapse sourceNeuronName = "0" targetNeuronName = "8" weight = "0.0021482028663874463" />
    <synapse sourceNeuronName = "0" targetNeuronName = "9" weight = "-0.07141008279792938" />
    <synapse sourceNeuronName = "0" targetNeuronName = "10" weight = "-0.13600691739079568" />
    <synapse sourceNeuronName = "0" targetNeuronName = "11" weight = "-0.5173295785379834" />
    <synapse sourceNeuronName = "0" targetNeuronName = "12" weight = "0.588806890755215" />
    <synapse sourceNeuronName = "0" targetNeuronName = "13" weight = "0.378045339703433" />
    <synapse sourceNeuronName = "0" targetNeuronName = "14" weight = "-0.06570632001244481" />
    <synapse sourceNeuronName = "0" targetNeuronName = "15" weight = "0.15568295410495991" />
    <synapse sourceNeuronName = "1" targetNeuronName = "6" weight = "-0.4469219190856824" />
    <synapse sourceNeuronName = "1" targetNeuronName = "7" weight = "-0.2854059002444739" />
    <synapse sourceNeuronName = "1" targetNeuronName = "8" weight = "-0.2013611325545285" />
    <synapse sourceNeuronName = "1" targetNeuronName = "9" weight = "0.43901869723308345" />
    <synapse sourceNeuronName = "1" targetNeuronName = "10" weight = "0.06447600717531485" />
    <synapse sourceNeuronName = "1" targetNeuronName = "11" weight = "0.32412827329078736" />
    <synapse sourceNeuronName = "1" targetNeuronName = "12" weight = "-0.5254039192371627" />
    <synapse sourceNeuronName = "1" targetNeuronName = "13" weight = "-0.18349231099833144" />
    <synapse sourceNeuronName = "1" targetNeuronName = "14" weight = "0.1808509110277954" />
    <synapse sourceNeuronName = "1" targetNeuronName = "15" weight = "-0.2584325599129713" />
    <synapse sourceNeuronName = "2" targetNeuronName = "6" weight = "-0.18802225620910554" />
    <synapse sourceNeuronName = "2" targetNeuronName = "7" weight = "-0.34954271597675063" />
    <synapse sourceNeuronName = "2" targetNeuronName = "8" weight = "0.011241970253573298" />
    <synapse sourceNeuronName = "2" targetNeuronName = "9" weight = "-0.41058359560037117" />
    <synapse sourceNeuronName = "2" targetNeuronName = "10" weight = "0.13641747139533128" />
    <synapse sourceNeuronName = "2" targetNeuronName = "11" weight = "0.3573995387189577" />
    <synapse sourceNeuronName = "2" targetNeuronName = "12" weight = "0.07312966362816106" />
    <synapse sourceNeuronName = "2" targetNeuronName = "13" weight = "0.19322061844660557" />
    <synapse sourceNeuronName = "2" targetNeuronName = "14" weight = "0.3177919274760126" />
    <synapse sourceNeuronName = "2" targetNeuronName = "15" weight = "0.34490144023911934" />
    <synapse sourceNeuronName = "3" targetNeuronName = "6" weight = "0.02686699743826582" />
    <synapse sourceNeuronName = "3" targetNeuronName = "7" weight = "-0.34339120862913697" />
    <synapse sourceNeuronName = "3" targetNeuronName = "8" weight = "0.27832106886669467" />
    <synapse sourceNeuronName = "3" targetNeuronName = "9" weight = "-0.34903234884551604" />
    <synapse sourceNeuronName = "3" targetNeuronName = "10" weight = "0.1279357198003313" />
    <synapse sourceNeuronName = "3" targetNeuronName = "11" weight = "0.41548607026038625" />
    <synapse sourceNeuronName = "3" targetNeuronName = "12" weight = "-0.3550194970761744" />
    <synapse sourceNeuronName = "3" targetNeuronName = "13" weight = "-0.12430475922572776" />
    <synapse sourceNeuronName = "3" targetNeuronName = "14" weight = "-0.37228110326805" />
    <synapse sourceNeuronName = "3" targetNeuronName = "15" weight = "-0.4609381344603317" />
    <synapse sourceNeuronName = "4" targetNeuronName = "6" weight = "0.5787903151100102" />
    <synapse sourceNeuronName = "4" targetNeuronName = "7" weight = "-0.17925061789603738" />
    <synapse sourceNeuronName = "4" targetNeuronName = "8" weight = "0.32297469971915826" />
    <synapse sourceNeuronName = "4" targetNeuronName = "9" weight = "-0.6730176671199326" />
    <synapse sourceNeuronName = "4" targetNeuronName = "10" weight = "0.3059000106787676" />
    <synapse sourceNeuronName = "4" targetNeuronName = "11" weight = "0.19902855152214785" />
    <synapse sourceNeuronName = "4" targetNeuronName = "12" weight = "-0.4815748555059507" />
    <synapse sourceNeuronName = "4" targetNeuronName = "13" weight = "-0.11239476162240632" />
    <synapse sourceNeuronName = "4" targetNeuronName = "14" weight = "-0.12100673260092878" />
    <synapse sourceNeuronName = "4" targetNeuronName = "15" weight = "0.24347074161485818" />
    <synapse sourceNeuronName = "5" targetNeuronName = "6" weight = "0.015697271353468416" />
    <synapse sourceNeuronName = "5" targetNeuronName = "7" weight = "-0.40584826113786643" />
    <synapse sourceNeuronName = "5" targetNeuronName = "8" weight = "0.12773038428239705" />
    <synapse sourceNeuronName = "5" targetNeuronName = "9" weight = "0.2718736866996461" />
    <synapse sourceNeuronName = "5" targetNeuronName = "10" weight = "-0.04957877831019741" />
    <synapse sourceNeuronName = "5" targetNeuronName = "11" weight = "-0.16816348250993224" />
    <synapse sourceNeuronName = "5" targetNeuronName = "12" weight = "-0.07808613615500612" />
    <synapse sourceNeuronName = "5" targetNeuronName = "13" weight = "-0.17848242136249706" />
    <synapse sourceNeuronName = "5" targetNeuronName = "14" weight = "-0.1415466650650392" />
    <synapse sourceNeuronName = "5" targetNeuronName = "15" weight = "-0.00451573995183709" />
    <synapse sourceNeuronName = "6" targetNeuronName = "16" weight = "-0.2482668834266099" />
    <synapse sourceNeuronName = "6" targetNeuronName = "17" weight = "0.9351077961701777" />
    <synapse sourceNeuronName = "6" targetNeuronName = "18" weight = "0.13014817885858915" />
    <synapse sourceNeuronName = "6" targetNeuronName = "19" weight = "-0.6523060540831525" />
    <synapse sourceNeuronName = "6" targetNeuronName = "20" weight = "-0.2439240969839322" />
    <synapse sourceNeuronName = "6" targetNeuronName = "21" weight = "0.8150889689371186" />
    <synapse sourceNeuronName = "6" targetNeuronName = "22" weight = "-0.23827184982425045" />
    <synapse sourceNeuronName = "6" targetNeuronName = "23" weight = "-0.024471771870061613" />
    <synapse sourceNeuronName = "6" targetNeuronName = "24" weight = "-0.23531204662489827" />
    <synapse sourceNeuronName = "6" targetNeuronName = "25" weight = "-0.25774470629444013" />
    <synapse sourceNeuronName = "6" targetNeuronName = "26" weight = "0.40571043800288054" />
    <synapse sourceNeuronName = "6" targetNeuronName = "27" weight = "-0.6891302005086392" />
    <synapse sourceNeuronName = "7" targetNeuronName = "16" weight = "0.2603061165366043" />
    <synapse sourceNeuronName = "7" targetNeuronName = "17" weight = "-0.06240429430758418" />
    <synapse sourceNeuronName = "7" targetNeuronName = "18" weight = "-0.07029348432296151" />
    <synapse sourceNeuronName = "7" targetNeuronName = "19" weight = "-0.30811190228509583" />
    <synapse sourceNeuronName = "7" targetNeuronName = "20" weight = "0.5084061178944406" />
    <synapse sourceNeuronName = "7" targetNeuronName = "21" weight = "0.33944319213229224" />
    <synapse sourceNeuronName = "7" targetNeuronName = "22" weight = "0.3029188989652555" />
    <synapse sourceNeuronName = "7" targetNeuronName = "23" weight = "0.06062419048432791" />
    <synapse sourceNeuronName = "7" targetNeuronName = "24" weight = "0.10802464127999892" />
    <synapse sourceNeuronName = "7" targetNeuronName = "25" weight = "-0.17539407433553184" />
    <synapse sourceNeuronName = "7" targetNeuronName = "26" weight = "0.3247076635373855" />
    <synapse sourceNeuronName = "7" targetNeuronName = "27" weight = "-0.10962054686225026" />
    <synapse sourceNeuronName = "8" targetNeuronName = "16" weight = "0.18420973816828679" />
    <synapse sourceNeuronName = "8" targetNeuronName = "17" weight = "0.3157529458497735" />
    <synapse sourceNeuronName = "8" targetNeuronName = "18" weight = "0.1801180898558577" />
    <synapse sourceNeuronName = "8" targetNeuronName = "19" weight = "-0.28142693486432724" />
    <synapse sourceNeuronName = "8" targetNeuronName = "20" weight = "0.22075208030943505" />
    <synapse sourceNeuronName = "8" targetNeuronName = "21" weight = "0.7715767824605902" />
    <synapse sourceNeuronName = "8" targetNeuronName = "22" weight = "-0.29416642353790023" />
    <synapse sourceNeuronName = "8" targetNeuronName = "23" weight = "-0.00520002960334464" />
    <synapse sourceNeuronName = "8" targetNeuronName = "24" weight = "0.018464348974461815" />
    <synapse sourceNeuronName = "8" targetNeuronName = "25" weight = "0.49980686483042036" />
    <synapse sourceNeuronName = "8" targetNeuronName = "26" weight = "0.3082749816529847" />
    <synapse sourceNeuronName = "8" targetNeuronName = "27" weight = "0.7498279997572181" />
    <synapse sourceNeuronName = "9" targetNeuronName = "16" weight = "-0.32397778527342064" />
    <synapse sourceNeuronName = "9" targetNeuronName = "17" weight = "0.06638995527023227" />
    <synapse sourceNeuronName = "9" targetNeuronName = "18" weight = "-0.6960358975323031" />
    <synapse sourceNeuronName = "9" targetNeuronName = "19" weight = "0.3467373146940698" />
    <synapse sourceNeuronName = "9" targetNeuronName = "20" weight = "-0.305494247003784" />
    <synapse sourceNeuronName = "9" targetNeuronName = "21" weight = "-0.3284115293469047" />
    <synapse sourceNeuronName = "9" targetNeuronName = "22" weight = "0.28679578621403723" />
    <synapse sourceNeuronName = "9" targetNeuronName = "23" weight = "0.24016386161484615" />
    <synapse sourceNeuronName = "9" targetNeuronName = "24" weight = "-0.05366358010419549" />
    <synapse sourceNeuronName = "9" targetNeuronName = "25" weight = "-0.07887150626226423" />
    <synapse sourceNeuronName = "9" targetNeuronName = "26" weight = "-0.31659372608420455" />
    <synapse sourceNeuronName = "9" targetNeuronName = "27" weight = "0.1120043331295181" />
    <synapse sourceNeuronName = "10" targetNeuronName = "16" weight = "-0.3394473125597606" />
    <synapse sourceNeuronName = "10" targetNeuronName = "17" weight = "-0.17739388019797653" />
    <synapse sourceNeuronName = "10" targetNeuronName = "18" weight = "-0.9071141446323263" />
    <synapse sourceNeuronName = "10" targetNeuronName = "19" weight = "0.013103210587206253" />
    <synapse sourceNeuronName = "10" targetNeuronName = "20" weight = "-0.15392916922707534" />
    <synapse sourceNeuronName = "10" targetNeuronName = "21" weight = "0.395992968052229" />
    <synapse sourceNeuronName = "10" targetNeuronName = "22" weight = "-0.02595527833444345" />
    <synapse sourceNeuronName = "10" targetNeuronName = "23" weight = "0.07062448194137555" />
    <synapse sourceNeuronName = "10" targetNeuronName = "24" weight = "-0.21171466505791117" />
    <synapse sourceNeuronName = "10" targetNeuronName = "25" weight = "-0.32515457159237615" />
    <synapse sourceNeuronName = "10" targetNeuronName = "26" weight = "-0.03313939591185653" />
    <synapse sourceNeuronName = "10" targetNeuronName = "27" weight = "0.041907207529384524" />
    <synapse sourceNeuronName = "11" targetNeuronName = "16" weight = "0.40355628709029007" />
    <synapse sourceNeuronName = "11" targetNeuronName = "17" weight = "0.5897506422540042" />
    <synapse sourceNeuronName = "11" targetNeuronName = "18" weight = "-0.1547178795124198" />
    <synapse sourceNeuronName = "11" targetNeuronName = "19" weight = "-0.1078405077445361" />
    <synapse sourceNeuronName = "11" targetNeuronName = "20" weight = "-0.2111939568240931" />
    <synapse sourceNeuronName = "11" targetNeuronName = "21" weight = "0.28923723631278164" />
    <synapse sourceNeuronName = "11" targetNeuronName = "22" weight = "-0.7774260055231583" />
    <synapse sourceNeuronName = "11" targetNeuronName = "23" weight = "0.10870462200364933" />
    <synapse sourceNeuronName = "11" targetNeuronName = "24" weight = "0.1436494437708434" />
    <synapse sourceNeuronName = "11" targetNeuronName = "25" weight = "-0.08286044392265941" />
    <synapse sourceNeuronName = "11" targetNeuronName = "26" weight = "-0.20932375803690598" />
    <synapse sourceNeuronName = "11" targetNeuronName = "27" weight = "0.3367618959754909" />
    <synapse sourceNeuronName = "12" targetNeuronName = "16" weight = "0.16759138786803718" />
    <synapse sourceNeuronName = "12" targetNeuronName = "17" weight = "-0.13788073867956024" />
    <synapse sourceNeuronName = "12" targetNeuronName = "18" weight = "-0.2330741816903681" />
    <synapse sourceNeuronName = "12" targetNeuronName = "19" weight = "-0.1083538427814177" />
    <synapse sourceNeuronName = "12" targetNeuronName = "20" weight = "0.3832797232957553" />
    <synapse sourceNeuronName = "12" targetNeuronName = "21" weight = "0.29727949278526555" />
    <synapse sourceNeuronName = "12" targetNeuronName = "22" weight = "-0.5577235437062439" />
    <synapse sourceNeuronName = "12" targetNeuronName = "23" weight = "-0.07126949986064787" />
    <synapse sourceNeuronName = "12" targetNeuronName = "24" weight = "-0.17165741069426727" />
    <synapse sourceNeuronName = "12" targetNeuronName = "25" weight = "0.14273544331668148" />
    <synapse sourceNeuronName = "12" targetNeuronName = "26" weight = "-0.28665212631421133" />
    <synapse sourceNeuronName = "12" targetNeuronName = "27" weight = "-0.6430921799031231" />
    <synapse sourceNeuronName = "13" targetNeuronName = "16" weight = "-0.5255733829985751" />
    <synapse sourceNeuronName = "13" targetNeuronName = "17" weight = "-0.03144321491070068" />
    <synapse sourceNeuronName = "13" targetNeuronName = "18" weight = "0.12023735111201862" />
    <synapse sourceNeuronName = "13" targetNeuronName = "19" weight = "-0.09284300076316383" />
    <synapse sourceNeuronName = "13" targetNeuronName = "20" weight = "-0.3134579530878958" />
    <synapse sourceNeuronName = "13" targetNeuronName = "21" weight = "-0.03917213872786411" />
    <synapse sourceNeuronName = "13" targetNeuronName = "22" weight = "0.14415667501777862" />
    <synapse sourceNeuronName = "13" targetNeuronName = "23" weight = "0.3185547676991427" />
    <synapse sourceNeuronName = "13" targetNeuronName = "24" weight = "-0.27015663270388013" />
    <synapse sourceNeuronName = "13" targetNeuronName = "25" weight = "0.6706732571407162" />
    <synapse sourceNeuronName = "13" targetNeuronName = "26" weight = "0.1788735917667299" />
    <synapse sourceNeuronName = "13" targetNeuronName = "27" weight = "-0.1776782382626455" />
    <synapse sourceNeuronName = "14" targetNeuronName = "16" weight = "0.04988942171762284" />
    <synapse sourceNeuronName = "14" targetNeuronName = "17" weight = "-0.06066537482629089" />
    <synapse sourceNeuronName = "14" targetNeuronName = "18" weight = "-0.4818102239285609" />
    <synapse sourceNeuronName = "14" targetNeuronName = "19" weight = "-0.17052408476499897" />
    <synapse sourceNeuronName = "14" targetNeuronName = "20" weight = "0.03305025510282623" />
    <synapse sourceNeuronName = "14" targetNeuronName = "21" weight = "-0.35308219036941685" />
    <synapse sourceNeuronName = "14" targetNeuronName = "22" weight = "0.4494437207261801" />
    <synapse sourceNeuronName = "14" targetNeuronName = "23" weight = "-0.08072325453690483" />
    <synapse sourceNeuronName = "14" targetNeuronName = "24" weight = "-0.03564997400811388" />
    <synapse sourceNeuronName = "14" targetNeuronName = "25" weight = "0.11739730409541216" />
    <synapse sourceNeuronName = "14" targetNeuronName = "26" weight = "0.09496407801732334" />
    <synapse sourceNeuronName = "14" targetNeuronName = "27" weight = "0.37154479493520787" />
    <synapse sourceNeuronName = "15" targetNeuronName = "16" weight = "0.16324133750132885" />
    <synapse sourceNeuronName = "15" targetNeuronName = "17" weight = "-0.9159357087339686" />
    <synapse sourceNeuronName = "15" targetNeuronName = "18" weight = "0.06827307939483751" />
    <synapse sourceNeuronName = "15" targetNeuronName = "19" weight = "-0.2626417479490905" />
    <synapse sourceNeuronName = "15" targetNeuronName = "20" weight = "0.38075801076997934" />
    <synapse sourceNeuronName = "15" targetNeuronName = "21" weight = "0.29774263801156586" />
    <synapse sourceNeuronName = "15" targetNeuronName = "22" weight = "-0.48256934485890285" />
    <synapse sourceNeuronName = "15" targetNeuronName = "23" weight = "0.4233556790426432" />
    <synapse sourceNeuronName = "15" targetNeuronName = "24" weight = "0.017215917789522205" />
    <synapse sourceNeuronName = "15" targetNeuronName = "25" weight = "-0.39041010775880736" />
    <synapse sourceNeuronName = "15" targetNeuronName = "26" weight = "0.23329451100945767" />
    <synapse sourceNeuronName = "15" targetNeuronName = "27" weight = "-0.4071444088691796" />
    <synapse sourceNeuronName = "6" targetNeuronName = "6" weight = "-0.41484400239606034" />
    <synapse sourceNeuronName = "7" targetNeuronName = "7" weight = "-0.44218737984715983" />
    <synapse sourceNeuronName = "8" targetNeuronName = "8" weight = "0.008113245658068993" />
    <synapse sourceNeuronName = "9" targetNeuronName = "9" weight = "0.22165929605195767" />
    <synapse sourceNeuronName = "10" targetNeuronName = "10" weight = "0.44451590439192845" />
    <synapse sourceNeuronName = "11" targetNeuronName = "11" weight = "-0.0439913709511212" />
    <synapse sourceNeuronName = "12" targetNeuronName = "12" weight = "-0.14581585976916264" />
    <synapse sourceNeuronName = "13" targetNeuronName = "13" weight = "0.34009079240038653" />
    <synapse sourceNeuronName = "14" targetNeuronName = "14" weight = "0.7787501888126995" />
    <synapse sourceNeuronName = "15" targetNeuronName = "15" weight = "-0.3557358407318694" />
</neuralNetwork>