<neuralNetwork>
    <neuron name = "28" type = "sensor" linkName = "1TopSensor" />
    <neuron name = "29" type = "sensor" linkName = "1BottomSensor" />
    <neuron name = "30" type = "sensor" linkName = "1URBottomLeg" />
    <neuron name = "31" type = "sensor" linkName = "1ULBottomLeg" />
    <neuron name = "32" type = "sensor" linkName = "1BRBottomLeg" />
    <neuron name = "33" type = "sensor" linkName = "1BLBottomLeg" />
    <neuron name = "34" type = "hidden" />
    <neuron name = "35" type = "hidden" />
    <neuron name = "36" type = "hidden" />
    <neuron name = "37" type = "hidden" />
    <neuron name = "38" type = "hidden" />
    <neuron name = "39" type = "hidden" />
    <neuron name = "40" type = "hidden" />
    <neuron name = "41" type = "hidden" />
    <neuron name = "42" type = "hidden" />
    <neuron name = "43" type = "hidden" />
    <neuron name = "44" type = "motor"  jointName = "1Torso_1URRotate" />
    <neuron name = "45" type = "motor"  jointName = "1URRotate_1URTopLeg" />
    <neuron name = "46" type = "motor"  jointName = "1URTopLeg_1URBottomLeg" />
    <neuron name = "47" type = "motor"  jointName = "1Torso_1ULRotate" />
    <neuron name = "48" type = "motor"  jointName = "1ULRotate_1ULTopLeg" />
    <neuron name = "49" type = "motor"  jointName = "1ULTopLeg_1ULBottomLeg" />
    <neuron name = "50" type = "motor"  jointName = "1Torso_1BRRotate" />
    <neuron name = "51" type = "motor"  jointName = "1BRRotate_1BRTopLeg" />
    <neuron name = "52" type = "motor"  jointName = "1BRTopLeg_1BRBottomLeg" />
    <neuron name = "53" type = "motor"  jointName = "1Torso_1BLRotate" />
    <neuron name = "54" type = "motor"  jointName = "1BLRotate_1BLTopLeg" />
    <neuron name = "55" type = "motor"  jointName = "1BLTopLeg_1BLBottomLeg" />
    <synapse sourceNeuronName = "28" targetNeuronName = "34" weight = "-0.1375566541281797" />
    <synapse sourceNeuronName = "28" targetNeuronName = "35" weight = "0.29311782706212863" />
    <synapse sourceNeuronName = "28" targetNeuronName = "36" weight = "0.283338356750934" />
    <synapse sourceNeuronName = "28" targetNeuronName = "37" weight = "0.09024393005681644" />
    <synapse sourceNeuronName = "28" targetNeuronName = "38" weight = "0.09473807918552914" />
    <synapse sourceNeuronName = "28" targetNeuronName = "39" weight = "0.3782294318580662" />
    <synapse sourceNeuronName = "28" targetNeuronName = "40" weight = "-0.11697856654442836" />
    <synapse sourceNeuronName = "28" targetNeuronName = "41" weight = "0.0034955979700604396" />
    <synapse sourceNeuronName = "28" targetNeuronName = "42" weight = "-0.2744042472123285" />
    <synapse sourceNeuronName = "28" targetNeuronName = "43" weight = "0.37347970950259923" />
    <synapse sourceNeuronName = "29" targetNeuronName = "34" weight = "0.2559415844068119" />
    <synapse sourceNeuronName = "29" targetNeuronName = "35" weight = "-0.40944089301998293" />
    <synapse sourceNeuronName = "29" targetNeuronName = "36" weight = "-0.36788412904377465" />
    <synapse sourceNeuronName = "29" targetNeuronName = "37" weight = "0.2809489772328115" />
    <synapse sourceNeuronName = "29" targetNeuronName = "38" weight = "0.2088940125006984" />
    <synapse sourceNeuronName = "29" targetNeuronName = "39" weight = "-0.22891754080499907" />
    <synapse sourceNeuronName = "29" targetNeuronName = "40" weight = "-0.2094911672601832" />
    <synapse sourceNeuronName = "29" targetNeuronName = "41" weight = "-0.03639043667829327" />
    <synapse sourceNeuronName = "29" targetNeuronName = "42" weight = "-0.6746430056740058" />
    <synapse sourceNeuronName = "29" targetNeuronName = "43" weight = "0.02372410805544356" />
    <synapse sourceNeuronName = "30" targetNeuronName = "34" weight = "-0.14803335253109673" />
    <synapse sourceNeuronName = "30" targetNeuronName = "35" weight = "0.2458477522200343" />
    <synapse sourceNeuronName = "30" targetNeuronName = "36" weight = "-0.5623421839567986" />
    <synapse sourceNeuronName = "30" targetNeuronName = "37" weight = "-0.1995124102309749" />
    <synapse sourceNeuronName = "30" targetNeuronName = "38" weight = "0.17876622099313913" />
    <synapse sourceNeuronName = "30" targetNeuronName = "39" weight = "0.5196810650061516" />
    <synapse sourceNeuronName = "30" targetNeuronName = "40" weight = "-0.2374240098527234" />
    <synapse sourceNeuronName = "30" targetNeuronName = "41" weight = "-0.1819102590481552" />
    <synapse sourceNeuronName = "30" targetNeuronName = "42" weight = "0.32405562605069566" />
    <synapse sourceNeuronName = "30" targetNeuronName = "43" weight = "0.04318051130691589" />
    <synapse sourceNeuronName = "31" targetNeuronName = "34" weight = "-0.019079221593715077" />
    <synapse sourceNeuronName = "31" targetNeuronName = "35" weight = "0.14174017580547854" />
    <synapse sourceNeuronName = "31" targetNeuronName = "36" weight = "0.3302034186638127" />
    <synapse sourceNeuronName = "31" targetNeuronName = "37" weight = "-0.009345673410781847" />
    <synapse sourceNeuronName = "31" targetNeuronName = "38" weight = "0.42692984125447986" />
    <synapse sourceNeuronName = "31" targetNeuronName = "39" weight = "-0.1059696923701137" />
    <synapse sourceNeuronName = "31" targetNeuronName = "40" weight = "0.13149884311281881" />
    <synapse sourceNeuronName = "31" targetNeuronName = "41" weight = "0.19890902357848356" />
    <synapse sourceNeuronName = "31" targetNeuronName = "42" weight = "0.36862274336109613" />
    <synapse sourceNeuronName = "31" targetNeuronName = "43" weight = "-0.475591800322832" />
    <synapse sourceNeuronName = "32" targetNeuronName = "34" weight = "-0.07920593587720562" />
    <synapse sourceNeuronName = "32" targetNeuronName = "35" weight = "0.7873029123846577" />
    <synapse sourceNeuronName = "32" targetNeuronName = "36" weight = "0.06521960699027013" />
    <synapse sourceNeuronName = "32" targetNeuronName = "37" weight = "0.010196194172718023" />
    <synapse sourceNeuronName = "32" targetNeuronName = "38" weight = "0.2086567022433129" />
    <synapse sourceNeuronName = "32" targetNeuronName = "39" weight = "-0.24879865614819052" />
    <synapse sourceNeuronName = "32" targetNeuronName = "40" weight = "0.4951812650796563" />
    <synapse sourceNeuronName = "32" targetNeuronName = "41" weight = "-0.21823739925178953" />
    <synapse sourceNeuronName = "32" targetNeuronName = "42" weight = "-0.5685022046155574" />
    <synapse sourceNeuronName = "32" targetNeuronName = "43" weight = "-0.540126679856198" />
    <synapse sourceNeuronName = "33" targetNeuronName = "34" weight = "-0.5592959742034116" />
    <synapse sourceNeuronName = "33" targetNeuronName = "35" weight = "-0.1127192637658844" />
    <synapse sourceNeuronName = "33" targetNeuronName = "36" weight = "-0.39505770405531604" />
    <synapse sourceNeuronName = "33" targetNeuronName = "37" weight = "0.10856399642640004" />
    <synapse sourceNeuronName = "33" targetNeuronName = "38" weight = "-0.22906876945226523" />
    <synapse sourceNeuronName = "33" targetNeuronName = "39" weight = "0.4764925224417549" />
    <synapse sourceNeuronName = "33" targetNeuronName = "40" weight = "0.1810173597832097" />
    <synapse sourceNeuronName = "33" targetNeuronName = "41" weight = "-0.1821226083366642" />
    <synapse sourceNeuronName = "33" targetNeuronName = "42" weight = "0.15344148292088863" />
    <synapse sourceNeuronName = "33" targetNeuronName = "43" weight = "0.41298717124071205" />
    <synapse sourceNeuronName = "34" targetNeuronName = "44" weight = "-0.0117883536159795" />
    <synapse sourceNeuronName = "34" targetNeuronName = "45" weight = "0.2375314852850095" />
    <synapse sourceNeuronName = "34" targetNeuronName = "46" weight = "0.3717510239652344" />
    <synapse sourceNeuronName = "34" targetNeuronName = "47" weight = "-1.0887002301485516" />
    <synapse sourceNeuronName = "34" targetNeuronName = "48" weight = "-0.32915601282783014" />
    <synapse sourceNeuronName = "34" targetNeuronName = "49" weight = "0.2710741628258709" />
    <synapse sourceNeuronName = "34" targetNeuronName = "50" weight = "-0.3273106862260652" />
    <synapse sourceNeuronName = "34" targetNeuronName = "51" weight = "0.1717755393325609" />
    <synapse sourceNeuronName = "34" targetNeuronName = "52" weight = "0.08686991666770902" />
    <synapse sourceNeuronName = "34" targetNeuronName = "53" weight = "-0.004774585077286632" />
    <synapse sourceNeuronName = "34" targetNeuronName = "54" weight = "-0.12449633007874918" />
    <synapse sourceNeuronName = "34" targetNeuronName = "55" weight = "-0.43156373358990396" />
    <synapse sourceNeuronName = "35" targetNeuronName = "44" weight = "-0.33003096107144425" />
    <synapse sourceNeuronName = "35" targetNeuronName = "45" weight = "0.11374325635992368" />
    <synapse sourceNeuronName = "35" targetNeuronName = "46" weight = "0.26682443971477826" />
    <synapse sourceNeuronName = "35" targetNeuronName = "47" weight = "-0.16221422460683574" />
    <synapse sourceNeuronName = "35" targetNeuronName = "48" weight = "0.7401772221896528" />
    <synapse sourceNeuronName = "35" targetNeuronName = "49" weight = "-0.2373338622388762" />
    <synapse sourceNeuronName = "35" targetNeuronName = "50" weight = "0.15246464607405813" />
    <synapse sourceNeuronName = "35" targetNeuronName = "51" weight = "0.21272876380173206" />
    <synapse sourceNeuronName = "35" targetNeuronName = "52" weight = "0.17548235558599928" />
    <synapse sourceNeuronName = "35" targetNeuronName = "53" weight = "-0.773190437637164" />
    <synapse sourceNeuronName = "35" targetNeuronName = "54" weight = "-0.15420708446884795" />
    <synapse sourceNeuronName = "35" targetNeuronName = "55" weight = "0.19313976060555055" />
    <synapse sourceNeuronName = "36" targetNeuronName = "44" weight = "0.19695850864983594" />
    <synapse sourceNeuronName = "36" targetNeuronName = "45" weight = "-0.14578778140397994" />
    <synapse sourceNeuronName = "36" targetNeuronName = "46" weight = "0.21847234919369454" />
    <synapse sourceNeuronName = "36" targetNeuronName = "47" weight = "-0.4573181611963437" />
    <synapse sourceNeuronName = "36" targetNeuronName = "48" weight = "-0.09933818612163604" />
    <synapse sourceNeuronName = "36" targetNeuronName = "49" weight = "0.21014195059274837" />
    <synapse sourceNeuronName = "36" targetNeuronName = "50" weight = "-0.5515081631050169" />
    <synapse sourceNeuronName = "36" targetNeuronName = "51" weight = "0.3269137553466256" />
    <synapse sourceNeuronName = "36" targetNeuronName = "52" weight = "0.1924759766885336" />
    <synapse sourceNeuronName = "36" targetNeuronName = "53" weight = "-0.2763297037820196" />
    <synapse sourceNeuronName = "36" targetNeuronName = "54" weight = "-0.6969197779140015" />
    <synapse sourceNeuronName = "36" targetNeuronName = "55" weight = "0.02877556661641239" />
    <synapse sourceNeuronName = "37" targetNeuronName = "44" weight = "0.6895357562681165" />
    <synapse sourceNeuronName = "37" targetNeuronName = "45" weight = "0.5304046358194706" />
    <synapse sourceNeuronName = "37" targetNeuronName = "46" weight = "0.11333029826637828" />
    <synapse sourceNeuronName = "37" targetNeuronName = "47" weight = "-0.28563243888456924" />
    <synapse sourceNeuronName = "37" targetNeuronName = "48" weight = "-0.7501566831037892" />
    <synapse sourceNeuronName = "37" targetNeuronName = "49" weight = "0.2540844326979793" />
    <synapse sourceNeuronName = "37" targetNeuronName = "50" weight = "-0.14312766024932141" />
    <synapse sourceNeuronName = "37" targetNeuronName = "51" weight = "-0.1430995886365266" />
    <synapse sourceNeuronName = "37" targetNeuronName = "52" weight = "0.40542500661563563" />
    <synapse sourceNeuronName = "37" targetNeuronName = "53" weight = "-0.10068466384959936" />
    <synapse sourceNeuronName = "37" targetNeuronName = "54" weight = "-0.463672136608425" />
    <synapse sourceNeuronName = "37" targetNeuronName = "55" weight = "-0.3452634013828084" />
    <synapse sourceNeuronName = "38" targetNeuronName = "44" weight = "0.5690701410320231" />
    <synapse sourceNeuronName = "38" targetNeuronName = "45" weight = "-0.20781801030857353" />
    <synapse sourceNeuronName = "38" targetNeuronName = "46" weight = "0.012855637385152795" />
    <synapse sourceNeuronName = "38" targetNeuronName = "47" weight = "0.3296802873575415" />
    <synapse sourceNeuronName = "38" targetNeuronName = "48" weight = "-0.2896727417035244" />
    <synapse sourceNeuronName = "38" targetNeuronName = "49" weight = "-0.21528791124953872" />
    <synapse sourceNeuronName = "38" targetNeuronName = "50" weight = "-0.17058533569868684" />
    <synapse sourceNeuronName = "38" targetNeuronName = "51" weight = "-0.05946163301257249" />
    <synapse sourceNeuronName = "38" targetNeuronName = "52" weight = "0.09140377811454577" />
    <synapse sourceNeuronName = "38" targetNeuronName = "53" weight = "0.5182702482617016" />
    <synapse sourceNeuronName = "38" targetNeuronName = "54" weight = "0.21402897824271389" />
    <synapse sourceNeuronName = "38" targetNeuronName = "55" weight = "0.6662494815915669" />
    <synapse sourceNeuronName = "39" targetNeuronName = "44" weight = "-0.21591434640509916" />
    <synapse sourceNeuronName = "39" targetNeuronName = "45" weight = "-0.37412999123587665" />
    <synapse sourceNeuronName = "39" targetNeuronName = "46" weight = "-0.3833366605681703" />
    <synapse sourceNeuronName = "39" targetNeuronName = "47" weight = "0.03455018441678964" />
    <synapse sourceNeuronName = "39" targetNeuronName = "48" weight = "0.5156731344134529" />
    <synapse sourceNeuronName = "39" targetNeuronName = "49" weight = "-0.046315544395733356" />
    <synapse sourceNeuronName = "39" targetNeuronName = "50" weight = "-0.11210793078902632" />
    <synapse sourceNeuronName = "39" targetNeuronName = "51" weight = "0.3050316460801453" />
    <synapse sourceNeuronName = "39" targetNeuronName = "52" weight = "0.413977065334819" />
    <synapse sourceNeuronName = "39" targetNeuronName = "53" weight = "0.4782223163149545" />
    <synapse sourceNeuronName = "39" targetNeuronName = "54" weight = "0.034245552368085075" />
    <synapse sourceNeuronName = "39" targetNeuronName = "55" weight = "-0.20792555905313828" />
    <synapse sourceNeuronName = "40" targetNeuronName = "44" weight = "0.1420790619904415" />
    <synapse sourceNeuronName = "40" targetNeuronName = "45" weight = "0.6659336888568055" />
    <synapse sourceNeuronName = "40" targetNeuronName = "46" weight = "-0.004183473198860212" />
    <synapse sourceNeuronName = "40" targetNeuronName = "47" weight = "-0.25584862383648044" />
    <synapse sourceNeuronName = "40" targetNeuronName = "48" weight = "-0.5228601876421688" />
    <synapse sourceNeuronName = "40" targetNeuronName = "49" weight = "0.02093697502348773" />
    <synapse sourceNeuronName = "40" targetNeuronName = "50" weight = "-0.30716080132785306" />
    <synapse sourceNeuronName = "40" targetNeuronName = "51" weight = "0.1409848888409801" />
    <synapse sourceNeuronName = "40" targetNeuronName = "52" weight = "0.08345218788912948" />
    <synapse sourceNeuronName = "40" targetNeuronName = "53" weight = "-0.44512364882390687" />
    <synapse sourceNeuronName = "40" targetNeuronName = "54" weight = "0.2930572078198699" />
    <synapse sourceNeuronName = "40" targetNeuronName = "55" weight = "-0.3580289442966992" />
    <synapse sourceNeuronName = "41" targetNeuronName = "44" weight = "0.47947203732788457" />
    <synapse sourceNeuronName = "41" targetNeuronName = "45" weight = "0.0967556385991218" />
    <synapse sourceNeuronName = "41" targetNeuronName = "46" weight = "-0.06692818308941663" />
    <synapse sourceNeuronName = "41" targetNeuronName = "47" weight = "-0.43766574741894504" />
    <synapse sourceNeuronName = "41" targetNeuronName = "48" weight = "-0.21955797565601734" />
    <synapse sourceNeuronName = "41" targetNeuronName = "49" weight = "-0.16318466932514447" />
    <synapse sourceNeuronName = "41" targetNeuronName = "50" weight = "0.7421164092669628" />
    <synapse sourceNeuronName = "41" targetNeuronName = "51" weight = "0.33700095452845735" />
    <synapse sourceNeuronName = "41" targetNeuronName = "52" weight = "-0.9557215514259523" />
    <synapse sourceNeuronName = "41" targetNeuronName = "53" weight = "-0.1607018355631337" />
    <synapse sourceNeuronName = "41" targetNeuronName = "54" weight = "0.0932477110428685" />
    <synapse sourceNeuronName = "41" targetNeuronName = "55" weight = "0.2517258786021431" />
    <synapse sourceNeuronName = "42" targetNeuronName = "44" weight = "-0.09757780713342032" />
    <synapse sourceNeuronName = "42" targetNeuronName = "45" weight = "0.11102382620144682" />
    <synapse sourceNeuronName = "42" targetNeuronName = "46" weight = "-0.043936180385228285" />
    <synapse sourceNeuronName = "42" targetNeuronName = "47" weight = "0.5000986437793267" />
    <synapse sourceNeuronName = "42" targetNeuronName = "48" weight = "0.06366015684079185" />
    <synapse sourceNeuronName = "42" targetNeuronName = "49" weight = "0.7148730448718907" />
    <synapse sourceNeuronName = "42" targetNeuronName = "50" weight = "-0.8317779894207924" />
    <synapse sourceNeuronName = "42" targetNeuronName = "51" weight = "-0.13863399236809038" />
    <synapse sourceNeuronName = "42" targetNeuronName = "52" weight = "0.18313707021334003" />
    <synapse sourceNeuronName = "42" targetNeuronName = "53" weight = "0.14971021569276424" />
    <synapse sourceNeuronName = "42" targetNeuronName = "54" weight = "0.1708791041882685" />
    <synapse sourceNeuronName = "42" targetNeuronName = "55" weight = "-0.12721149223263895" />
    <synapse sourceNeuronName = "43" targetNeuronName = "44" weight = "-0.009508839753816778" />
    <synapse sourceNeuronName = "43" targetNeuronName = "45" weight = "-0.5186622781443971" />
    <synapse sourceNeuronName = "43" targetNeuronName = "46" weight = "-0.11331296696420737" />
    <synapse sourceNeuronName = "43" targetNeuronName = "47" weight = "0.09503448153769836" />
    <synapse sourceNeuronName = "43" targetNeuronName = "48" weight = "-0.9220285716985062" />
    <synapse sourceNeuronName = "43" targetNeuronName = "49" weight = "-0.11754044592693008" />
    <synapse sourceNeuronName = "43" targetNeuronName = "50" weight = "0.937547271638854" />
    <synapse sourceNeuronName = "43" targetNeuronName = "51" weight = "-0.16382674028933675" />
    <synapse sourceNeuronName = "43" targetNeuronName = "52" weight = "0.02687222722014255" />
    <synapse sourceNeuronName = "43" targetNeuronName = "53" weight = "0.05541440388318754" />
    <synapse sourceNeuronName = "43" targetNeuronName = "54" weight = "0.4418519999386339" />
    <synapse sourceNeuronName = "43" targetNeuronName = "55" weight = "-0.590999000066633" />
    <synapse sourceNeuronName = "34" targetNeuronName = "34" weight = "-0.3545042252449307" />
    <synapse sourceNeuronName = "35" targetNeuronName = "35" weight = "0.20556701579423625" />
    <synapse sourceNeuronName = "36" targetNeuronName = "36" weight = "-0.5267863307287047" />
    <synapse sourceNeuronName = "37" targetNeuronName = "37" weight = "0.8597691836285934" />
    <synapse sourceNeuronName = "38" targetNeuronName = "38" weight = "-0.8497385717290442" />
    <synapse sourceNeuronName = "39" targetNeuronName = "39" weight = "-0.313498953344263" />
    <synapse sourceNeuronName = "40" targetNeuronName = "40" weight = "-0.16034353967570986" />
    <synapse sourceNeuronName = "41" targetNeuronName = "41" weight = "-0.2874303324631605" />
    <synapse sourceNeuronName = "42" targetNeuronName = "42" weight = "-0.27700882517636866" />
    <synapse sourceNeuronName = "43" targetNeuronName = "43" weight = "-0.3586453163376495" />
</neuralNetwork>